{"learner":{"attributes":{"scikit_learn":"{\"_estimator_type\": \"classifier\"}"},"feature_names":["OLD_GPA_M6","GENDER_ENCODED","FAC_ENCODED","COUNT_F","COUNT_WIU","TERM1","TERM1_missing","TERM2","TERM2_missing","TERM3","TERM3_missing","avg_gpa_up_to_now","min_gpa_up_to_now","max_gpa_up_to_now","gpa_change_from_start","gpa_std_up_to_now","decline_last_term","consecutive_decline_2","improvement_from_hs","has_F","multiple_F","low_gpa","early_warning","current_term"],"feature_types":["float","int","int","int","int","float","int","float","int","float","int","float","float","float","float","float","int","int","float","int","int","int","int","int"],"gradient_booster":{"model":{"cats":{"enc":[],"feature_segments":[],"sorted_idx":[]},"gbtree_model_param":{"num_parallel_tree":"1","num_trees":"300"},"iteration_indptr":[0,1,2,3,4,5,6,7,8,9,10,11,12,13,14,15,16,17,18,19,20,21,22,23,24,25,26,27,28,29,30,31,32,33,34,35,36,37,38,39,40,41,42,43,44,45,46,47,48,49,50,51,52,53,54,55,56,57,58,59,60,61,62,63,64,65,66,67,68,69,70,71,72,73,74,75,76,77,78,79,80,81,82,83,84,85,86,87,88,89,90,91,92,93,94,95,96,97,98,99,100,101,102,103,104,105,106,107,108,109,110,111,112,113,114,115,116,117,118,119,120,121,122,123,124,125,126,127,128,129,130,131,132,133,134,135,136,137,138,139,140,141,142,143,144,145,146,147,148,149,150,151,152,153,154,155,156,157,158,159,160,161,162,163,164,165,166,167,168,169,170,171,172,173,174,175,176,177,178,179,180,181,182,183,184,185,186,187,188,189,190,191,192,193,194,195,196,197,198,199,200,201,202,203,204,205,206,207,208,209,210,211,212,213,214,215,216,217,218,219,220,221,222,223,224,225,226,227,228,229,230,231,232,233,234,235,236,237,238,239,240,241,242,243,244,245,246,247,248,249,250,251,252,253,254,255,256,257,258,259,260,261,262,263,264,265,266,267,268,269,270,271,272,273,274,275,276,277,278,279,280,281,282,283,284,285,286,287,288,289,290,291,292,293,294,295,296,297,298,299,300],"tree_info":[0,0,0,0,0,0,0,0,0,0,0,0,0,0,0,0,0,0,0,0,0,0,0,0,0,0,0,0,0,0,0,0,0,0,0,0,0,0,0,0,0,0,0,0,0,0,0,0,0,0,0,0,0,0,0,0,0,0,0,0,0,0,0,0,0,0,0,0,0,0,0,0,0,0,0,0,0,0,0,0,0,0,0,0,0,0,0,0,0,0,0,0,0,0,0,0,0,0,0,0,0,0,0,0,0,0,0,0,0,0,0,0,0,0,0,0,0,0,0,0,0,0,0,0,0,0,0,0,0,0,0,0,0,0,0,0,0,0,0,0,0,0,0,0,0,0,0,0,0,0,0,0,0,0,0,0,0,0,0,0,0,0,0,0,0,0,0,0,0,0,0,0,0,0,0,0,0,0,0,0,0,0,0,0,0,0,0,0,0,0,0,0,0,0,0,0,0,0,0,0,0,0,0,0,0,0,0,0,0,0,0,0,0,0,0,0,0,0,0,0,0,0,0,0,0,0,0,0,0,0,0,0,0,0,0,0,0,0,0,0,0,0,0,0,0,0,0,0,0,0,0,0,0,0,0,0,0,0,0,0,0,0,0,0,0,0,0,0,0,0,0,0,0,0,0,0,0,0,0,0,0,0,0,0,0,0,0,0,0,0,0,0,0,0,0,0,0,0,0,0],"trees":[{"base_weights":[1.0848613E-3,1.7059954E0,-1.120512E0,1.968104E0,7.8052276E-1,-1.467566E0,9.308225E-1,1.990745E-2,1.6345394E0,2.2658172E-1,1.4517694E0,-1.5039067E0,9.820195E-1,4.741694E-1,1.6257591E0,1.332667E0,1.8175305E0,-5.000202E-1,4.4631046E-1,1.0091355E0,1.6272577E0,-7.655389E-1,-1.6057202E0,1.2905455E0,-1.5555556E-2,5.8692294E-1,-7.98371E-1,1.4156252E0,1.7580165E0,1.5398062E-2,9.337813E-3,1.8600361E-2,7.882953E-3,-7.164772E-3,1.2311047E-2,2.4158277E-3,9.478253E-3,1.2141315E-2,-4.913399E-3,1.4359396E-2,1.778479E-2,3.5481895E-3,-8.048977E-3,-1.6642723E-2,-8.562133E-3,3.5945158E-3,1.3990463E-2,3.2593282E-3,1.05508035E-2,-1.7777778E-2,-8.3171314E-4,1.493331E-2,6.2548732E-3,1.1454082E-2,1.7934542E-2],"categories":[],"categories_nodes":[],"categories_segments":[],"categories_sizes":[],"default_left":[0,0,0,0,0,0,0,0,0,0,0,0,0,0,0,0,0,0,0,0,0,0,0,0,0,0,0,0,0,0,0,0,0,0,0,0,0,0,0,0,0,0,0,0,0,0,0,0,0,0,0,0,0,0,0],"id":0,"left_children":[1,3,5,7,9,11,13,-1,15,17,19,21,23,25,27,29,31,33,35,37,39,41,43,45,-1,47,49,51,53,-1,-1,-1,-1,-1,-1,-1,-1,-1,-1,-1,-1,-1,-1,-1,-1,-1,-1,-1,-1,-1,-1,-1,-1,-1,-1],"loss_changes":[9.309922E3,4.67104E2,2.0920708E3,8.111328E0,1.5883417E2,2.2510645E2,1.3427863E2,0E0,3.1704407E0,3.7854397E1,1.3376648E1,1.8489111E2,3.123254E1,3.7518887E1,2.1898193E0,2.0289307E0,1.1710663E0,2.1566109E1,1.8406704E1,1.8290924E1,1.4047241E0,1.3599487E1,9.402051E1,2.9146423E0,0E0,2.8709007E1,1.4870979E1,3.3736725E0,9.890747E-2,0E0,0E0,0E0,0E0,0E0,0E0,0E0,0E0,0E0,0E0,0E0,0E0,0E0,0E0,0E0,0E0,0E0,0E0,0E0,0E0,0E0,0E0,0E0,0E0,0E0,0E0],"parents":[2147483647,0,0,1,1,2,2,3,3,4,4,5,5,6,6,8,8,9,9,10,10,11,11,12,12,13,13,14,14,15,15,16,16,17,17,18,18,19,19,20,20,21,21,22,22,23,23,25,25,26,26,27,27,28,28],"right_children":[2,4,6,8,10,12,14,-1,16,18,20,22,24,26,28,30,32,34,36,38,40,42,44,46,-1,48,50,52,54,-1,-1,-1,-1,-1,-1,-1,-1,-1,-1,-1,-1,-1,-1,-1,-1,-1,-1,-1,-1,-1,-1,-1,-1,-1,-1],"split_conditions":[2.25E0,1.43E0,2E0,8.6E-1,4E0,4E0,5E0,1.990745E-2,7E0,1E0,6E0,2.68E0,1E1,5E0,7E0,2.38E0,1.3333334E-2,3E0,3E0,-8.6666666E-2,9E0,1.85E0,1E0,2.43E0,-1.5555556E-2,3E0,2.47E0,1E0,2.03E0,1.5398062E-2,9.337813E-3,1.8600361E-2,7.882953E-3,-7.164772E-3,1.2311047E-2,2.4158277E-3,9.478253E-3,1.2141315E-2,-4.913399E-3,1.4359396E-2,1.778479E-2,3.5481895E-3,-8.048977E-3,-1.6642723E-2,-8.562133E-3,3.5945158E-3,1.3990463E-2,3.2593282E-3,1.05508035E-2,-1.7777778E-2,-8.3171314E-4,1.493331E-2,6.2548732E-3,1.1454082E-2,1.7934542E-2],"split_indices":[9,9,3,9,3,4,3,0,3,3,3,11,4,2,3,7,18,4,2,18,3,0,3,9,0,2,0,4,0,0,0,0,0,0,0,0,0,0,0,0,0,0,0,0,0,0,0,0,0,0,0,0,0,0,0],"split_type":[0,0,0,0,0,0,0,0,0,0,0,0,0,0,0,0,0,0,0,0,0,0,0,0,0,0,0,0,0,0,0,0,0,0,0,0,0,0,0,0,0,0,0,0,0,0,0,0,0,0,0,0,0,0,0],"sum_hessian":[4.86664E3,1.9309429E3,2.9356975E3,1.5038906E3,4.2705228E2,2.5111367E3,4.2456076E2,1.4036484E3,1.00242096E2,2.34703E2,1.9234927E2,2.4748079E3,3.6328808E1,2.5722E2,1.6734076E2,4.095806E1,5.9284035E1,5.4199554E1,1.8050345E2,5.6525528E1,1.3582375E2,3.009303E2,2.1738777E3,3.2828808E1,3.5E0,2.3677896E2,2.0441046E1,6.916045E1,9.8180305E1,2.5075972E1,1.5882091E1,5.6157616E1,3.126418E0,4.8696716E1,5.502836E0,1.2923076E2,5.127269E1,4.989911E1,6.626418E0,6.4595825E1,7.122791E1,9.941046E0,2.9098926E2,2.0152257E3,1.5865195E2,3.876418E0,2.895239E1,1.5311568E2,8.366329E1,8E0,1.2441046E1,6.2157616E1,7.002836E0,7.1910453E0,9.098926E1],"tree_param":{"num_deleted":"0","num_feature":"24","num_nodes":"55","size_leaf_vector":"1"}},{"base_weights":[-1.5776368E-2,1.7751415E0,-1.105821E0,1.9506587E0,9.371417E-1,-1.4488366E0,8.1512094E-1,1.9731004E-2,1.6640012E0,-1.08153775E-1,1.4407946E0,-6.71142E-1,-1.5940212E0,2.6820803E-1,1.5576146E0,1.3415362E0,1.8125227E-2,5.218508E-1,-4.435061E-1,1.1186949E0,1.6628705E0,2.9748583E-1,-7.709224E-1,-1.672293E0,-6.2930685E-1,-4.280764E-1,3.514024E-1,1.1089473E0,1.660003E0,1.682797E-2,9.635634E-3,1.0067931E-2,-1.3758139E-3,-1.3302054E-2,-1.444572E-3,1.8347437E-2,9.868928E-3,1.3019064E-2,1.7421406E-2,1.1065216E-2,-4.8128385E-3,-7.093004E-3,-1.6868697E-2,-1.45107405E-2,-1.7658439E-2,-8.213511E-3,8.2158856E-4,-1.7818872E-2,2.132414E-3,1.1326517E-3,6.138808E-3,6.1223675E-3,1.3735207E-2,1.68534E-2,4.7548697E-3],"categories":[],"categories_nodes":[],"categories_segments":[],"categories_sizes":[],"default_left":[0,0,0,0,0,0,0,0,0,0,0,0,0,0,0,0,0,0,0,0,0,0,0,0,0,0,0,0,0,0,0,0,0,0,0,0,0,0,0,0,0,0,0,0,0,0,0,0,0,0,0,0,0,0,0],"id":1,"left_children":[1,3,5,7,9,11,13,-1,15,17,19,21,23,25,27,29,-1,31,33,35,37,39,41,43,45,47,49,51,53,-1,-1,-1,-1,-1,-1,-1,-1,-1,-1,-1,-1,-1,-1,-1,-1,-1,-1,-1,-1,-1,-1,-1,-1,-1,-1],"loss_changes":[9.383612E3,2.6566992E2,1.9700415E3,6.385254E0,1.6698126E2,2.8523145E2,1.836835E2,0E0,3.0997314E0,2.2196613E1,1.344104E1,3.8950546E1,1.6024023E2,1.5343107E1,6.983429E0,3.5725937E0,0E0,1.1834932E1,1.7942541E1,6.716484E0,1.296051E0,2.4561068E1,1.9320099E1,3.8313965E1,2.218898E1,2.507521E1,1.4608707E1,4.2453537E0,3.8321228E0,0E0,0E0,0E0,0E0,0E0,0E0,0E0,0E0,0E0,0E0,0E0,0E0,0E0,0E0,0E0,0E0,0E0,0E0,0E0,0E0,0E0,0E0,0E0,0E0,0E0,0E0],"parents":[2147483647,0,0,1,1,2,2,3,3,4,4,5,5,6,6,8,8,9,9,10,10,11,11,12,12,13,13,14,14,15,15,17,17,18,18,19,19,20,20,21,21,22,22,23,23,24,24,25,25,26,26,27,27,28,28],"right_children":[2,4,6,8,10,12,14,-1,16,18,20,22,24,26,28,30,-1,32,34,36,38,40,42,44,46,48,50,52,54,-1,-1,-1,-1,-1,-1,-1,-1,-1,-1,-1,-1,-1,-1,-1,-1,-1,-1,-1,-1,-1,-1,-1,-1,-1,-1],"split_conditions":[2.1E0,1.43E0,2E0,8.6E-1,3E0,2.7166667E0,5E0,1.9731004E-2,6E0,1.82E0,6E0,2.03E0,1E0,2.19E0,6E0,2.2E0,1.8125227E-2,2.74E0,2.24E0,-1.22E0,1.64E0,1.94E0,3.1333333E-1,3.0966666E0,5.7666665E-1,1.7E-1,3E0,2.58E0,7.4333334E-1,1.682797E-2,9.635634E-3,1.0067931E-2,-1.3758139E-3,-1.3302054E-2,-1.444572E-3,1.8347437E-2,9.868928E-3,1.3019064E-2,1.7421406E-2,1.1065216E-2,-4.8128385E-3,-7.093004E-3,-1.6868697E-2,-1.45107405E-2,-1.7658439E-2,-8.213511E-3,8.2158856E-4,-1.7818872E-2,2.132414E-3,1.1326517E-3,6.138808E-3,6.1223675E-3,1.3735207E-2,1.68534E-2,4.7548697E-3],"split_indices":[9,9,3,9,3,11,3,0,3,9,3,0,3,0,3,7,0,0,7,18,9,12,18,11,18,14,3,9,18,0,0,0,0,0,0,0,0,0,0,0,0,0,0,0,0,0,0,0,0,0,0,0,0,0,0],"split_type":[0,0,0,0,0,0,0,0,0,0,0,0,0,0,0,0,0,0,0,0,0,0,0,0,0,0,0,0,0,0,0,0,0,0,0,0,0,0,0,0,0,0,0,0,0,0,0,0,0,0,0,0,0,0,0],"sum_hessian":[4.8047285E3,1.8176853E3,2.987043E3,1.5018074E3,3.1587796E2,2.5346802E3,4.5236285E2,1.3873143E3,1.14493E2,1.0296556E2,2.1291241E2,3.9963287E2,2.1350474E3,2.612731E2,1.9108978E2,3.926806E1,7.522494E1,3.557569E1,6.738986E1,8.93526E1,1.23559814E2,3.713732E1,3.6249554E2,1.9741426E3,1.6090471E2,2.744343E1,2.3382967E2,3.7703472E1,1.533863E2,1.882202E1,2.0446037E1,2.0196531E1,1.537916E1,1.612628E1,5.1263588E1,1.1881712E1,7.747089E1,2.538598E1,9.817383E1,1.8008295E1,1.9129028E1,3.4130786E2,2.1187698E1,5.9163104E2,1.3825116E3,1.2658222E2,3.4322483E1,8.249789E0,1.9193642E1,1.23350075E2,1.1047958E2,1.4255057E1,2.3448414E1,1.4976009E2,3.626215E0],"tree_param":{"num_deleted":"0","num_feature":"24","num_nodes":"55","size_leaf_vector":"1"}},{"base_weights":[3.3364033E-3,1.6938598E0,-8.2321316E-1,1.056793E0,1.9540893E-2,-1.426943E0,1.163069E0,-5.684658E-1,1.59E0,-1.5526936E0,-5.196585E-1,3.7644398E-1,1.7428962E0,-1.0897406E-1,-1.2274003E0,1.0000699E0,1.8344662E0,-1.5900276E0,9.017185E-1,2.3383033E-1,-7.197433E-1,4.764047E-1,-1.0332147E0,1.8776229E-2,1.6017545E0,-3.2313543E-3,1.332857E-2,3.8587232E-3,-1.3802347E-2,1.473118E-2,5.6503336E-3,1.894213E-2,1.6139003E-2,-6.8093133E-3,-1.6349578E-2,1.112783E-2,-1.7126165E-3,3.7978636E-3,-1.590564E-2,-8.087727E-3,6.7969686E-3,2.6965253E-3,9.459658E-3,9.104848E-3,-1.6023695E-2,1.6893692E-2,1.3950788E-2],"categories":[],"categories_nodes":[],"categories_segments":[],"categories_sizes":[],"default_left":[0,0,0,0,0,0,0,0,0,0,0,0,0,0,0,0,0,0,0,0,0,0,0,0,0,0,0,0,0,0,0,0,0,0,0,0,0,0,0,0,0,0,0,0,0,0,0],"id":2,"left_children":[1,3,5,7,-1,9,11,13,15,17,19,21,23,25,27,29,31,33,35,37,39,41,43,-1,45,-1,-1,-1,-1,-1,-1,-1,-1,-1,-1,-1,-1,-1,-1,-1,-1,-1,-1,-1,-1,-1,-1],"loss_changes":[6.777525E3,2.619912E2,3.9081814E3,4.030982E2,0E0,2.8428027E2,3.459441E2,3.4801956E1,4.860144E1,2.0248438E2,4.6252373E1,4.6108994E1,5.305786E0,2.1760899E1,1.21968155E1,2.0706345E1,1.8554688E-1,8.717822E1,7.7800274E0,1.7883986E1,3.0673615E1,2.9158775E1,2.5521933E1,0E0,1.6325684E0,0E0,0E0,0E0,0E0,0E0,0E0,0E0,0E0,0E0,0E0,0E0,0E0,0E0,0E0,0E0,0E0,0E0,0E0,0E0,0E0,0E0,0E0],"parents":[2147483647,0,0,1,1,2,2,3,3,5,5,6,6,7,7,8,8,9,9,10,10,11,11,12,12,13,13,14,14,15,15,16,16,17,17,18,18,19,19,20,20,21,21,22,22,24,24],"right_children":[2,4,6,8,-1,10,12,14,16,18,20,22,24,26,28,30,32,34,36,38,40,42,44,-1,46,-1,-1,-1,-1,-1,-1,-1,-1,-1,-1,-1,-1,-1,-1,-1,-1,-1,-1,-1,-1,-1,-1],"split_conditions":[-8E-1,1E0,2E0,2E0,1.9540893E-2,1E0,5E0,2.34E0,5E0,3E0,2E0,5E0,2.36E0,2E0,4.1789153E-1,1.57E0,-1.17E0,2.79E0,1E1,1.13E0,3.78E0,3E0,1.79E0,1.8776229E-2,1.9E-1,-3.2313543E-3,1.332857E-2,3.8587232E-3,-1.3802347E-2,1.473118E-2,5.6503336E-3,1.894213E-2,1.6139003E-2,-6.8093133E-3,-1.6349578E-2,1.112783E-2,-1.7126165E-3,3.7978636E-3,-1.590564E-2,-8.087727E-3,6.7969686E-3,2.6965253E-3,9.459658E-3,9.104848E-3,-1.6023695E-2,1.6893692E-2,1.3950788E-2],"split_indices":[14,10,3,3,0,3,3,12,3,4,12,2,13,4,15,12,14,13,4,14,13,2,12,0,14,0,0,0,0,0,0,0,0,0,0,0,0,0,0,0,0,0,0,0,0,0,0],"split_type":[0,0,0,0,0,0,0,0,0,0,0,0,0,0,0,0,0,0,0,0,0,0,0,0,0,0,0,0,0,0,0,0,0,0,0,0,0,0,0,0,0,0,0,0,0,0,0],"sum_hessian":[4.848441E3,1.5917733E3,3.2566677E3,4.631063E2,1.128667E3,2.497757E3,7.589107E2,1.14385086E2,3.4872122E2,2.193082E3,3.0467502E2,3.227287E2,4.36182E2,6.8077965E1,4.630712E1,1.0366185E2,2.4505937E2,2.1605698E3,3.2512257E1,6.3893425E1,2.4078159E2,3.0197714E2,2.0751545E1,2.1686777E2,2.1931424E2,5.9949318E1,8.128644E0,3.8753521E0,4.243177E1,4.8518158E1,5.514369E1,1.8685583E2,5.8203533E1,1.0251345E2,2.0580562E3,2.7137068E1,5.3751903E0,5.9893616E1,3.9998078E0,2.2677661E2,1.4004978E1,2.107543E2,9.122284E1,4.564337E0,1.6187208E1,1.4898294E2,7.0331314E1],"tree_param":{"num_deleted":"0","num_feature":"24","num_nodes":"47","size_leaf_vector":"1"}},{"base_weights":[-9.116727E-3,1.7091237E0,-1.0808713E0,1.9028064E0,8.093617E-1,-1.4064534E0,8.2628477E-1,1.9326096E0,1.6153481E0,2.8502387E-1,1.5968281E0,-1.4488807E0,9.1877043E-1,2.6646635E-1,1.5815694E0,1.9354764E-2,1.0618751E-2,7.1009016E-1,1.6643664E0,-2.947861E-1,4.4245312E-1,1.4169968E0,1.77397E-2,-1.564044E0,-5.6883967E-1,1.1613508E0,-4.6293816E-1,1.3565585E-1,5.764488E-1,1.2938012E0,1.6542788E0,1.3335105E-2,-3.899932E-3,1.7042339E-2,1.1776405E-2,-1.688983E-2,-3.64732E-4,1.1133505E-3,7.677032E-3,1.4494538E-2,5.946039E-3,-1.1782408E-2,-1.6687738E-2,-1.2417891E-2,-4.348303E-3,1.6254309E-3,1.4390857E-2,8.119284E-3,-1.52912885E-2,6.2059998E-3,-1.0092703E-3,1.1920401E-2,-5.662774E-4,3.264005E-3,1.3836956E-2,1.227514E-2,1.6911667E-2],"categories":[],"categories_nodes":[],"categories_segments":[],"categories_sizes":[],"default_left":[0,0,0,0,0,0,0,0,0,0,0,0,0,0,0,0,0,0,0,0,0,0,0,0,0,0,0,0,0,0,0,0,0,0,0,0,0,0,0,0,0,0,0,0,0,0,0,0,0,0,0,0,0,0,0,0,0],"id":3,"left_children":[1,3,5,7,9,11,13,15,17,19,21,23,25,27,29,-1,-1,31,33,35,37,39,-1,41,43,45,47,49,51,53,55,-1,-1,-1,-1,-1,-1,-1,-1,-1,-1,-1,-1,-1,-1,-1,-1,-1,-1,-1,-1,-1,-1,-1,-1,-1,-1],"loss_changes":[8.917403E3,3.2262793E2,1.8529255E3,9.98584E0,1.3631033E2,2.526709E2,1.8371854E2,1.3925781E0,5.465912E0,1.839115E1,1.6969604E0,2.5272852E2,1.6044811E1,1.0112499E1,1.734375E0,0E0,0E0,6.9937987E0,7.362976E-1,1.5539411E1,1.6901918E1,1.0215759E0,0E0,8.742236E1,2.571643E1,1.0762722E1,1.1605277E1,2.0489582E1,2.901326E1,3.1957245E0,1.9476318E-1,0E0,0E0,0E0,0E0,0E0,0E0,0E0,0E0,0E0,0E0,0E0,0E0,0E0,0E0,0E0,0E0,0E0,0E0,0E0,0E0,0E0,0E0,0E0,0E0,0E0,0E0],"parents":[2147483647,0,0,1,1,2,2,3,3,4,4,5,5,6,6,7,7,8,8,9,9,10,10,11,11,12,12,13,13,14,14,17,17,18,18,19,19,20,20,21,21,23,23,24,24,25,25,26,26,27,27,28,28,29,29,30,30],"right_children":[2,4,6,8,10,12,14,16,18,20,22,24,26,28,30,-1,-1,32,34,36,38,40,-1,42,44,46,48,50,52,54,56,-1,-1,-1,-1,-1,-1,-1,-1,-1,-1,-1,-1,-1,-1,-1,-1,-1,-1,-1,-1,-1,-1,-1,-1,-1,-1],"split_conditions":[2.15E0,1.55E0,2E0,8.6E-1,5E0,3E0,5E0,4E0,2E0,1E0,9E0,1E0,1E1,2.85E0,6E0,1.9354764E-2,1.0618751E-2,1.43E0,2.3366666E0,2.27E0,2.43E0,1.9333333E-1,1.77397E-2,2.92E0,-4.8E-1,5E0,-2.2666667E-1,2.325E0,2.9633334E0,-4.4E-1,-7.7E-1,1.3335105E-2,-3.899932E-3,1.7042339E-2,1.1776405E-2,-1.688983E-2,-3.64732E-4,1.1133505E-3,7.677032E-3,1.4494538E-2,5.946039E-3,-1.1782408E-2,-1.6687738E-2,-1.2417891E-2,-4.348303E-3,1.6254309E-3,1.4390857E-2,8.119284E-3,-1.52912885E-2,6.2059998E-3,-1.0092703E-3,1.1920401E-2,-5.662774E-4,3.264005E-3,1.3836956E-2,1.227514E-2,1.6911667E-2],"split_indices":[9,9,3,9,3,4,3,7,3,3,3,3,4,11,3,0,0,9,11,0,7,18,0,9,18,4,18,11,11,14,18,0,0,0,0,0,0,0,0,0,0,0,0,0,0,0,0,0,0,0,0,0,0,0,0,0,0],"split_type":[0,0,0,0,0,0,0,0,0,0,0,0,0,0,0,0,0,0,0,0,0,0,0,0,0,0,0,0,0,0,0,0,0,0,0,0,0,0,0,0,0,0,0,0,0,0,0,0,0,0,0,0,0,0,0,0,0],"sum_hessian":[4.84038E3,1.8591653E3,2.9812144E3,1.5289326E3,3.302327E2,2.5467124E3,4.3450198E2,1.3801207E3,1.4881186E2,1.9905382E2,1.3117886E2,2.5014465E3,4.526586E1,2.5031834E2,1.8418362E2,1.3743729E3,5.7478023E0,8.43949E0,1.4037238E2,4.2319416E1,1.567344E2,6.956098E1,6.1617878E1,2.2112961E3,2.9015054E2,3.864127E1,6.624593E0,1.7704443E2,7.327392E1,4.0941162E1,1.4324246E2,5.2513466E0,3.1881435E0,1.2743297E2,1.2939406E1,5.749425E0,3.6569992E1,7.833176E1,7.840266E1,6.6186356E1,3.374632E0,4.747315E2,1.7365646E3,4.6811676E1,2.4333885E2,8.752003E0,2.9889267E1,3.125657E0,3.498936E0,5.751921E1,1.19525215E2,3.6702347E1,3.6571575E1,3.8746803E0,3.7066483E1,1.4123374E1,1.291191E2],"tree_param":{"num_deleted":"0","num_feature":"24","num_nodes":"57","size_leaf_vector":"1"}},{"base_weights":[-2.1713007E-2,1.6303396E0,-1.102188E0,1.8702811E0,5.953258E-1,-1.4046621E0,8.314056E-1,1.9109633E-2,1.3866707E0,-6.196448E-2,1.6355293E0,-6.0105264E-1,-1.5172447E0,2.3213609E-1,1.3909907E0,1.0342972E0,1.7363085E0,-9.31608E-1,2.0288467E-1,1.4838358E0,1.7817095E-2,-5.3086575E-2,-8.208569E-1,-1.5854126E0,-7.2785085E-1,3.5502726E-1,-1.2238305E0,1.4260701E0,-5.045008E-3,1.1175545E-2,-4.207425E-3,7.364291E-3,1.7779164E-2,1.1850597E-3,-1.1551897E-2,3.2921444E-4,7.962815E-3,1.5057447E-2,7.4596363E-3,-1.9211706E-3,1.09402705E-2,-1.0690095E-2,-3.8980725E-3,-1.4170106E-2,-1.7188227E-2,-9.618688E-3,-3.3649805E-3,9.068422E-4,8.457157E-3,-1.801347E-2,3.5929966E-3,1.1327388E-2,1.6275655E-2],"categories":[],"categories_nodes":[],"categories_segments":[],"categories_sizes":[],"default_left":[0,0,0,0,0,0,0,0,0,0,0,0,0,0,0,0,0,0,0,0,0,0,0,0,0,0,0,0,0,0,0,0,0,0,0,0,0,0,0,0,0,0,0,0,0,0,0,0,0,0,0,0,0],"id":4,"left_children":[1,3,5,7,9,11,13,-1,15,17,19,21,23,25,27,29,31,33,35,37,-1,39,41,43,45,47,49,51,-1,-1,-1,-1,-1,-1,-1,-1,-1,-1,-1,-1,-1,-1,-1,-1,-1,-1,-1,-1,-1,-1,-1,-1,-1],"loss_changes":[8.584355E3,4.7113672E2,1.7016814E3,2.771289E1,2.4578876E2,2.2659082E2,1.317797E2,0E0,1.3406586E1,5.112838E1,4.4247437E-1,3.7373207E1,1.1749805E2,3.468477E1,1.4251495E1,8.214806E0,1.2061768E0,1.2301125E1,1.7154928E1,7.763672E-2,0E0,1.456467E1,2.3292114E1,4.314502E1,1.5897797E1,2.2920616E1,1.447513E1,9.981781E0,0E0,0E0,0E0,0E0,0E0,0E0,0E0,0E0,0E0,0E0,0E0,0E0,0E0,0E0,0E0,0E0,0E0,0E0,0E0,0E0,0E0,0E0,0E0,0E0,0E0],"parents":[2147483647,0,0,1,1,2,2,3,3,4,4,5,5,6,6,8,8,9,9,10,10,11,11,12,12,13,13,14,14,15,15,16,16,17,17,18,18,19,19,21,21,22,22,23,23,24,24,25,25,26,26,27,27],"right_children":[2,4,6,8,10,12,14,-1,16,18,20,22,24,26,28,30,32,34,36,38,-1,40,42,44,46,48,50,52,-1,-1,-1,-1,-1,-1,-1,-1,-1,-1,-1,-1,-1,-1,-1,-1,-1,-1,-1,-1,-1,-1,-1,-1,-1],"split_conditions":[2.25E0,1.64E0,2E0,1.14E0,5E0,2.67E0,4E0,1.9109633E-2,7E0,1E0,9E0,2.03E0,1E0,5E0,7.4333334E-1,5E0,1.77E0,-7.5E-1,4E0,1.5333334E-1,1.7817095E-2,5.3E-1,1E0,3.22E0,2.7666667E-1,3E0,6.0135955E-1,6E0,-5.045008E-3,1.1175545E-2,-4.207425E-3,7.364291E-3,1.7779164E-2,1.1850597E-3,-1.1551897E-2,3.2921444E-4,7.962815E-3,1.5057447E-2,7.4596363E-3,-1.9211706E-3,1.09402705E-2,-1.0690095E-2,-3.8980725E-3,-1.4170106E-2,-1.7188227E-2,-9.618688E-3,-3.3649805E-3,9.068422E-4,8.457157E-3,-1.801347E-2,3.5929966E-3,1.1327388E-2,1.6275655E-2],"split_indices":[9,9,3,9,3,11,3,0,3,3,3,12,3,2,18,2,0,18,2,18,0,18,16,11,18,2,15,3,0,0,0,0,0,0,0,0,0,0,0,0,0,0,0,0,0,0,0,0,0,0,0,0,0],"split_type":[0,0,0,0,0,0,0,0,0,0,0,0,0,0,0,0,0,0,0,0,0,0,0,0,0,0,0,0,0,0,0,0,0,0,0,0,0,0,0,0,0,0,0,0,0,0,0,0,0,0,0,0,0],"sum_hessian":[4.8071514E3,1.9006056E3,2.906546E3,1.542264E3,3.5834155E2,2.5136123E3,3.9293362E2,1.4198707E3,1.2239332E2,2.201636E2,1.3817793E2,3.096538E2,2.2039585E3,1.904221E2,2.0251152E2,6.2929565E1,5.9463753E1,5.0809834E1,1.6935378E2,7.328238E1,6.489555E1,8.900594E1,2.2064786E2,2.0278365E3,1.7612201E2,1.762978E2,1.4124297E1,1.9907495E2,3.436578E0,5.974301E1,3.1865542E0,3.1226482E0,5.6341103E1,9.00154E0,4.1808296E1,1.3246739E2,3.6886387E1,7.0158554E1,3.1238213E0,8.0127045E1,8.8789E0,1.390929E2,8.1554955E1,9.015018E2,1.1263348E3,1.0930367E2,6.681833E1,1.1534442E2,6.095338E1,1.02480345E1,3.8762624E0,8.376054E1,1.15314415E2],"tree_param":{"num_deleted":"0","num_feature":"24","num_nodes":"53","size_leaf_vector":"1"}},{"base_weights":[-3.996149E-3,-6.4474815E-1,1.898182E-2,-1.3128479E0,1.1808543E0,-4.53633E-1,-1.48197E0,5.962098E-1,1.6498826E0,-5.516647E-1,1.0844697E0,-1.5656756E0,-5.619138E-1,1.0912027E0,4.4642907E-1,1.3295301E0,1.7065794E0,6.448681E-3,-6.722828E-3,5.276117E-3,1.728251E-2,-1.5935514E-2,7.1089696E-3,-1.8391045E-2,-4.360403E-3,3.5665631E-3,1.2900748E-2,2.3173054E-3,6.7937854E-3,1.1223237E-2,1.7474784E-2,1.879292E-2,1.6594887E-2],"categories":[],"categories_nodes":[],"categories_segments":[],"categories_sizes":[],"default_left":[0,0,0,0,0,0,0,0,0,0,0,0,0,0,0,0,0,0,0,0,0,0,0,0,0,0,0,0,0,0,0,0,0],"id":5,"left_children":[1,3,-1,5,7,9,11,13,15,17,19,21,23,25,27,29,31,-1,-1,-1,-1,-1,-1,-1,-1,-1,-1,-1,-1,-1,-1,-1,-1],"loss_changes":[5.933022E3,4.4427314E3,0E0,3.8675684E2,2.666698E2,6.693152E1,1.706499E2,3.1841873E1,7.557373E0,6.0216652E1,8.65855E0,1.3065479E2,2.9308472E1,1.4235931E1,1.66697E1,5.4760437E0,5.913086E-1,0E0,0E0,0E0,0E0,0E0,0E0,0E0,0E0,0E0,0E0,0E0,0E0,0E0,0E0,0E0,0E0],"parents":[2147483647,0,0,1,1,3,3,4,4,5,5,6,6,7,7,8,8,9,9,10,10,11,11,12,12,13,13,14,14,15,15,16,16],"right_children":[2,4,-1,6,8,10,12,14,16,18,20,22,24,26,28,30,32,-1,-1,-1,-1,-1,-1,-1,-1,-1,-1,-1,-1,-1,-1,-1,-1],"split_conditions":[1E0,2E0,1.898182E-2,2.69E0,5E0,3E0,1E0,1.62E0,6E0,2.14E0,3E0,3E0,-4.8E-1,1.75E0,3E0,3.3E0,1.64E0,6.448681E-3,-6.722828E-3,5.276117E-3,1.728251E-2,-1.5935514E-2,7.1089696E-3,-1.8391045E-2,-4.360403E-3,3.5665631E-3,1.2900748E-2,2.3173054E-3,6.7937854E-3,1.1223237E-2,1.7474784E-2,1.879292E-2,1.6594887E-2],"split_indices":[10,3,0,11,3,4,3,12,3,11,2,4,18,5,3,13,11,0,0,0,0,0,0,0,0,0,0,0,0,0,0,0,0],"split_type":[0,0,0,0,0,0,0,0,0,0,0,0,0,0,0,0,0,0,0,0,0,0,0,0,0,0,0,0,0,0,0,0,0],"sum_hessian":[4.865819E3,3.6402542E3,1.2255648E3,2.665182E3,9.750723E2,4.3892596E2,2.2262559E3,4.3505127E2,5.4002106E2,4.132299E2,2.569606E1,2.0399608E3,1.8629506E2,9.960223E1,3.3544907E2,8.487933E1,4.5514172E2,3.744351E1,3.7578638E2,1.4753839E1,1.0942223E1,2.0155808E3,2.4380056E1,1.5492082E1,1.7080298E2,2.1816181E1,7.778605E1,1.7560085E2,1.598482E2,5.9210056E1,2.5669277E1,8.917374E1,3.65968E2],"tree_param":{"num_deleted":"0","num_feature":"24","num_nodes":"33","size_leaf_vector":"1"}},{"base_weights":[1.1933244E-2,1.6664648E0,-1.0251309E0,1.8641756E0,8.664666E-1,-1.3607758E0,8.8665175E-1,1.8830929E-2,1.6093105E0,1.11230865E-1,1.3612963E0,-8.551626E-1,-1.547571E0,4.451987E-1,1.5485417E0,1.8053893E-2,1.4723791E0,8.2675827E-1,-1.9327043E-1,1.0496552E0,1.5899802E0,-6.291412E-2,-9.4901484E-1,-1.6034139E0,-6.7878675E-1,5.51811E-1,-9.1580284E-1,1.1250616E0,1.6408839E0,3.0668916E-3,1.5731107E-2,3.9816997E-3,1.2187119E-2,-6.988465E-3,6.052712E-3,1.2485007E-2,5.274139E-3,1.4124676E-2,1.7069459E-2,-1.3481866E-2,1.602534E-3,-1.0923927E-2,-4.9086898E-3,-1.435526E-2,-1.7016063E-2,-7.9623265E-3,6.143951E-3,3.3796018E-3,9.599643E-3,-2.3554019E-3,-1.7444154E-2,1.2996577E-2,-1.1945872E-4,8.144306E-3,1.6726855E-2],"categories":[],"categories_nodes":[],"categories_segments":[],"categories_sizes":[],"default_left":[0,0,0,0,0,0,0,0,0,0,0,0,0,0,0,0,0,0,0,0,0,0,0,0,0,0,0,0,0,0,0,0,0,0,0,0,0,0,0,0,0,0,0,0,0,0,0,0,0,0,0,0,0,0,0],"id":6,"left_children":[1,3,5,7,9,11,13,-1,15,17,19,21,23,25,27,-1,29,31,33,35,37,39,41,43,45,47,49,51,53,-1,-1,-1,-1,-1,-1,-1,-1,-1,-1,-1,-1,-1,-1,-1,-1,-1,-1,-1,-1,-1,-1,-1,-1,-1,-1],"loss_changes":[8.253352E3,2.9151758E2,1.8985002E3,4.129883E0,1.377959E2,2.362622E2,1.2851453E2,0E0,2.8173828E-1,3.223269E1,1.4218079E1,5.0566376E1,8.797119E1,3.919886E1,5.0565796E0,0E0,7.724777E0,6.928585E0,4.2439156E1,9.444687E0,2.182312E-1,2.1208261E1,3.9447327E1,2.597998E1,1.7590961E1,2.131511E1,1.0720388E1,6.9201813E0,2.3892212E0,0E0,0E0,0E0,0E0,0E0,0E0,0E0,0E0,0E0,0E0,0E0,0E0,0E0,0E0,0E0,0E0,0E0,0E0,0E0,0E0,0E0,0E0,0E0,0E0,0E0,0E0],"parents":[2147483647,0,0,1,1,2,2,3,3,4,4,5,5,6,6,8,8,9,9,10,10,11,11,12,12,13,13,14,14,16,16,17,17,18,18,19,19,20,20,21,21,22,22,23,23,24,24,25,25,26,26,27,27,28,28],"right_children":[2,4,6,8,10,12,14,-1,16,18,20,22,24,26,28,-1,30,32,34,36,38,40,42,44,46,48,50,52,54,-1,-1,-1,-1,-1,-1,-1,-1,-1,-1,-1,-1,-1,-1,-1,-1,-1,-1,-1,-1,-1,-1,-1,-1,-1,-1],"split_conditions":[2.15E0,1.43E0,2E0,8.6E-1,3E0,2.92E0,5E0,1.8830929E-2,2.34E0,1.82E0,6E0,2.03E0,1E0,5E0,6E0,1.8053893E-2,2.5E0,2E0,3E0,-3.7666667E-1,9E0,-2.6E-1,1E0,3.225E0,3.78E0,3E0,3.0666667E-1,5E0,2.21E0,3.0668916E-3,1.5731107E-2,3.9816997E-3,1.2187119E-2,-6.988465E-3,6.052712E-3,1.2485007E-2,5.274139E-3,1.4124676E-2,1.7069459E-2,-1.3481866E-2,1.602534E-3,-1.0923927E-2,-4.9086898E-3,-1.435526E-2,-1.7016063E-2,-7.9623265E-3,6.143951E-3,3.3796018E-3,9.599643E-3,-2.3554019E-3,-1.7444154E-2,1.2996577E-2,-1.1945872E-4,8.144306E-3,1.6726855E-2],"split_indices":[9,9,3,9,3,9,3,0,13,9,3,12,3,2,3,0,13,3,2,18,3,14,3,11,13,2,18,2,9,0,0,0,0,0,0,0,0,0,0,0,0,0,0,0,0,0,0,0,0,0,0,0,0,0,0],"split_type":[0,0,0,0,0,0,0,0,0,0,0,0,0,0,0,0,0,0,0,0,0,0,0,0,0,0,0,0,0,0,0,0,0,0,0,0,0,0,0,0,0,0,0,0,0,0,0,0,0,0,0,0,0,0,0],"sum_hessian":[4.808055E3,1.8522961E3,2.9557593E3,1.4841698E3,3.6812637E2,2.5145728E3,4.4118643E2,1.3756711E3,1.0849867E2,1.462051E2,2.219213E2,6.798763E2,1.8346965E3,2.656689E2,1.755175E2,3.9603638E1,6.8895035E1,4.3133476E1,1.0307162E2,9.6290535E1,1.2563075E2,7.218666E1,6.076896E2,1.7230953E3,1.1160122E2,2.4692123E2,1.8747694E1,3.3781166E1,1.4173634E2,5.8016496E0,6.3093384E1,2.1566776E1,2.15667E1,6.3189594E1,3.988202E1,6.873047E1,2.7560064E1,5.509376E1,7.0536995E1,9.933905E0,6.2252758E1,4.617877E2,1.4590192E2,6.4164294E2,1.0814523E3,1.0266182E2,8.939398E0,1.6322696E2,8.369427E1,1.10007305E1,7.746965E0,2.9160326E1,4.620839E0,6.237875E0,1.3549847E2],"tree_param":{"num_deleted":"0","num_feature":"24","num_nodes":"55","size_leaf_vector":"1"}},{"base_weights":[-9.540839E-3,1.5377419E0,-1.1085593E0,1.8342165E0,6.200646E-1,-1.3905799E0,7.906639E-1,1.8600385E0,1.4828031E0,8.981703E-2,1.5820466E0,-1.4359514E0,9.565347E-1,3.3166495E-1,1.486275E0,1.8635E-2,8.94997E-3,1.1998339E0,1.6804429E-2,-4.8456353E-1,3.0970594E-1,1.593619E0,7.141103E-3,-1.5296723E0,-6.457389E-1,1.1559756E0,-3.3526754E-3,4.6210444E-1,-1.1065863E0,1.5165066E0,3.0045696E-3,1.6001292E-2,9.188929E-3,-6.406657E-3,5.551502E-3,1.0104856E-2,1.7731027E-3,1.6144037E-2,1.0736086E-2,-1.1245674E-2,-1.6303586E-2,-5.223665E-3,-1.8734299E-2,1.161418E-3,1.3578228E-2,1.6988609E-3,1.0445171E-2,-1.5117557E-2,3.610107E-3,1.3340023E-2,1.7032135E-2],"categories":[],"categories_nodes":[],"categories_segments":[],"categories_sizes":[],"default_left":[0,0,0,0,0,0,0,0,0,0,0,0,0,0,0,0,0,0,0,0,0,0,0,0,0,0,0,0,0,0,0,0,0,0,0,0,0,0,0,0,0,0,0,0,0,0,0,0,0,0,0],"id":7,"left_children":[1,3,5,7,9,11,13,15,17,19,21,23,25,27,29,-1,-1,31,-1,33,35,37,-1,39,41,43,-1,45,47,49,-1,-1,-1,-1,-1,-1,-1,-1,-1,-1,-1,-1,-1,-1,-1,-1,-1,-1,-1,-1,-1],"loss_changes":[8.250129E3,5.470508E2,1.5205005E3,1.1056152E1,2.5159303E2,2.644419E2,1.16814255E2,3.057129E0,4.087433E0,4.046607E1,6.227722E-1,1.7852197E2,1.2611839E1,4.2278996E1,4.7700806E0,0E0,0E0,3.9701385E0,0E0,1.4761705E1,2.1294577E1,1.2774658E-1,0E0,8.652051E1,3.8208794E1,8.516243E0,0E0,3.4682762E1,1.1728998E1,2.5631104E0,0E0,0E0,0E0,0E0,0E0,0E0,0E0,0E0,0E0,0E0,0E0,0E0,0E0,0E0,0E0,0E0,0E0,0E0,0E0,0E0,0E0],"parents":[2147483647,0,0,1,1,2,2,3,3,4,4,5,5,6,6,7,7,8,8,9,9,10,10,11,11,12,12,13,13,14,14,17,17,19,19,20,20,21,21,23,23,24,24,25,25,27,27,28,28,29,29],"right_children":[2,4,6,8,10,12,14,16,18,20,22,24,26,28,30,-1,-1,32,-1,34,36,38,-1,40,42,44,-1,46,48,50,-1,-1,-1,-1,-1,-1,-1,-1,-1,-1,-1,-1,-1,-1,-1,-1,-1,-1,-1,-1,-1],"split_conditions":[2.36E0,1.55E0,2E0,1.14E0,5E0,3E0,5E0,3.93E0,6E0,1E0,6.1E-1,1E0,1E1,5E0,7.4333334E-1,1.8635E-2,8.94997E-3,-9.95E-1,1.6804429E-2,3.31E0,2E0,3.37E0,7.141103E-3,2.92E0,5E0,4E0,-3.3526754E-3,3E0,4E0,2.68E0,3.0045696E-3,1.6001292E-2,9.188929E-3,-6.406657E-3,5.551502E-3,1.0104856E-2,1.7731027E-3,1.6144037E-2,1.0736086E-2,-1.1245674E-2,-1.6303586E-2,-5.223665E-3,-1.8734299E-2,1.161418E-3,1.3578228E-2,1.6988609E-3,1.0445171E-2,-1.5117557E-2,3.610107E-3,1.3340023E-2,1.7032135E-2],"split_indices":[9,9,3,9,3,4,3,7,3,3,14,3,4,2,18,0,0,18,0,0,11,0,0,9,2,4,0,2,3,11,0,0,0,0,0,0,0,0,0,0,0,0,0,0,0,0,0,0,0,0,0],"split_type":[0,0,0,0,0,0,0,0,0,0,0,0,0,0,0,0,0,0,0,0,0,0,0,0,0,0,0,0,0,0,0,0,0,0,0,0,0,0,0,0,0,0,0,0,0,0,0,0,0,0,0],"sum_hessian":[4.8496094E3,2.0138945E3,2.8357148E3,1.521382E3,4.9251254E2,2.4693086E3,3.6640625E2,1.4132433E3,1.0813872E2,3.182084E2,1.7430412E2,2.422861E3,4.644748E1,2.2163632E2,1.4476994E2,1.4072644E3,5.9788017E0,4.737736E1,6.0761356E1,8.776093E1,2.3044748E2,1.7118558E2,3.1185486E0,2.1651355E3,2.577257E2,4.0326614E1,6.1208653E0,2.0382913E2,1.7807198E1,1.4089896E2,3.870988E0,1.7601902E1,2.9775457E1,7.66383E1,1.1122638E1,3.556534E1,1.9488214E2,1.6258257E2,8.603008E0,4.334292E2,1.7317062E3,2.354868E2,2.2238909E1,6.8115745E0,3.3515038E1,1.3658899E2,6.724014E1,1.3931066E1,3.8761318E0,7.537024E1,6.552871E1],"tree_param":{"num_deleted":"0","num_feature":"24","num_nodes":"51","size_leaf_vector":"1"}},{"base_weights":[6.132594E-4,1.5728462E0,-1.0764048E0,1.8162947E0,7.0199615E-1,-1.3710015E0,8.1981695E-1,1.8454244E-2,1.4692955E0,-3.0486135E-2,1.2902286E0,-1.4823854E0,-5.333541E-1,3.725017E-1,1.5030324E0,6.5506534E-3,1.5106952E0,-4.0902928E-1,1.941359E-1,7.8463006E-1,1.5496465E0,-1.5148232E0,8.128025E-1,5.6156224E-1,-6.595089E-1,-3.153707E-1,4.8876998E-1,3.9258585E-3,1.527384E0,1.3229008E-2,1.6422423E-2,-1.4325702E-3,-1.1152303E-2,-1.112118E-2,3.457511E-3,9.886628E-3,-5.945889E-3,1.3781485E-2,1.7151179E-2,-9.914951E-3,-1.574616E-2,1.0910134E-2,-7.0378133E-3,-7.385084E-3,1.0809609E-2,-7.547073E-3,5.7498566E-3,1.6818976E-4,-1.267412E-2,9.854244E-3,3.5102793E-3,1.2676903E-2,1.6306834E-2],"categories":[],"categories_nodes":[],"categories_segments":[],"categories_sizes":[],"default_left":[0,0,0,0,0,0,0,0,0,0,0,0,0,0,0,0,0,0,0,0,0,0,0,0,0,0,0,0,0,0,0,0,0,0,0,0,0,0,0,0,0,0,0,0,0,0,0,0,0,0,0,0,0],"id":8,"left_children":[1,3,5,7,9,11,13,-1,15,17,19,21,23,25,27,-1,29,31,33,35,37,39,41,43,45,47,49,-1,51,-1,-1,-1,-1,-1,-1,-1,-1,-1,-1,-1,-1,-1,-1,-1,-1,-1,-1,-1,-1,-1,-1,-1,-1],"loss_changes":[8.1687373E3,4.1450635E2,1.6004094E3,1.2774902E1,1.8535654E2,2.304375E2,1.1728403E2,0E0,3.1754456E0,1.645083E1,3.0074097E1,1.6404736E2,4.076368E1,1.8897652E1,3.5171204E0,0E0,7.1325684E-1,1.3358406E1,2.4450224E1,2.3922565E1,2.081421E0,6.592627E1,1.39014015E1,2.1564196E1,3.1304535E1,1.0930043E1,1.3395374E1,0E0,1.9198914E0,0E0,0E0,0E0,0E0,0E0,0E0,0E0,0E0,0E0,0E0,0E0,0E0,0E0,0E0,0E0,0E0,0E0,0E0,0E0,0E0,0E0,0E0,0E0,0E0],"parents":[2147483647,0,0,1,1,2,2,3,3,4,4,5,5,6,6,8,8,9,9,10,10,11,11,12,12,13,13,14,14,16,16,17,17,18,18,19,19,20,20,21,21,22,22,23,23,24,24,25,25,26,26,28,28],"right_children":[2,4,6,8,10,12,14,-1,16,18,20,22,24,26,28,-1,30,32,34,36,38,40,42,44,46,48,50,-1,52,-1,-1,-1,-1,-1,-1,-1,-1,-1,-1,-1,-1,-1,-1,-1,-1,-1,-1,-1,-1,-1,-1,-1,-1],"split_conditions":[2.29E0,1.55E0,2E0,1.14E0,3E0,1E0,5E0,1.8454244E-2,2E0,1E0,5E0,3E0,2E0,1.8502252E-1,-1.03E0,6.5506534E-3,7E0,3.06E0,-7.9E-1,2.06E0,9E0,2.71E0,1E1,-4.2E-1,2E0,9E-2,2.3033333E0,3.9258585E-3,2.17E0,1.3229008E-2,1.6422423E-2,-1.4325702E-3,-1.1152303E-2,-1.112118E-2,3.457511E-3,9.886628E-3,-5.945889E-3,1.3781485E-2,1.7151179E-2,-9.914951E-3,-1.574616E-2,1.0910134E-2,-7.0378133E-3,-7.385084E-3,1.0809609E-2,-7.547073E-3,5.7498566E-3,1.6818976E-4,-1.267412E-2,9.854244E-3,3.5102793E-3,1.2676903E-2,1.6306834E-2],"split_indices":[9,9,3,9,3,3,3,0,3,3,3,4,7,15,18,0,3,13,18,12,3,9,4,18,4,14,11,0,12,0,0,0,0,0,0,0,0,0,0,0,0,0,0,0,0,0,0,0,0,0,0,0,0],"split_type":[0,0,0,0,0,0,0,0,0,0,0,0,0,0,0,0,0,0,0,0,0,0,0,0,0,0,0,0,0,0,0,0,0,0,0,0,0,0,0,0,0,0,0,0,0,0,0,0,0,0,0,0,0],"sum_hessian":[4.8220864E3,1.9601686E3,2.861918E3,1.5310685E3,4.2910016E2,2.477319E3,3.845989E2,1.4085094E3,1.2255908E2,1.91539E2,2.3756114E2,2.185887E3,2.91432E2,2.3335912E2,1.512398E2,6.744004E0,1.1581508E2,7.1024445E1,1.2051455E2,8.192198E1,1.5563916E2,2.1557598E3,3.012734E1,2.9752678E1,2.6167932E2,3.349309E1,1.9986603E2,3.6128635E0,1.4762694E2,5.2262493E1,6.3552586E1,5.2477776E1,1.854667E1,1.187441E1,1.08640144E2,7.161143E1,1.0310556E1,8.100869E1,7.463048E1,2.2285266E2,1.9329071E3,2.5694418E1,4.432922E0,8.372985E0,2.1379694E1,2.433054E2,1.8373924E1,2.555773E1,7.9353604E0,4.2059296E1,1.5780673E2,4.5788094E1,1.01838844E2],"tree_param":{"num_deleted":"0","num_feature":"24","num_nodes":"53","size_leaf_vector":"1"}},{"base_weights":[-1.353173E-2,1.5218538E0,-1.099247E0,1.8012145E0,6.426251E-1,-1.371969E0,7.80866E-1,1.8325854E-2,1.3491154E0,1.7321384E-1,1.5501075E0,-1.4127233E0,1.1126329E0,3.0187035E-1,1.4630153E0,1.6627735E0,1.1436973E0,-3.8331214E-2,7.0679474E-1,1.3987098E0,1.7032513E-2,-1.492451E0,-7.4331856E-1,1.4766588E0,-9.308127E-3,2.3625374E-1,1.2283667E0,5.9895543E-3,1.5002463E0,1.7488807E-2,1.0029308E-2,-2.6895942E-3,1.3421604E-2,7.076921E-7,-1.5962284E-2,1.22463405E-2,5.141549E-3,1.4530835E-2,4.6273274E-3,-1.2450182E-2,-1.6327465E-2,-7.9766875E-3,3.1347466E-3,1.641804E-2,6.9625718E-3,3.3209687E-3,-6.73508E-3,4.4705323E-3,1.4653163E-2,1.5198772E-2,5.4214536E-3],"categories":[],"categories_nodes":[],"categories_segments":[],"categories_sizes":[],"default_left":[0,0,0,0,0,0,0,0,0,0,0,0,0,0,0,0,0,0,0,0,0,0,0,0,0,0,0,0,0,0,0,0,0,0,0,0,0,0,0,0,0,0,0,0,0,0,0,0,0,0,0],"id":9,"left_children":[1,3,5,7,9,11,13,-1,15,17,19,21,23,25,27,29,31,33,35,37,-1,39,41,43,-1,45,47,-1,49,-1,-1,-1,-1,-1,-1,-1,-1,-1,-1,-1,-1,-1,-1,-1,-1,-1,-1,-1,-1,-1,-1],"loss_changes":[7.9879536E3,4.8637354E2,1.4403301E3,1.8882812E1,2.0426807E2,2.498291E2,1.1595294E2,0E0,4.6375885E0,3.5874893E1,1.4101257E0,1.2765137E2,3.1222527E1,1.2508892E1,3.820404E0,4.0285492E-1,1.8453125E1,1.3662611E1,8.369911E0,3.7983093E0,0E0,7.276953E1,1.511232E1,3.2961426E0,0E0,1.7474873E1,1.8786774E0,0E0,1.8085327E0,0E0,0E0,0E0,0E0,0E0,0E0,0E0,0E0,0E0,0E0,0E0,0E0,0E0,0E0,0E0,0E0,0E0,0E0,0E0,0E0,0E0,0E0],"parents":[2147483647,0,0,1,1,2,2,3,3,4,4,5,5,6,6,8,8,9,9,10,10,11,11,12,12,13,13,14,14,15,15,16,16,17,17,18,18,19,19,21,21,22,22,23,23,25,25,26,26,28,28],"right_children":[2,4,6,8,10,12,14,-1,16,18,20,22,24,26,28,30,32,34,36,38,-1,40,42,44,-1,46,48,-1,50,-1,-1,-1,-1,-1,-1,-1,-1,-1,-1,-1,-1,-1,-1,-1,-1,-1,-1,-1,-1,-1,-1],"split_conditions":[2.33E0,1.55E0,2E0,1.14E0,5E0,4E0,5E0,1.8325854E-2,2.34E0,3E0,9E0,1E0,1E1,4E0,-7.7E-1,-4.3666667E-1,6.0135955E-1,2.9733334E0,1.9666667E0,3E0,1.7032513E-2,3.0966666E0,3.78E0,3.1666667E0,-9.308127E-3,1E0,2.62E0,5.9895543E-3,7.1E-1,1.7488807E-2,1.0029308E-2,-2.6895942E-3,1.3421604E-2,7.076921E-7,-1.5962284E-2,1.22463405E-2,5.141549E-3,1.4530835E-2,4.6273274E-3,-1.2450182E-2,-1.6327465E-2,-7.9766875E-3,3.1347466E-3,1.641804E-2,6.9625718E-3,3.3209687E-3,-6.73508E-3,4.4705323E-3,1.4653163E-2,1.5198772E-2,5.4214536E-3],"split_indices":[9,9,3,9,3,4,3,0,13,3,3,3,4,4,18,18,15,11,11,4,0,11,13,11,0,17,13,0,18,0,0,0,0,0,0,0,0,0,0,0,0,0,0,0,0,0,0,0,0,0,0],"split_type":[0,0,0,0,0,0,0,0,0,0,0,0,0,0,0,0,0,0,0,0,0,0,0,0,0,0,0,0,0,0,0,0,0,0,0,0,0,0,0,0,0,0,0,0,0,0,0,0,0,0,0],"sum_hessian":[4.7898345E3,1.9838842E3,2.8059504E3,1.5047316E3,4.7915262E2,2.4507275E3,3.552229E2,1.4042385E3,1.0049297E2,3.1658456E2,1.6256807E2,2.411602E3,3.91255E1,2.0953377E2,1.4568915E2,3.696127E1,6.35317E1,2.2736925E2,8.921531E1,8.684578E1,7.572228E1,2.1538445E3,2.5775754E2,3.344489E1,5.680611E0,1.9684756E2,1.2686204E1,6.724057E0,1.3896509E2,3.123478E1,5.726491E0,7.7822943E0,5.5749405E1,2.2287535E2,4.493896E0,2.2737373E1,6.6477936E1,8.15555E1,5.2902856E0,7.829194E2,1.3709253E3,2.4538283E2,1.2374701E1,2.669254E1,6.752348E0,1.7866068E2,1.818689E1,3.6238108E0,9.062393E0,1.3560037E2,3.3647149E0],"tree_param":{"num_deleted":"0","num_feature":"24","num_nodes":"51","size_leaf_vector":"1"}},{"base_weights":[1.3576023E-2,1.5617242E0,-1.0332842E0,1.795756E0,7.550574E-1,-1.3327364E0,7.979346E-1,1.8173905E-2,1.5269561E0,6.866292E-2,1.2795798E0,-1.3762124E0,9.1341776E-1,3.8508612E-1,1.4124067E0,1.1940595E0,1.6309063E0,6.5960455E-1,-2.407925E-1,8.890407E-1,1.5366263E0,-1.4676187E0,-6.541376E-1,1.1402061E0,-4.2898776E-3,5.1157665E-1,-1.2968825E0,3.7143573E-3,1.4336567E0,3.8174933E-3,1.2838705E-2,1.6582483E-2,6.696936E-3,1.2464194E-2,3.2354924E-3,-4.270217E-3,6.399481E-3,9.81153E-3,-8.341333E-3,1.0889596E-2,1.5865475E-2,-7.551449E-3,-1.5215453E-2,-5.627368E-3,-1.636024E-2,9.367798E-5,1.48032205E-2,3.010788E-3,9.032782E-3,-1.781311E-2,-1.8245919E-3,1.1302437E-2,1.5224504E-2],"categories":[],"categories_nodes":[],"categories_segments":[],"categories_sizes":[],"default_left":[0,0,0,0,0,0,0,0,0,0,0,0,0,0,0,0,0,0,0,0,0,0,0,0,0,0,0,0,0,0,0,0,0,0,0,0,0,0,0,0,0,0,0,0,0,0,0,0,0,0,0,0,0],"id":10,"left_children":[1,3,5,7,9,11,13,-1,15,17,19,21,23,25,27,29,31,33,35,37,39,41,43,45,-1,47,49,-1,51,-1,-1,-1,-1,-1,-1,-1,-1,-1,-1,-1,-1,-1,-1,-1,-1,-1,-1,-1,-1,-1,-1,-1,-1],"loss_changes":[7.835234E3,3.6683203E2,1.5826514E3,6.0117188E0,1.5843541E2,2.4336133E2,1.0244708E2,0E0,2.1640015E0,3.5229744E1,2.3682983E1,1.5959375E2,1.500399E1,5.2618813E1,3.0682373E0,1.8448067E0,1.1971588E0,1.2647572E1,2.1038229E1,1.6915947E1,1.6045837E0,8.1779785E1,2.3771446E1,1.5778393E1,0E0,1.8514107E1,9.048824E0,0E0,2.567505E0,0E0,0E0,0E0,0E0,0E0,0E0,0E0,0E0,0E0,0E0,0E0,0E0,0E0,0E0,0E0,0E0,0E0,0E0,0E0,0E0,0E0,0E0,0E0,0E0],"parents":[2147483647,0,0,1,1,2,2,3,3,4,4,5,5,6,6,8,8,9,9,10,10,11,11,12,12,13,13,14,14,15,15,16,16,17,17,18,18,19,19,20,20,21,21,22,22,23,23,25,25,26,26,28,28],"right_children":[2,4,6,8,10,12,14,-1,16,18,20,22,24,26,28,30,32,34,36,38,40,42,44,46,-1,48,50,-1,52,-1,-1,-1,-1,-1,-1,-1,-1,-1,-1,-1,-1,-1,-1,-1,-1,-1,-1,-1,-1,-1,-1,-1,-1],"split_conditions":[2.25E0,1.43E0,2E0,8.6E-1,3E0,3E0,5E0,1.8173905E-2,5E0,1.92E0,6E0,1E0,1E1,5E0,1.42E0,2.26E0,9E0,2.3E0,3.33E0,2.1E0,1.64E0,2.64E0,5E0,5E0,-4.2898776E-3,3E0,2.87E0,3.7143573E-3,6E0,3.8174933E-3,1.2838705E-2,1.6582483E-2,6.696936E-3,1.2464194E-2,3.2354924E-3,-4.270217E-3,6.399481E-3,9.81153E-3,-8.341333E-3,1.0889596E-2,1.5865475E-2,-7.551449E-3,-1.5215453E-2,-5.627368E-3,-1.636024E-2,9.367798E-5,1.48032205E-2,3.010788E-3,9.032782E-3,-1.781311E-2,-1.8245919E-3,1.1302437E-2,1.5224504E-2],"split_indices":[9,9,3,9,3,4,3,0,3,9,3,3,4,2,5,5,4,0,13,12,9,11,2,4,0,2,0,0,3,0,0,0,0,0,0,0,0,0,0,0,0,0,0,0,0,0,0,0,0,0,0,0,0],"split_type":[0,0,0,0,0,0,0,0,0,0,0,0,0,0,0,0,0,0,0,0,0,0,0,0,0,0,0,0,0,0,0,0,0,0,0,0,0,0,0,0,0,0,0,0,0,0,0,0,0,0,0,0,0],"sum_hessian":[4.832495E3,1.9492932E3,2.883202E3,1.5099866E3,4.393066E2,2.4782202E3,4.0498163E2,1.392175E3,1.1781153E2,1.907805E2,2.4852611E2,2.4315435E3,4.6676933E1,2.4320496E2,1.6177667E2,3.100526E1,8.6806274E1,6.518004E1,1.25600464E2,1.0041741E2,1.4810869E2,2.1574077E3,2.741356E2,4.0059788E1,6.617147E0,2.2684145E2,1.6363504E1,3.6060734E0,1.581706E2,3.6094656E0,2.7395794E1,8.370023E1,3.1060426E0,2.2748304E1,4.2431732E1,1.0410337E2,2.1497095E1,9.5730736E1,4.6866765E0,1.7148033E1,1.3096066E2,1.5285829E2,2.0045494E3,2.5222943E2,2.1906145E1,9.500267E0,3.055952E1,1.486998E2,7.814165E1,1.0988499E1,5.375006E0,3.8917206E1,1.19253395E2],"tree_param":{"num_deleted":"0","num_feature":"24","num_nodes":"53","size_leaf_vector":"1"}},{"base_weights":[7.7216597E-3,1.5646064E0,-9.7953564E-1,1.784552E0,7.171344E-1,-1.2943813E0,8.4788543E-1,1.8009822E0,1.458133E0,3.4339327E-2,1.2039872E0,-1.4076818E0,-4.7062773E-1,3.6040753E-1,1.5017295E0,1.8030597E-2,6.487412E-3,1.1131537E0,1.7382408E-2,7.3327917E-1,-2.351376E-1,8.321821E-1,1.4860685E0,-1.44349E0,7.7123404E-1,-5.3057164E-1,1.1364892E0,-1.0734052E-2,4.0115896E-1,3.6860923E-3,1.5222037E0,1.4734145E-2,7.478776E-3,1.1137971E-2,2.6395184E-3,-5.9471503E-3,2.2736664E-3,9.237907E-3,-8.462828E-3,1.5088646E-2,4.9532396E-3,-1.0494029E-2,-1.554178E-2,9.768874E-3,-2.5613874E-3,-6.9114333E-3,9.3788333E-4,3.8851607E-3,1.4738688E-2,3.3004577E-3,1.1170017E-2,1.2402894E-2,1.5937548E-2],"categories":[],"categories_nodes":[],"categories_segments":[],"categories_sizes":[],"default_left":[0,0,0,0,0,0,0,0,0,0,0,0,0,0,0,0,0,0,0,0,0,0,0,0,0,0,0,0,0,0,0,0,0,0,0,0,0,0,0,0,0,0,0,0,0,0,0,0,0,0,0,0,0],"id":11,"left_children":[1,3,5,7,9,11,13,15,17,19,21,23,25,27,29,-1,-1,31,-1,33,35,37,39,41,43,45,47,-1,49,-1,51,-1,-1,-1,-1,-1,-1,-1,-1,-1,-1,-1,-1,-1,-1,-1,-1,-1,-1,-1,-1,-1,-1],"loss_changes":[7.4094688E3,3.4740186E2,1.698373E3,5.335449E0,1.2864651E2,2.3423535E2,1.3783899E2,2.203125E0,5.4472046E0,3.0715923E1,2.246164E1,1.736997E2,3.0064018E1,1.504018E1,3.733612E0,0E0,0E0,3.768917E0,0E0,7.8081264E0,1.972564E1,1.6119423E1,2.125702E0,9.331299E1,7.944248E0,2.968985E1,2.2826366E0,0E0,1.2044922E1,0E0,1.6846619E0,0E0,0E0,0E0,0E0,0E0,0E0,0E0,0E0,0E0,0E0,0E0,0E0,0E0,0E0,0E0,0E0,0E0,0E0,0E0,0E0,0E0,0E0],"parents":[2147483647,0,0,1,1,2,2,3,3,4,4,5,5,6,6,7,7,8,8,9,9,10,10,11,11,12,12,13,13,14,14,17,17,19,19,20,20,21,21,22,22,23,23,24,24,25,25,26,26,28,28,30,30],"right_children":[2,4,6,8,10,12,14,16,18,20,22,24,26,28,30,-1,-1,32,-1,34,36,38,40,42,44,46,48,-1,50,-1,52,-1,-1,-1,-1,-1,-1,-1,-1,-1,-1,-1,-1,-1,-1,-1,-1,-1,-1,-1,-1,-1,-1],"split_conditions":[2.2E0,1.43E0,2E0,1.14E0,3E0,1E0,5E0,4E0,7E0,1.82E0,6E0,3E0,3.86E0,1.98E0,1.42E0,1.8030597E-2,6.487412E-3,-9.95E-1,1.7382408E-2,2.76E0,2.65E0,2.1E0,9.975136E-1,2.92E0,1E1,1E0,3.8E-1,-1.0734052E-2,2E0,3.6860923E-3,6E0,1.4734145E-2,7.478776E-3,1.1137971E-2,2.6395184E-3,-5.9471503E-3,2.2736664E-3,9.237907E-3,-8.462828E-3,1.5088646E-2,4.9532396E-3,-1.0494029E-2,-1.554178E-2,9.768874E-3,-2.5613874E-3,-6.9114333E-3,9.3788333E-4,3.8851607E-3,1.4738688E-2,3.3004577E-3,1.1170017E-2,1.2402894E-2,1.5937548E-2],"split_indices":[9,9,3,9,3,3,3,7,3,9,3,4,13,0,5,0,0,18,0,0,7,12,15,9,4,4,18,0,4,0,3,0,0,0,0,0,0,0,0,0,0,0,0,0,0,0,0,0,0,0,0,0,0],"split_type":[0,0,0,0,0,0,0,0,0,0,0,0,0,0,0,0,0,0,0,0,0,0,0,0,0,0,0,0,0,0,0,0,0,0,0,0,0,0,0,0,0,0,0,0,0,0,0,0,0,0,0,0,0],"sum_hessian":[4.8185938E3,1.869634E3,2.9489597E3,1.4835106E3,3.861234E2,2.5158044E3,4.331552E2,1.4081158E3,7.5394714E1,1.6116512E2,2.2495828E2,2.2109917E3,3.0481268E2,2.4903595E2,1.8411925E2,1.4050177E3,3.0981874E0,3.6014038E1,3.9380676E1,4.4367756E1,1.1679737E2,9.874924E1,1.26209045E2,2.175576E3,3.541581E1,2.9449805E2,1.03146305E1,6.182107E0,2.4285385E2,3.6050603E0,1.8051419E2,1.6604156E1,1.9409882E1,2.374377E1,2.0623983E1,6.554953E1,5.124784E1,9.40649E1,4.684331E0,1.228592E2,3.3498454E0,4.7936227E2,1.6962136E3,2.9549837E1,5.8659716E0,2.3416815E2,6.0329887E1,3.8750927E0,6.4395375E0,2.2223743E2,2.0616425E1,4.0252407E1,1.4026178E2],"tree_param":{"num_deleted":"0","num_feature":"24","num_nodes":"53","size_leaf_vector":"1"}},{"base_weights":[6.021789E-3,1.49271E0,-1.0507597E0,1.7563732E0,6.1614925E-1,-1.3293157E0,7.8877157E-1,1.7887427E0,1.4470708E0,-1.6037734E-1,9.985228E-1,-6.8311703E-1,-1.424919E0,8.569713E-1,5.4088667E-2,1.7915336E-2,7.666619E-3,1.6751805E-2,1.268433E0,-4.6821174E-1,4.0831524E-1,1.4809924E0,8.965417E-1,2.7648947E-1,-7.384666E-1,-1.4800109E0,-7.0552945E-1,6.345774E-1,1.0280412E0,5.9989136E-1,-7.814666E-1,-1.1469487E-3,1.3501578E-2,-8.212986E-3,2.9175645E-3,-2.7726733E-3,9.162641E-3,1.52772395E-2,8.0701625E-3,8.4914565E-3,1.6360132E-2,1.0297287E-2,-3.845935E-3,-5.8271224E-3,-9.921591E-3,-1.3092024E-2,-1.5931955E-2,-9.735157E-3,5.758265E-3,2.6159105E-3,9.267613E-3,8.567622E-3,1.3538929E-2,-6.9516036E-3,9.537358E-3,-1.32567035E-2,7.5143096E-3],"categories":[],"categories_nodes":[],"categories_segments":[],"categories_sizes":[],"default_left":[0,0,0,0,0,0,0,0,0,0,0,0,0,0,0,0,0,0,0,0,0,0,0,0,0,0,0,0,0,0,0,0,0,0,0,0,0,0,0,0,0,0,0,0,0,0,0,0,0,0,0,0,0,0,0,0,0],"id":12,"left_children":[1,3,5,7,9,11,13,15,17,19,21,23,25,27,29,-1,-1,-1,31,33,35,37,39,41,43,45,47,49,51,53,55,-1,-1,-1,-1,-1,-1,-1,-1,-1,-1,-1,-1,-1,-1,-1,-1,-1,-1,-1,-1,-1,-1,-1,-1,-1,-1],"loss_changes":[7.5530737E3,4.60563E2,1.4409478E3,1.2779785E1,1.3776262E2,1.4981934E2,1.8501816E1,2.5776367E0,4.0144653E0,2.711018E1,1.3957581E1,1.7014618E1,8.318994E1,1.2232391E1,1.5295917E1,0E0,0E0,0E0,1.0171173E1,2.713494E1,1.9246044E1,4.2609406E-1,7.6877747E0,9.352966E0,1.1256638E1,3.60625E1,5.3131523E1,1.6089455E1,9.433716E0,9.9341E0,1.2074855E1,0E0,0E0,0E0,0E0,0E0,0E0,0E0,0E0,0E0,0E0,0E0,0E0,0E0,0E0,0E0,0E0,0E0,0E0,0E0,0E0,0E0,0E0,0E0,0E0,0E0,0E0],"parents":[2147483647,0,0,1,1,2,2,3,3,4,4,5,5,6,6,7,7,8,8,9,9,10,10,11,11,12,12,13,13,14,14,18,18,19,19,20,20,21,21,22,22,23,23,24,24,25,25,26,26,27,27,28,28,29,29,30,30],"right_children":[2,4,6,8,10,12,14,16,18,20,22,24,26,28,30,-1,-1,-1,32,34,36,38,40,42,44,46,48,50,52,54,56,-1,-1,-1,-1,-1,-1,-1,-1,-1,-1,-1,-1,-1,-1,-1,-1,-1,-1,-1,-1,-1,-1,-1,-1,-1,-1],"split_conditions":[2.33E0,1.55E0,1E0,8.6E-1,1E0,2.7166667E0,5E0,4E0,-9.6E-1,3E0,1.61E0,2.2233334E0,1E0,2E0,2.3E0,1.7915336E-2,7.666619E-3,1.6751805E-2,1E0,4E-2,1E0,2.065E0,8.838835E-1,2.43E0,2.76E0,3.1933334E0,3.3466666E0,2.82E0,2.88E0,2.14E0,2.82E0,-1.1469487E-3,1.3501578E-2,-8.212986E-3,2.9175645E-3,-2.7726733E-3,9.162641E-3,1.52772395E-2,8.0701625E-3,8.4914565E-3,1.6360132E-2,1.0297287E-2,-3.845935E-3,-5.8271224E-3,-9.921591E-3,-1.3092024E-2,-1.5931955E-2,-9.735157E-3,5.758265E-3,2.6159105E-3,9.267613E-3,8.567622E-3,1.3538929E-2,-6.9516036E-3,9.537358E-3,-1.32567035E-2,7.5143096E-3],"split_indices":[9,9,20,9,20,11,2,7,18,2,7,11,19,2,12,0,0,0,20,18,19,11,15,9,9,11,11,5,9,5,12,0,0,0,0,0,0,0,0,0,0,0,0,0,0,0,0,0,0,0,0,0,0,0,0,0,0],"split_type":[0,0,0,0,0,0,0,0,0,0,0,0,0,0,0,0,0,0,0,0,0,0,0,0,0,0,0,0,0,0,0,0,0,0,0,0,0,0,0,0,0,0,0,0,0,0,0,0,0,0,0,0,0,0,0,0,0],"sum_hessian":[4.8054946E3,1.9964545E3,2.80904E3,1.5340267E3,4.6242773E2,2.4398557E3,3.6918433E2,1.3843647E3,1.4966197E2,1.5276738E2,3.0966034E2,3.1549823E2,2.1243574E3,3.3767218E2,3.151217E1,1.3798442E3,4.520575E0,6.205018E1,8.76118E1,9.923044E1,5.3536945E1,5.1673306E1,2.5798703E2,1.6987495E1,2.9851074E2,1.9722615E3,1.5209589E2,1.4886044E2,1.8881172E2,1.9231672E1,1.2280498E1,4.865402E0,8.27464E1,6.7697136E1,3.1533302E1,2.2977789E1,3.0559156E1,4.713814E1,4.5351634E0,2.444664E2,1.3520641E1,7.679649E0,9.307846E0,1.8699942E2,1.11511314E2,7.9104706E2,1.1812145E3,1.25986885E2,2.6108994E1,6.622126E1,8.263918E1,1.2613829E2,6.2673435E1,3.9200191E0,1.5311653E1,9.162756E0,3.117742E0],"tree_param":{"num_deleted":"0","num_feature":"24","num_nodes":"57","size_leaf_vector":"1"}},{"base_weights":[-6.809022E-4,1.4671857E0,-1.0343244E0,1.7431554E0,5.7362634E-1,-1.3067044E0,7.589717E-1,1.775247E0,1.4576135E0,8.0008835E-2,1.4829255E0,-1.3463973E0,8.0863124E-1,2.4027152E-1,1.2844033E0,1.7773226E-2,9.011477E-3,1.242389E0,1.6024395E0,5.7039005E-1,-1.3161786E-1,1.50124E0,8.465496E-3,-1.4372092E0,-6.3033694E-1,1.0606725E0,-5.007556E-1,3.6298892E-1,-1.0059122E0,8.157023E-1,1.417859E0,1.5533119E-2,1.01388E-2,1.6431632E-2,9.78769E-3,8.411916E-3,-3.0397105E-3,-8.3514984E-4,-1.6693084E-2,6.5256823E-3,1.5138017E-2,-1.0683386E-2,-1.5293124E-2,-7.2966926E-3,3.6758354E-3,2.2753242E-3,1.2859361E-2,-1.5229268E-2,8.587611E-3,6.727995E-4,9.763447E-3,1.7192037E-3,-1.742122E-2,1.0624413E-3,1.2868077E-2,1.1776436E-2,1.5767261E-2],"categories":[],"categories_nodes":[],"categories_segments":[],"categories_sizes":[],"default_left":[0,0,0,0,0,0,0,0,0,0,0,0,0,0,0,0,0,0,0,0,0,0,0,0,0,0,0,0,0,0,0,0,0,0,0,0,0,0,0,0,0,0,0,0,0,0,0,0,0,0,0,0,0,0,0,0,0],"id":13,"left_children":[1,3,5,7,9,11,13,15,17,19,21,23,25,27,29,-1,-1,31,33,35,37,39,-1,41,43,45,47,49,51,53,55,-1,-1,-1,-1,-1,-1,-1,-1,-1,-1,-1,-1,-1,-1,-1,-1,-1,-1,-1,-1,-1,-1,-1,-1,-1,-1],"loss_changes":[7.3411997E3,4.9201855E2,1.3878154E3,1.1405762E1,2.1230154E2,2.080747E2,1.0189656E2,8.808594E-1,2.99234E0,3.201778E1,6.6915894E-1,1.5646875E2,1.5722025E1,2.9412788E1,1.0481964E1,0E0,0E0,3.3102264E0,7.3124695E-1,2.2270489E1,1.5824421E1,7.232971E-1,0E0,7.130762E1,2.744497E1,7.011936E0,1.2577091E1,3.1430037E1,1.5294735E1,1.4433052E1,3.6184387E0,0E0,0E0,0E0,0E0,0E0,0E0,0E0,0E0,0E0,0E0,0E0,0E0,0E0,0E0,0E0,0E0,0E0,0E0,0E0,0E0,0E0,0E0,0E0,0E0,0E0,0E0],"parents":[2147483647,0,0,1,1,2,2,3,3,4,4,5,5,6,6,7,7,8,8,9,9,10,10,11,11,12,12,13,13,14,14,17,17,18,18,19,19,20,20,21,21,23,23,24,24,25,25,26,26,27,27,28,28,29,29,30,30],"right_children":[2,4,6,8,10,12,14,16,18,20,22,24,26,28,30,-1,-1,32,34,36,38,40,-1,42,44,46,48,50,52,54,56,-1,-1,-1,-1,-1,-1,-1,-1,-1,-1,-1,-1,-1,-1,-1,-1,-1,-1,-1,-1,-1,-1,-1,-1,-1,-1],"split_conditions":[2.33E0,1.55E0,2E0,8.6E-1,5E0,3E0,4E0,4E0,6E0,1.92E0,3.43E0,1E0,1E1,5E0,5E0,1.7773226E-2,9.011477E-3,2.2E0,1.5E0,1E0,3.52E0,1.64E0,8.465496E-3,2.92E0,3.3333333E0,5E0,3.2883632E-1,3E0,2.17E0,2.6E0,2.34E0,1.5533119E-2,1.01388E-2,1.6431632E-2,9.78769E-3,8.411916E-3,-3.0397105E-3,-8.3514984E-4,-1.6693084E-2,6.5256823E-3,1.5138017E-2,-1.0683386E-2,-1.5293124E-2,-7.2966926E-3,3.6758354E-3,2.2753242E-3,1.2859361E-2,-1.5229268E-2,8.587611E-3,6.727995E-4,9.763447E-3,1.7192037E-3,-1.742122E-2,1.0624413E-3,1.2868077E-2,1.1776436E-2,1.5767261E-2],"split_indices":[9,9,3,9,3,4,3,7,3,9,0,3,4,2,3,0,0,7,12,4,5,0,0,9,11,4,15,2,12,0,12,0,0,0,0,0,0,0,0,0,0,0,0,0,0,0,0,0,0,0,0,0,0,0,0,0,0],"split_type":[0,0,0,0,0,0,0,0,0,0,0,0,0,0,0,0,0,0,0,0,0,0,0,0,0,0,0,0,0,0,0,0,0,0,0,0,0,0,0,0,0,0,0,0,0,0,0,0,0,0,0,0,0,0,0,0,0],"sum_hessian":[4.8364883E3,1.9983014E3,2.838187E3,1.5260428E3,4.7225854E2,2.4641792E3,3.7400775E2,1.3671714E3,1.5887141E2,3.0679913E2,1.6545941E2,2.419149E3,4.5030285E1,1.8894283E2,1.8506493E2,1.3629016E3,4.2697086E0,6.775699E1,9.111443E1,9.197635E1,2.148228E2,1.5950978E2,5.949623E0,2.1459844E3,2.7316452E2,3.7920914E1,7.1093717E0,1.7264992E2,1.6292906E1,4.2592102E1,1.4247282E2,2.624664E1,4.1510345E1,8.399515E1,7.1192846E0,7.0255264E1,2.172108E1,2.0932877E2,5.494024E0,3.098854E0,1.5641093E2,4.3128784E2,1.7146967E3,2.4867992E2,2.4484623E1,8.498646E0,2.9422266E1,3.9895654E0,3.1198063E0,1.1723747E2,5.5412437E1,6.5616555E0,9.731251E0,1.748548E1,2.5106625E1,6.00647E1,8.240813E1],"tree_param":{"num_deleted":"0","num_feature":"24","num_nodes":"57","size_leaf_vector":"1"}},{"base_weights":[9.641626E-4,1.5109007E0,-1.0028741E0,1.7406999E0,7.491255E-1,-1.2669396E0,7.058334E-1,1.7594115E0,1.4751827E0,1.4130256E-1,1.1961473E0,-1.3704487E0,-4.8582727E-1,2.4886343E-1,1.3860132E0,1.7627515E-2,1.2684199E0,1.066563E0,1.5365299E0,1.0786684E-2,8.732812E-1,8.0564696E-1,1.4711393E0,-1.4045163E0,9.099726E-1,2.4170607E-1,-6.2879187E-1,3.651914E-1,-1.2568525E0,1.4378864E0,9.358729E-1,1.6065061E-2,3.1082565E-3,3.239729E-3,1.4041995E-2,1.6033454E-2,1.0023536E-2,-2.6516642E-3,5.6074033E-3,1.196167E-2,-3.2556397E-3,9.534158E-3,-1.1793854E-2,1.3266474E-2,1.6073404E-2,-7.059008E-3,-1.4751198E-2,1.16775725E-2,-2.412274E-3,-3.98154E-3,5.5612945E-3,-2.2012666E-3,-9.1275545E-3,8.3432655E-4,8.890539E-3,-5.75631E-3,-1.7252821E-2,1.1063146E-2,1.5377971E-2,-6.0150967E-5,1.4335122E-2],"categories":[],"categories_nodes":[],"categories_segments":[],"categories_sizes":[],"default_left":[0,0,0,0,0,0,0,0,0,0,0,0,0,0,0,0,0,0,0,0,0,0,0,0,0,0,0,0,0,0,0,0,0,0,0,0,0,0,0,0,0,0,0,0,0,0,0,0,0,0,0,0,0,0,0,0,0,0,0,0,0],"id":14,"left_children":[1,3,5,7,9,11,13,15,17,19,21,23,25,27,29,-1,31,33,35,37,39,41,43,45,47,49,51,53,55,57,59,-1,-1,-1,-1,-1,-1,-1,-1,-1,-1,-1,-1,-1,-1,-1,-1,-1,-1,-1,-1,-1,-1,-1,-1,-1,-1,-1,-1,-1,-1],"loss_changes":[7.255093E3,3.3330127E2,1.2981699E3,4.6967773E0,1.2066919E2,2.0070605E2,1.1947327E2,3.90625E-3,9.3847656E-1,1.8104214E1,2.6319153E1,1.7208691E2,3.0624702E1,4.105977E1,2.2664185E0,0E0,3.6429787E0,3.729725E0,1.5023956E0,2.4722443E1,1.1490721E1,3.281756E1,8.015442E-1,1.0582861E2,1.0065662E1,1.0047085E1,2.824614E1,3.1800344E1,4.3834248E0,2.8320312E0,8.843355E0,0E0,0E0,0E0,0E0,0E0,0E0,0E0,0E0,0E0,0E0,0E0,0E0,0E0,0E0,0E0,0E0,0E0,0E0,0E0,0E0,0E0,0E0,0E0,0E0,0E0,0E0,0E0,0E0,0E0,0E0],"parents":[2147483647,0,0,1,1,2,2,3,3,4,4,5,5,6,6,7,7,8,8,9,9,10,10,11,11,12,12,13,13,14,14,16,16,17,17,18,18,19,19,20,20,21,21,22,22,23,23,24,24,25,25,26,26,27,27,28,28,29,29,30,30],"right_children":[2,4,6,8,10,12,14,16,18,20,22,24,26,28,30,-1,32,34,36,38,40,42,44,46,48,50,52,54,56,58,60,-1,-1,-1,-1,-1,-1,-1,-1,-1,-1,-1,-1,-1,-1,-1,-1,-1,-1,-1,-1,-1,-1,-1,-1,-1,-1,-1,-1,-1,-1],"split_conditions":[2.25E0,1.43E0,2E0,8.6E-1,3E0,1E0,5E0,3.94E0,4E0,3.34E0,6E0,4E0,2E0,5E0,6.9E-1,1.7627515E-2,3E0,2.93E0,4E0,3E0,3.53E0,2.1E0,1E1,2.68E0,1E1,1E0,2E0,3E0,2.7E0,6E0,2.88E0,1.6065061E-2,3.1082565E-3,3.239729E-3,1.4041995E-2,1.6033454E-2,1.0023536E-2,-2.6516642E-3,5.6074033E-3,1.196167E-2,-3.2556397E-3,9.534158E-3,-1.1793854E-2,1.3266474E-2,1.6073404E-2,-7.059008E-3,-1.4751198E-2,1.16775725E-2,-2.412274E-3,-3.98154E-3,5.5612945E-3,-2.2012666E-3,-9.1275545E-3,8.3432655E-4,8.890539E-3,-5.75631E-3,-1.7252821E-2,1.1063146E-2,1.5377971E-2,-6.0150967E-5,1.4335122E-2],"split_indices":[9,9,3,9,3,3,3,13,3,5,3,4,12,2,14,0,2,0,2,2,13,12,3,11,4,1,2,2,5,3,9,0,0,0,0,0,0,0,0,0,0,0,0,0,0,0,0,0,0,0,0,0,0,0,0,0,0,0,0,0,0],"split_type":[0,0,0,0,0,0,0,0,0,0,0,0,0,0,0,0,0,0,0,0,0,0,0,0,0,0,0,0,0,0,0,0,0,0,0,0,0,0,0,0,0,0,0,0,0,0,0,0,0,0,0,0,0,0,0,0,0,0,0,0,0],"sum_hessian":[4.7845273E3,1.9104275E3,2.8740999E3,1.4666953E3,4.4373215E2,2.489611E3,3.8448856E2,1.3648824E3,1.0181289E2,1.886024E2,2.5512973E2,2.1976367E3,2.919745E2,2.3079668E2,1.5369188E2,1.3530876E3,1.1794833E1,1.5690155E1,8.6122734E1,1.6092357E2,2.7678837E1,1.0704747E2,1.4808226E2,2.1656675E3,3.1969109E1,4.7838448E1,2.4413605E2,2.149478E2,1.5848882E1,1.3584326E2,1.7848618E1,8.216341E0,3.5784924E0,5.5165997E0,1.0173555E1,7.476898E1,1.1353754E1,1.0750039E2,5.3423187E1,2.1807611E1,5.871226E0,1.00114494E2,6.932977E0,7.706572E1,7.101653E1,1.9978743E2,1.9658801E3,2.6108362E1,5.8607464E0,1.5674375E1,3.2164074E1,1.0081857E2,1.4331747E2,1.4052559E2,7.442221E1,7.365841E0,8.483041E0,3.4250374E1,1.0159289E2,6.511719E0,1.1336899E1],"tree_param":{"num_deleted":"0","num_feature":"24","num_nodes":"61","size_leaf_vector":"1"}},{"base_weights":[1.4873811E-2,1.528433E0,-9.6950763E-1,1.7315806E0,7.983593E-1,-1.250129E0,7.8898025E-1,1.7503776E-2,1.4582299E0,1.3055465E-1,1.2464716E0,-1.2972336E0,9.798643E-1,1.5527411E-1,1.3397416E0,1.626449E-2,1.156745E0,-3.7157053E-1,3.5557732E-1,8.7918776E-1,1.4907837E0,-1.4077809E0,-4.620921E-1,1.1713703E0,-3.572392E-3,8.9563537E-1,-1.8749885E-2,8.6439824E-1,1.4602699E0,-2.3404506E-4,1.301482E-2,-6.0117966E-4,-1.3956166E-2,1.6371398E-3,1.3338491E-2,9.784305E-3,-8.851734E-3,6.1738244E-3,1.5051444E-2,-1.1695983E-2,-1.5485692E-2,-5.132546E-3,9.643933E-3,2.7279994E-3,1.4253975E-2,-1.6052903E-3,1.0770124E-2,-3.5016893E-3,3.094038E-3,3.964524E-3,1.1826468E-2,1.4848258E-2,5.45877E-3],"categories":[],"categories_nodes":[],"categories_segments":[],"categories_sizes":[],"default_left":[0,0,0,0,0,0,0,0,0,0,0,0,0,0,0,0,0,0,0,0,0,0,0,0,0,0,0,0,0,0,0,0,0,0,0,0,0,0,0,0,0,0,0,0,0,0,0,0,0,0,0,0,0],"id":15,"left_children":[1,3,5,7,9,11,13,-1,15,17,19,21,23,25,27,-1,29,31,33,35,37,39,41,43,-1,45,47,49,51,-1,-1,-1,-1,-1,-1,-1,-1,-1,-1,-1,-1,-1,-1,-1,-1,-1,-1,-1,-1,-1,-1,-1,-1],"loss_changes":[7.1748774E3,2.8007373E2,1.4408801E3,5.0717773E0,1.24014465E2,2.656355E2,1.4015875E2,0E0,3.2641144E0,1.9086092E1,2.0961578E1,2.2693408E2,1.3895416E1,2.4256372E1,1.105777E1,0E0,6.8285484E0,1.662888E1,2.1619698E1,1.8654274E1,9.2233276E-1,7.1171875E1,2.1634285E1,1.0173103E1,0E0,7.035904E0,1.6781778E1,6.3736534E0,3.0086365E0,0E0,0E0,0E0,0E0,0E0,0E0,0E0,0E0,0E0,0E0,0E0,0E0,0E0,0E0,0E0,0E0,0E0,0E0,0E0,0E0,0E0,0E0,0E0,0E0],"parents":[2147483647,0,0,1,1,2,2,3,3,4,4,5,5,6,6,8,8,9,9,10,10,11,11,12,12,13,13,14,14,16,16,17,17,18,18,19,19,20,20,21,21,22,22,23,23,25,25,26,26,27,27,28,28],"right_children":[2,4,6,8,10,12,14,-1,16,18,20,22,24,26,28,-1,30,32,34,36,38,40,42,44,-1,46,48,50,52,-1,-1,-1,-1,-1,-1,-1,-1,-1,-1,-1,-1,-1,-1,-1,-1,-1,-1,-1,-1,-1,-1,-1,-1],"split_conditions":[2.21E0,1.43E0,2E0,8.6E-1,3E0,3E0,4E0,1.7503776E-2,2.17E0,1E0,6E0,1E0,1E1,2.2433333E0,5E0,1.626449E-2,2.5E0,3.03E0,3.34E0,2.1E0,1.64E0,3.0966666E0,3.86E0,5E0,-3.572392E-3,2.24E0,2.695E0,2.6E0,7.4333334E-1,-2.3404506E-4,1.301482E-2,-6.0117966E-4,-1.3956166E-2,1.6371398E-3,1.3338491E-2,9.784305E-3,-8.851734E-3,6.1738244E-3,1.5051444E-2,-1.1695983E-2,-1.5485692E-2,-5.132546E-3,9.643933E-3,2.7279994E-3,1.4253975E-2,-1.6052903E-3,1.0770124E-2,-3.5016893E-3,3.094038E-3,3.964524E-3,1.1826468E-2,1.4848258E-2,5.45877E-3],"split_indices":[9,9,3,9,3,4,3,0,7,3,3,3,4,11,3,0,13,13,5,12,0,11,13,4,0,0,11,0,18,0,0,0,0,0,0,0,0,0,0,0,0,0,0,0,0,0,0,0,0,0,0,0,0],"split_type":[0,0,0,0,0,0,0,0,0,0,0,0,0,0,0,0,0,0,0,0,0,0,0,0,0,0,0,0,0,0,0,0,0,0,0,0,0,0,0,0,0,0,0,0,0,0,0,0,0,0,0,0,0],"sum_hessian":[4.813619E3,1.8967198E3,2.9168994E3,1.4827606E3,4.139592E2,2.5157263E3,4.0117313E2,1.3823025E3,1.00458145E2,1.6674976E2,2.4720943E2,2.464095E3,5.163134E1,1.8713614E2,2.1403699E2,6.1659355E1,3.8798786E1,5.1400726E1,1.1534903E2,1.00588875E2,1.4662056E2,2.1754465E3,2.8864853E2,4.5271328E1,6.360014E0,3.4826202E1,1.5230994E2,4.494666E1,1.6909032E2,4.33015E0,3.4468636E1,4.0225334E1,1.1175394E1,9.741157E1,1.793747E1,9.565394E1,4.934942E0,3.0833955E0,1.4353716E2,8.1163983E2,1.3638066E3,2.792723E2,9.376225E0,1.0434671E1,3.4836655E1,5.121058E0,2.9705145E1,7.574457E1,7.656537E1,1.9103302E1,2.5843355E1,1.6406064E2,5.029677E0],"tree_param":{"num_deleted":"0","num_feature":"24","num_nodes":"53","size_leaf_vector":"1"}},{"base_weights":[3.6658046E-3,1.4948213E0,-7.110779E-1,8.79174E-1,1.7329768E0,-1.2265456E0,1.0172741E0,-2.0174393E-1,1.4858751E0,1.7362569E-2,1.1416603E0,-1.3346177E0,-4.4382975E-1,3.5468835E-1,1.5308923E0,6.493444E-1,-5.5784667E-1,1.1447232E0,1.620826E0,4.4713006E-3,1.4695773E-2,-6.07099E-1,-1.421554E0,4.879127E-1,-5.518704E-1,4.302018E-1,-4.8855394E-1,1.3056667E0,1.6183692E0,1.3823033E-2,3.9660498E-3,4.0255412E-3,-8.231545E-3,1.20850885E-2,8.294456E-5,1.6339066E-2,6.0870266E-3,-7.911792E-3,4.8272716E-4,-1.2508058E-2,-1.5514699E-2,8.313753E-3,-9.250411E-3,-8.654279E-3,-3.0441082E-3,1.6201672E-3,6.7992923E-3,1.9638643E-3,-1.1269848E-2,2.062919E-3,1.3399426E-2,1.6503822E-2,7.2316285E-3],"categories":[],"categories_nodes":[],"categories_segments":[],"categories_sizes":[],"default_left":[0,0,0,0,0,0,0,0,0,0,0,0,0,0,0,0,0,0,0,0,0,0,0,0,0,0,0,0,0,0,0,0,0,0,0,0,0,0,0,0,0,0,0,0,0,0,0,0,0,0,0,0,0],"id":16,"left_children":[1,3,5,7,9,11,13,15,17,-1,19,21,23,25,27,29,31,33,35,-1,-1,37,39,41,43,45,47,49,51,-1,-1,-1,-1,-1,-1,-1,-1,-1,-1,-1,-1,-1,-1,-1,-1,-1,-1,-1,-1,-1,-1,-1,-1],"loss_changes":[5.040448E3,2.2315039E2,2.8494258E3,2.819359E2,1.586914E-1,2.0774951E2,2.4957953E2,4.742103E1,1.0813843E1,0E0,1.3948078E0,1.3598291E2,3.050027E1,2.0729462E1,6.038208E0,8.0222E0,2.8361225E1,5.890915E0,1.584198E0,0E0,0E0,2.8110992E1,4.091577E1,1.6169958E1,2.0653625E1,1.973336E1,1.2007893E1,4.279846E0,7.2265625E0,0E0,0E0,0E0,0E0,0E0,0E0,0E0,0E0,0E0,0E0,0E0,0E0,0E0,0E0,0E0,0E0,0E0,0E0,0E0,0E0,0E0,0E0,0E0,0E0],"parents":[2147483647,0,0,1,1,2,2,3,3,4,4,5,5,6,6,7,7,8,8,10,10,11,11,12,12,13,13,14,14,15,15,16,16,17,17,18,18,21,21,22,22,23,23,24,24,25,25,26,26,27,27,28,28],"right_children":[2,4,6,8,10,12,14,16,18,-1,20,22,24,26,28,30,32,34,36,-1,-1,38,40,42,44,46,48,50,52,-1,-1,-1,-1,-1,-1,-1,-1,-1,-1,-1,-1,-1,-1,-1,-1,-1,-1,-1,-1,-1,-1,-1,-1],"split_conditions":[-8E-1,1E0,2E0,3E0,4E0,1E0,5E0,2.53E0,6E0,1.7362569E-2,3.53E0,2.68E0,2E0,5E0,7E0,2.71E0,-1.29E0,3.48E0,-8.6E-1,4.4713006E-3,1.4695773E-2,4E0,3.22E0,2.74E0,2.75E0,3E0,2.45E0,1.98E0,6.9E-1,1.3823033E-2,3.9660498E-3,4.0255412E-3,-8.231545E-3,1.20850885E-2,8.294456E-5,1.6339066E-2,6.0870266E-3,-7.911792E-3,4.8272716E-4,-1.2508058E-2,-1.5514699E-2,8.313753E-3,-9.250411E-3,-8.654279E-3,-3.0441082E-3,1.6201672E-3,6.7992923E-3,1.9638643E-3,-1.1269848E-2,2.062919E-3,1.3399426E-2,1.6503822E-2,7.2316285E-3],"split_indices":[14,10,3,3,7,3,3,11,3,0,0,11,7,2,3,13,14,5,14,0,0,2,11,0,7,3,7,0,14,0,0,0,0,0,0,0,0,0,0,0,0,0,0,0,0,0,0,0,0,0,0,0,0],"split_type":[0,0,0,0,0,0,0,0,0,0,0,0,0,0,0,0,0,0,0,0,0,0,0,0,0,0,0,0,0,0,0,0,0,0,0,0,0,0,0,0,0,0,0,0,0,0,0,0,0,0,0,0,0],"sum_hessian":[4.7272915E3,1.5313582E3,3.1959333E3,4.284581E2,1.1029E3,2.4619624E3,7.339709E2,1.542712E2,2.7418692E2,1.0948905E3,8.009511E0,2.1626526E3,2.993098E2,3.212445E2,4.1272638E2,4.5264706E1,1.09006485E2,8.040578E1,1.9378114E2,3.3268232E0,4.6826878E0,2.31697E2,1.9309556E3,3.0735022E1,2.6857477E2,2.9529068E2,2.5953844E1,1.1991325E2,2.928131E2,1.046021E1,3.4804497E1,2.3482767E1,8.552371E1,7.607253E1,4.333241E0,1.907022E2,3.078955E0,1.8072726E2,5.096975E1,8.389521E2,1.0920034E3,2.5055986E1,5.679035E0,1.173644E2,1.5121039E2,1.4317848E2,1.5211218E2,1.2854881E1,1.3098963E1,3.8377807E0,1.1607547E2,2.8188907E2,1.0924048E1],"tree_param":{"num_deleted":"0","num_feature":"24","num_nodes":"53","size_leaf_vector":"1"}},{"base_weights":[-4.26187E-3,1.487615E0,-9.616208E-1,1.6977527E0,6.8514997E-1,-1.2476292E0,7.9149055E-1,1.7221974E-2,1.361336E0,2.2043729E-1,1.4694271E-2,-8.275813E-1,-1.3988215E0,4.3102863E-1,1.3882251E0,5.193835E-1,1.4163922E0,-4.2628363E-1,4.0638658E-1,-1.3020884E-1,-9.0217763E-1,-1.4520063E0,-5.774287E-1,5.0699115E-1,-3.367351E-1,1.4515305E0,7.7706563E-1,7.2333044E-3,2.389985E-3,1.2134123E-2,1.5601885E-2,-7.372411E-4,-1.7523697E-2,7.735847E-3,1.5416758E-3,1.075502E-2,-3.4666597E-3,-7.5870245E-3,-1.2061496E-2,-1.1953594E-2,-1.5261288E-2,-7.3888674E-3,6.8132263E-3,9.316234E-3,4.0338244E-3,1.0091215E-2,-6.9170017E-3,1.4798161E-2,3.1154992E-3,-5.6363908E-3,1.1370611E-2],"categories":[],"categories_nodes":[],"categories_segments":[],"categories_sizes":[],"default_left":[0,0,0,0,0,0,0,0,0,0,0,0,0,0,0,0,0,0,0,0,0,0,0,0,0,0,0,0,0,0,0,0,0,0,0,0,0,0,0,0,0,0,0,0,0,0,0,0,0,0,0],"id":17,"left_children":[1,3,5,7,9,11,13,-1,15,17,-1,19,21,23,25,27,29,31,33,35,37,39,41,43,45,47,49,-1,-1,-1,-1,-1,-1,-1,-1,-1,-1,-1,-1,-1,-1,-1,-1,-1,-1,-1,-1,-1,-1,-1,-1],"loss_changes":[6.7652515E3,3.1104932E2,1.4476475E3,9.716309E0,1.4032317E2,1.5640063E2,8.6580414E1,0E0,4.0907593E0,2.9455334E1,0E0,3.4169067E1,7.879346E1,1.499123E1,4.759674E0,2.8285575E-1,9.4241333E-1,2.5521376E1,1.7443262E1,1.7299463E1,2.5044128E1,3.0730713E1,2.336956E1,9.815285E0,1.1915029E1,3.9481812E0,8.573378E0,0E0,0E0,0E0,0E0,0E0,0E0,0E0,0E0,0E0,0E0,0E0,0E0,0E0,0E0,0E0,0E0,0E0,0E0,0E0,0E0,0E0,0E0,0E0,0E0],"parents":[2147483647,0,0,1,1,2,2,3,3,4,4,5,5,6,6,8,8,9,9,11,11,12,12,13,13,14,14,15,15,16,16,17,17,18,18,19,19,20,20,21,21,22,22,23,23,24,24,25,25,26,26],"right_children":[2,4,6,8,10,12,14,-1,16,18,-1,20,22,24,26,28,30,32,34,36,38,40,42,44,46,48,50,-1,-1,-1,-1,-1,-1,-1,-1,-1,-1,-1,-1,-1,-1,-1,-1,-1,-1,-1,-1,-1,-1,-1,-1],"split_conditions":[2.25E0,1.55E0,2E0,1.14E0,5E0,2.92E0,5E0,1.7221974E-2,2E0,1E0,1.4694271E-2,2.03E0,1E0,1E0,7.5E-1,2.37E0,7E0,1.6666668E-2,1.92E0,2E0,3.02E0,2.83E0,3.78E0,2.2233334E0,-1E0,6.9666666E-1,9.4E-1,7.2333044E-3,2.389985E-3,1.2134123E-2,1.5601885E-2,-7.372411E-4,-1.7523697E-2,7.735847E-3,1.5416758E-3,1.075502E-2,-3.4666597E-3,-7.5870245E-3,-1.2061496E-2,-1.1953594E-2,-1.5261288E-2,-7.3888674E-3,6.8132263E-3,9.316234E-3,4.0338244E-3,1.0091215E-2,-6.9170017E-3,1.4798161E-2,3.1154992E-3,-5.6363908E-3,1.1370611E-2],"split_indices":[9,9,3,9,3,9,3,0,3,3,0,12,3,17,14,0,3,18,9,0,7,0,13,11,14,18,14,0,0,0,0,0,0,0,0,0,0,0,0,0,0,0,0,0,0,0,0,0,0,0,0],"split_type":[0,0,0,0,0,0,0,0,0,0,0,0,0,0,0,0,0,0,0,0,0,0,0,0,0,0,0,0,0,0,0,0,0,0,0,0,0,0,0,0,0,0,0,0,0,0,0,0,0,0,0],"sum_hessian":[4.7347017E3,1.8504868E3,2.8842148E3,1.4655852E3,3.8490164E2,2.4799207E3,4.0429413E2,1.3624662E3,1.03118965E2,2.4249539E2,1.4240625E2,6.580835E2,1.8218372E3,2.5311841E2,1.5117572E2,6.96959E0,9.6149376E1,5.3864677E1,1.886307E2,6.3856762E1,5.942267E2,1.7103265E3,1.11510544E2,2.3063867E2,2.2479729E1,1.3574037E2,1.5435352E1,3.1202223E0,3.849368E0,4.378367E1,5.236571E1,4.3385582E1,1.0479099E1,7.596639E1,1.12664314E2,9.115103E0,5.4741657E1,4.0606128E2,1.8816542E2,3.8710684E2,1.3232197E3,9.9199394E1,1.2311149E1,4.3669765E1,1.8696892E2,4.3069544E0,1.8172773E1,1.3216298E2,3.577384E0,3.1475348E0,1.2287817E1],"tree_param":{"num_deleted":"0","num_feature":"24","num_nodes":"51","size_leaf_vector":"1"}},{"base_weights":[-4.3365457E-3,1.4082872E0,-1.0046133E0,1.6919326E0,5.9682333E-1,-1.257597E0,7.1845037E-1,1.7083821E0,1.4901462E-2,-9.8316684E-2,9.47107E-1,-1.2923394E0,7.8790593E-1,7.746117E-1,1.453196E-1,1.7103983E-2,1.0203484E-2,-4.0204614E-1,5.0360674E-1,1.2258642E0,8.296641E-1,-1.3785449E0,-5.658183E-1,1.0999389E0,-9.184223E-3,6.122227E-1,1.1458647E0,7.8750336E-1,-5.0123304E-1,-1.6993582E-3,-1.2761667E-2,8.680149E-3,-9.978647E-3,8.581898E-3,1.3538702E-2,1.5678601E-2,7.7172867E-3,-9.935046E-3,-1.4807519E-2,-9.522216E-3,-2.5770166E-3,1.8772566E-3,1.3936285E-2,6.6475146E-3,-7.6359604E-3,-2.1789295E-3,1.2234052E-2,1.2176599E-2,-1.8364429E-3,-1.0564401E-2,7.648112E-3],"categories":[],"categories_nodes":[],"categories_segments":[],"categories_sizes":[],"default_left":[0,0,0,0,0,0,0,0,0,0,0,0,0,0,0,0,0,0,0,0,0,0,0,0,0,0,0,0,0,0,0,0,0,0,0,0,0,0,0,0,0,0,0,0,0,0,0,0,0,0,0],"id":18,"left_children":[1,3,5,7,9,11,13,15,-1,17,19,21,23,25,27,-1,-1,29,31,33,35,37,39,41,-1,43,45,47,49,-1,-1,-1,-1,-1,-1,-1,-1,-1,-1,-1,-1,-1,-1,-1,-1,-1,-1,-1,-1,-1,-1],"loss_changes":[6.721053E3,4.5284473E2,1.214771E3,2.302246E0,1.2482974E2,1.7360474E2,1.13832245E1,1.18652344E-1,0E0,3.1748428E1,1.0137573E1,1.4880396E2,2.2936039E1,1.8894455E1,1.4139945E1,0E0,0E0,2.3164053E1,3.2771614E1,3.4930115E0,9.17485E0,8.252246E1,3.0117699E1,9.187286E0,0E0,1.7005295E1,1.0604797E1,7.32419E0,1.283296E1,0E0,0E0,0E0,0E0,0E0,0E0,0E0,0E0,0E0,0E0,0E0,0E0,0E0,0E0,0E0,0E0,0E0,0E0,0E0,0E0,0E0,0E0],"parents":[2147483647,0,0,1,1,2,2,3,3,4,4,5,5,6,6,7,7,9,9,10,10,11,11,12,12,13,13,14,14,17,17,18,18,19,19,20,20,21,21,22,22,23,23,25,25,26,26,27,27,28,28],"right_children":[2,4,6,8,10,12,14,16,-1,18,20,22,24,26,28,-1,-1,30,32,34,36,38,40,42,-1,44,46,48,50,-1,-1,-1,-1,-1,-1,-1,-1,-1,-1,-1,-1,-1,-1,-1,-1,-1,-1,-1,-1,-1,-1],"split_conditions":[2.33E0,1.43E0,1E0,8.6E-1,1E0,3E0,5E0,4E0,1.4901462E-2,3E0,1.9666667E0,1E0,1E1,3E0,2.4E0,1.7103983E-2,1.0203484E-2,1E0,5E0,1.79E0,1E0,2.92E0,2.78E0,5E0,-9.184223E-3,7.4333334E-1,-8.1333333E-1,9E-2,3.15E0,-1.6993582E-3,-1.2761667E-2,8.680149E-3,-9.978647E-3,8.581898E-3,1.3538702E-2,1.5678601E-2,7.7172867E-3,-9.935046E-3,-1.4807519E-2,-9.522216E-3,-2.5770166E-3,1.8772566E-3,1.3936285E-2,6.6475146E-3,-7.6359604E-3,-2.1789295E-3,1.2234052E-2,1.2176599E-2,-1.8364429E-3,-1.0564401E-2,7.648112E-3],"split_indices":[9,9,20,9,20,4,2,7,0,2,11,19,4,2,7,0,0,4,2,5,2,9,7,4,0,18,18,18,9,0,0,0,0,0,0,0,0,0,0,0,0,0,0,0,0,0,0,0,0,0,0],"split_type":[0,0,0,0,0,0,0,0,0,0,0,0,0,0,0,0,0,0,0,0,0,0,0,0,0,0,0,0,0,0,0,0,0,0,0,0,0,0,0,0,0,0,0,0,0,0,0,0,0,0,0],"sum_hessian":[4.7545337E3,1.9708402E3,2.7836936E3,1.4595668E3,5.1127338E2,2.4275464E3,3.5614725E2,1.3426486E3,1.1691824E2,1.7155025E2,3.3972314E2,2.3873657E3,4.0180645E1,3.2404263E2,3.2104618E1,1.3372441E3,5.404486E0,1.14238014E2,5.7312233E1,9.790421E1,2.4181892E2,2.1333364E3,2.5402917E2,3.4269268E1,5.9113784E0,2.2727834E2,9.676429E1,1.5997355E1,1.6107262E1,9.1212296E1,2.302572E1,4.6458588E1,1.0853643E1,2.7272686E1,7.063152E1,1.5700853E1,2.2611807E2,4.497457E2,1.6835908E3,1.1177003E2,1.4225914E2,8.745267E0,2.5524E1,2.194178E2,7.860546E0,5.108447E0,9.165584E1,1.091075E1,5.0866046E0,1.1312063E1,4.795199E0],"tree_param":{"num_deleted":"0","num_feature":"24","num_nodes":"51","size_leaf_vector":"1"}},{"base_weights":[-6.023211E-3,1.4681343E0,-7.0740145E-1,8.847841E-1,1.6955784E-2,-1.2230896E0,1.0156567E0,-6.424687E-1,1.3593234E0,-1.3467144E0,-3.5530636E-1,4.137447E-1,1.486073E0,-1.5076269E-1,-1.3403225E0,8.509013E-1,1.5636705E0,-1.3803245E0,7.238259E-1,1.2638779E0,-4.5518628E-1,3.5823232E-1,1.3098027E0,1.5726358E0,1.1724988E0,-5.1848153E-3,3.2453337E-3,-1.5437247E-2,9.36087E-3,1.3248305E-2,5.513438E-3,1.5819447E-2,3.0465962E-3,-1.1222515E-2,-1.5057297E-2,9.405256E-3,-6.415265E-3,1.5801787E-2,6.6125914E-3,-5.0600534E-3,1.0497119E-2,1.4386892E-3,5.382349E-3,4.1018203E-3,1.4987862E-2,1.6495567E-2,1.3932337E-2,1.0599309E-2,1.5999712E-2],"categories":[],"categories_nodes":[],"categories_segments":[],"categories_sizes":[],"default_left":[0,0,0,0,0,0,0,0,0,0,0,0,0,0,0,0,0,0,0,0,0,0,0,0,0,0,0,0,0,0,0,0,0,0,0,0,0,0,0,0,0,0,0,0,0,0,0,0,0],"id":19,"left_children":[1,3,5,7,-1,9,11,13,15,17,19,21,23,25,27,29,31,33,35,37,39,41,43,45,47,-1,-1,-1,-1,-1,-1,-1,-1,-1,-1,-1,-1,-1,-1,-1,-1,-1,-1,-1,-1,-1,-1,-1,-1],"loss_changes":[4.895252E3,2.0102051E2,2.8518855E3,3.1271106E2,0E0,2.6446118E2,2.0878394E2,3.5030987E1,3.2808716E1,1.5140723E2,5.059827E1,1.5737335E1,9.41333E0,1.0893017E1,2.1038345E1,1.2955437E1,4.883301E0,6.7151855E1,1.10119095E1,2.4310646E0,2.2868313E1,1.1813976E1,2.5526695E0,2.1464233E0,2.810501E0,0E0,0E0,0E0,0E0,0E0,0E0,0E0,0E0,0E0,0E0,0E0,0E0,0E0,0E0,0E0,0E0,0E0,0E0,0E0,0E0,0E0,0E0,0E0,0E0],"parents":[2147483647,0,0,1,1,2,2,3,3,5,5,6,6,7,7,8,8,9,9,10,10,11,11,12,12,13,13,14,14,15,15,16,16,17,17,18,18,19,19,20,20,21,21,22,22,23,23,24,24],"right_children":[2,4,6,8,-1,10,12,14,16,18,20,22,24,26,28,30,32,34,36,38,40,42,44,46,48,-1,-1,-1,-1,-1,-1,-1,-1,-1,-1,-1,-1,-1,-1,-1,-1,-1,-1,-1,-1,-1,-1,-1,-1],"split_conditions":[-8.3E-1,1E0,2E0,2E0,1.6955784E-2,1E0,5E0,3.43E0,5E0,3E0,1.79E0,5E0,3E-2,6.221736E-1,3.8E0,-1.36E0,-8.6E-1,3.3E0,1E1,1.68E0,5E0,1E0,2.34E0,2.58E0,1.2E1,-5.1848153E-3,3.2453337E-3,-1.5437247E-2,9.36087E-3,1.3248305E-2,5.513438E-3,1.5819447E-2,3.0465962E-3,-1.1222515E-2,-1.5057297E-2,9.405256E-3,-6.415265E-3,1.5801787E-2,6.6125914E-3,-5.0600534E-3,1.0497119E-2,1.4386892E-3,5.382349E-3,4.1018203E-3,1.4987862E-2,1.6495567E-2,1.3932337E-2,1.0599309E-2,1.5999712E-2],"split_indices":[14,10,3,3,0,3,3,5,3,4,7,4,14,15,7,14,14,13,4,7,4,1,13,13,3,0,0,0,0,0,0,0,0,0,0,0,0,0,0,0,0,0,0,0,0,0,0,0,0],"split_type":[0,0,0,0,0,0,0,0,0,0,0,0,0,0,0,0,0,0,0,0,0,0,0,0,0,0,0,0,0,0,0,0,0,0,0,0,0,0,0,0,0,0,0,0,0,0,0,0,0],"sum_hessian":[4.7325474E3,1.5253894E3,3.207158E3,4.292744E2,1.096115E3,2.4686226E3,7.3853534E2,1.0167871E2,3.275957E2,2.1603118E3,3.0831073E2,3.2481024E2,4.1372513E2,6.0363075E1,4.1315636E1,9.540043E1,2.3219528E2,2.1261326E3,3.4179245E1,1.7236156E1,2.910746E2,3.071797E2,1.7630535E1,3.210763E2,9.264884E1,3.398178E1,2.6381296E1,3.822225E1,3.093385E0,3.562135E1,5.977908E1,2.286204E2,3.574873E0,6.9854266E2,1.42759E3,2.9766113E1,4.413134E0,1.0239491E1,6.996664E0,2.822084E2,8.866168E0,1.4102893E2,1.6615077E2,3.6110878E0,1.4019446E1,2.1898775E2,1.0208854E2,7.6091034E1,1.6557804E1],"tree_param":{"num_deleted":"0","num_feature":"24","num_nodes":"49","size_leaf_vector":"1"}},{"base_weights":[-1.850679E-2,1.4514679E0,-9.370901E-1,1.650615E0,6.305483E-1,-1.2151958E0,7.29106E-1,1.6851623E-2,1.3083003E0,9.966343E-3,1.1048032E0,-1.2545847E0,8.9594644E-1,1.4922568E-1,1.2416413E0,1.8053114E-3,1.3586038E0,-1.7009659E-1,8.6607534E-1,7.702636E-1,1.3709539E0,-8.39157E-1,-1.4040693E0,1.0750663E0,-6.424417E-3,6.456627E-1,-2.5279008E-2,1.0174733E0,1.481006E0,1.6308432E-2,1.1458654E-2,4.9903425E-3,-3.5775928E-3,1.2103474E-2,-3.1801527E-3,8.679155E-3,-8.512205E-3,1.1425099E-2,1.517496E-2,6.936198E-4,-9.045243E-3,-1.4548963E-2,-6.1506676E-3,2.3229455E-3,1.3596633E-2,2.1903664E-3,1.0326998E-2,-6.7960047E-3,3.0988033E-3,1.0699227E-2,-5.534747E-3,1.5148057E-2,7.860165E-3],"categories":[],"categories_nodes":[],"categories_segments":[],"categories_sizes":[],"default_left":[0,0,0,0,0,0,0,0,0,0,0,0,0,0,0,0,0,0,0,0,0,0,0,0,0,0,0,0,0,0,0,0,0,0,0,0,0,0,0,0,0,0,0,0,0,0,0,0,0,0,0,0,0],"id":20,"left_children":[1,3,5,7,9,11,13,-1,15,17,19,21,23,25,27,-1,29,31,33,35,37,39,41,43,-1,45,47,49,51,-1,-1,-1,-1,-1,-1,-1,-1,-1,-1,-1,-1,-1,-1,-1,-1,-1,-1,-1,-1,-1,-1,-1,-1],"loss_changes":[6.335216E3,2.9393823E2,1.3388396E3,1.4960205E1,1.0414006E2,2.0691455E2,1.2274823E2,0E0,7.556793E0,2.393314E1,1.6803024E1,1.4971558E2,1.3341679E1,1.6926624E1,1.0267059E1,0E0,5.7473297E0,1.6292006E1,1.1382429E1,1.5172092E1,1.9628906E0,3.839511E1,7.070361E1,9.637192E0,0E0,8.16308E0,3.2095566E1,1.0191658E1,1.2504578E0,0E0,0E0,0E0,0E0,0E0,0E0,0E0,0E0,0E0,0E0,0E0,0E0,0E0,0E0,0E0,0E0,0E0,0E0,0E0,0E0,0E0,0E0,0E0,0E0],"parents":[2147483647,0,0,1,1,2,2,3,3,4,4,5,5,6,6,8,8,9,9,10,10,11,11,12,12,13,13,14,14,16,16,17,17,18,18,19,19,20,20,21,21,22,22,23,23,25,25,26,26,27,27,28,28],"right_children":[2,4,6,8,10,12,14,-1,16,18,20,22,24,26,28,-1,30,32,34,36,38,40,42,44,-1,46,48,50,52,-1,-1,-1,-1,-1,-1,-1,-1,-1,-1,-1,-1,-1,-1,-1,-1,-1,-1,-1,-1,-1,-1,-1,-1],"split_conditions":[2.2E0,1.55E0,2E0,8.6E-1,3E0,3E0,4E0,1.6851623E-2,2E0,3.34E0,6E0,2.92E0,1E1,2.325E0,7E0,1.8053114E-3,2.34E0,1.82E0,3.14E0,2.1E0,9E0,2.325E0,1E0,5E0,-6.424417E-3,5.542863E-1,2.33E0,6.9666666E-1,7.020921E-1,1.6308432E-2,1.1458654E-2,4.9903425E-3,-3.5775928E-3,1.2103474E-2,-3.1801527E-3,8.679155E-3,-8.512205E-3,1.1425099E-2,1.517496E-2,6.936198E-4,-9.045243E-3,-1.4548963E-2,-6.1506676E-3,2.3229455E-3,1.3596633E-2,2.1903664E-3,1.0326998E-2,-6.7960047E-3,3.0988033E-3,1.0699227E-2,-5.534747E-3,1.5148057E-2,7.860165E-3],"split_indices":[9,9,3,9,3,4,3,0,3,13,3,9,4,11,3,0,13,9,7,12,3,11,3,4,0,15,12,18,15,0,0,0,0,0,0,0,0,0,0,0,0,0,0,0,0,0,0,0,0,0,0,0,0],"split_type":[0,0,0,0,0,0,0,0,0,0,0,0,0,0,0,0,0,0,0,0,0,0,0,0,0,0,0,0,0,0,0,0,0,0,0,0,0,0,0,0,0,0,0,0,0,0,0,0,0,0,0,0,0],"sum_hessian":[4.689722E3,1.803334E3,2.8863884E3,1.4504567E3,3.528774E2,2.4737622E3,4.1262622E2,1.313929E3,1.3652768E2,1.5329959E2,1.9957782E2,2.4288513E3,4.4910873E1,1.9420015E2,2.1842607E2,6.0256705E0,1.3050201E2,1.273217E2,2.5977892E1,9.015328E1,1.0942454E2,6.444622E2,1.784389E3,4.0496857E1,4.414016E0,4.9807125E1,1.4439302E2,1.1550496E2,1.0292111E2,5.432143E1,7.618058E1,2.752374E1,9.979796E1,2.0109049E1,5.868843E0,8.547066E1,4.682628E0,4.619998E1,6.3224556E1,4.325225E1,6.0120996E2,1.675604E3,1.0878511E2,1.0681669E1,2.981519E1,2.4436743E1,2.5370382E1,4.8561054E1,9.583196E1,1.12081795E2,3.4231644E0,9.702296E1,5.8981595E0],"tree_param":{"num_deleted":"0","num_feature":"24","num_nodes":"53","size_leaf_vector":"1"}},{"base_weights":[1.3545047E-2,1.3850362E0,-9.663422E-1,1.6460209E0,5.9272E-1,-1.2189219E0,7.310282E-1,1.6723409E0,1.3973713E0,1.7622496E-1,1.3851343E0,-1.2552783E0,9.385107E-1,3.3662686E-1,1.3635378E0,1.6757304E-2,9.973167E-1,1.6767211E-2,1.2551857E0,-4.5766827E-1,3.840765E-1,1.4396092E0,8.1805104E-1,-1.3422338E0,-5.738127E-1,1.228587E0,-1.7329401E-1,4.5198384E-1,-8.759919E-1,4.8946792E-1,1.4155848E0,1.4213365E-2,2.5158369E-3,6.0680974E-3,1.3270166E-2,-5.879956E-3,9.936279E-3,7.902586E-3,1.5149411E-3,1.4788966E-2,1.0161229E-2,1.2217296E-2,4.4508817E-4,-6.3131093E-3,-1.4038999E-2,-4.751563E-3,-1.5767893E-2,5.364779E-3,1.3522893E-2,8.52592E-3,-1.4624151E-2,5.4824334E-3,-5.952857E-3,3.1991887E-3,-1.4303691E-2,1.364035E-2,-2.7490805E-3,1.2920484E-2,1.5775707E-2],"categories":[],"categories_nodes":[],"categories_segments":[],"categories_sizes":[],"default_left":[0,0,0,0,0,0,0,0,0,0,0,0,0,0,0,0,0,0,0,0,0,0,0,0,0,0,0,0,0,0,0,0,0,0,0,0,0,0,0,0,0,0,0,0,0,0,0,0,0,0,0,0,0,0,0,0,0,0,0],"id":21,"left_children":[1,3,5,7,9,11,13,15,17,19,21,23,25,27,29,-1,31,-1,33,35,37,39,41,43,45,47,49,51,53,55,57,-1,-1,-1,-1,-1,-1,-1,-1,-1,-1,-1,-1,-1,-1,-1,-1,-1,-1,-1,-1,-1,-1,-1,-1,-1,-1,-1,-1],"loss_changes":[6.390279E3,4.087727E2,1.1899336E3,7.4140625E0,1.6231384E2,1.9057007E2,8.931648E1,1.3999023E0,3.8018188E0,4.286445E1,4.059906E0,1.3996558E2,1.33028145E1,3.1588331E1,5.580017E0,0E0,2.5440474E0,0E0,3.9696045E0,1.5802942E1,2.2981945E1,1.0490112E0,5.308913E0,9.141846E1,2.6017189E1,2.0410233E0,1.3512677E1,2.0919453E1,1.3525427E1,6.577112E0,5.553589E-1,0E0,0E0,0E0,0E0,0E0,0E0,0E0,0E0,0E0,0E0,0E0,0E0,0E0,0E0,0E0,0E0,0E0,0E0,0E0,0E0,0E0,0E0,0E0,0E0,0E0,0E0,0E0,0E0],"parents":[2147483647,0,0,1,1,2,2,3,3,4,4,5,5,6,6,7,7,8,8,9,9,10,10,11,11,12,12,13,13,14,14,16,16,18,18,19,19,20,20,21,21,22,22,23,23,24,24,25,25,26,26,27,27,28,28,29,29,30,30],"right_children":[2,4,6,8,10,12,14,16,18,20,22,24,26,28,30,-1,32,-1,34,36,38,40,42,44,46,48,50,52,54,56,58,-1,-1,-1,-1,-1,-1,-1,-1,-1,-1,-1,-1,-1,-1,-1,-1,-1,-1,-1,-1,-1,-1,-1,-1,-1,-1,-1,-1],"split_conditions":[2.33E0,1.55E0,2E0,8.6E-1,5E0,3E0,5E0,3.93E0,2.21E0,1E0,5E0,1E0,9E0,5E0,-6.8333334E-1,1.6757304E-2,1.7333333E-1,1.6767211E-2,2.22E0,3E0,1.92E0,3E0,2.3E0,2.68E0,5E0,4E0,-1.1333334E-1,1E0,2.4933333E0,1.36E0,3.18E0,1.4213365E-2,2.5158369E-3,6.0680974E-3,1.3270166E-2,-5.879956E-3,9.936279E-3,7.902586E-3,1.5149411E-3,1.4788966E-2,1.0161229E-2,1.2217296E-2,4.4508817E-4,-6.3131093E-3,-1.4038999E-2,-4.751563E-3,-1.5767893E-2,5.364779E-3,1.3522893E-2,8.52592E-3,-1.4624151E-2,5.4824334E-3,-5.952857E-3,3.1991887E-3,-1.4303691E-2,1.364035E-2,-2.7490805E-3,1.2920484E-2,1.5775707E-2],"split_indices":[9,9,3,9,3,4,3,7,13,3,2,3,4,2,18,0,18,0,5,4,9,4,13,11,2,4,18,17,11,7,13,0,0,0,0,0,0,0,0,0,0,0,0,0,0,0,0,0,0,0,0,0,0,0,0,0,0,0,0],"split_type":[0,0,0,0,0,0,0,0,0,0,0,0,0,0,0,0,0,0,0,0,0,0,0,0,0,0,0,0,0,0,0,0,0,0,0,0,0,0,0,0,0,0,0,0,0,0,0,0,0,0,0,0,0,0,0,0,0,0,0],"sum_hessian":[4.753006E3,1.9805424E3,2.7724634E3,1.4889972E3,4.9154517E2,2.413588E3,3.5887558E2,1.3412937E3,1.4770354E2,3.2299866E2,1.6854652E2,2.374E3,3.9587822E1,2.219875E2,1.3688808E2,1.3331173E3,8.176412E0,4.618064E1,1.015229E2,7.946109E1,2.4353757E2,1.5237094E2,1.6175587E1,2.1044956E3,2.6950436E2,3.131303E1,8.274792E0,2.0327693E2,1.8710564E1,8.277706E0,1.2861038E2,4.6350102E0,3.5414011E0,1.1067825E1,9.045508E1,7.345925E1,6.001839E0,8.780212E1,1.5573544E2,1.3715468E2,1.5216256E1,1.0248129E1,5.927457E0,1.6887256E2,1.935623E3,2.4671077E2,2.279361E1,5.557254E0,2.5755775E1,4.7964163E0,3.4783752E0,1.8660196E2,1.667497E1,6.060243E0,1.2650321E1,3.4947042E0,4.783002E0,7.805734E1,5.055304E1],"tree_param":{"num_deleted":"0","num_feature":"24","num_nodes":"59","size_leaf_vector":"1"}},{"base_weights":[1.0426008E-2,1.3668653E0,-9.502257E-1,1.62966E0,5.4268026E-1,-1.2230285E0,7.551607E-1,1.6616331E0,1.3205807E0,-2.2072661E-1,9.257306E-1,-9.299728E-1,-1.4128346E0,5.7909065E-1,9.592324E-1,1.6642822E-2,1.0809803E0,1.5406712E0,1.1613138E0,-4.4381577E-1,2.3737393E-1,1.0039238E0,5.35114E-1,-1.8478414E-1,-9.982362E-1,-1.3310138E-2,-1.4260353E0,7.295132E-1,1.1036406E-1,1.0399783E0,-9.349158E-2,3.977768E-3,1.410699E-2,1.5943432E-2,8.9199515E-3,-8.1516564E-4,1.2981694E-2,-7.8208E-3,1.3684467E-3,4.2386395E-3,-1.53442705E-2,1.3897408E-2,9.399771E-3,6.689074E-3,-4.5500644E-3,-1.6437335E-2,-6.3369276E-5,-6.9996607E-3,-1.1422732E-2,-1.4918737E-2,1.0324811E-2,-1.6071294E-2,-1.3470969E-2,1.1403285E-2,4.7664084E-3,-1.7041115E-2,2.8791756E-3,1.0740393E-2,-5.1402375E-3,1.0688045E-2,-1.1030014E-2],"categories":[],"categories_nodes":[],"categories_segments":[],"categories_sizes":[],"default_left":[0,0,0,0,0,0,0,0,0,0,0,0,0,0,0,0,0,0,0,0,0,0,0,0,0,0,0,0,0,0,0,0,0,0,0,0,0,0,0,0,0,0,0,0,0,0,0,0,0,0,0,0,0,0,0,0,0,0,0,0,0],"id":22,"left_children":[1,3,5,7,9,11,13,15,17,19,21,23,25,27,29,-1,31,33,35,37,39,41,43,45,47,49,51,53,55,57,59,-1,-1,-1,-1,-1,-1,-1,-1,-1,-1,-1,-1,-1,-1,-1,-1,-1,-1,-1,-1,-1,-1,-1,-1,-1,-1,-1,-1,-1,-1],"loss_changes":[6.1279126E3,4.214048E2,1.2817085E3,1.2409912E1,1.3848285E2,1.3072119E2,1.3107971E1,2.548828E-1,3.2379913E0,1.6334436E1,9.086121E0,4.742914E1,2.6560547E1,1.4490753E1,1.4939301E1,0E0,1.4478025E0,5.675659E-1,1.4948868E1,2.1151619E1,1.805012E1,5.142334E0,7.549515E0,2.0758543E1,3.6028503E1,2.388842E1,1.8209473E1,1.5691086E1,1.7045927E1,9.140137E0,1.6850231E1,0E0,0E0,0E0,0E0,0E0,0E0,0E0,0E0,0E0,0E0,0E0,0E0,0E0,0E0,0E0,0E0,0E0,0E0,0E0,0E0,0E0,0E0,0E0,0E0,0E0,0E0,0E0,0E0,0E0,0E0],"parents":[2147483647,0,0,1,1,2,2,3,3,4,4,5,5,6,6,7,7,8,8,9,9,10,10,11,11,12,12,13,13,14,14,16,16,17,17,18,18,19,19,20,20,21,21,22,22,23,23,24,24,25,25,26,26,27,27,28,28,29,29,30,30],"right_children":[2,4,6,8,10,12,14,16,18,20,22,24,26,28,30,-1,32,34,36,38,40,42,44,46,48,50,52,54,56,58,60,-1,-1,-1,-1,-1,-1,-1,-1,-1,-1,-1,-1,-1,-1,-1,-1,-1,-1,-1,-1,-1,-1,-1,-1,-1,-1,-1,-1,-1,-1],"split_conditions":[2.33E0,1.55E0,1E0,8.6E-1,1E0,3.34E0,2.71E0,4E0,2.34E0,3E0,2.08E0,2.03E0,2.34E0,2.76E0,5E0,1.6642822E-2,3.53E0,2.05E0,6.102458E-1,2.6E0,3.18E0,1.45E0,-5E-2,-1.4E-1,2.76E0,2.29E0,1E0,1.93E0,2.2233334E0,1E0,2.43E0,3.977768E-3,1.410699E-2,1.5943432E-2,8.9199515E-3,-8.1516564E-4,1.2981694E-2,-7.8208E-3,1.3684467E-3,4.2386395E-3,-1.53442705E-2,1.3897408E-2,9.399771E-3,6.689074E-3,-4.5500644E-3,-1.6437335E-2,-6.3369276E-5,-6.9996607E-3,-1.1422732E-2,-1.4918737E-2,1.0324811E-2,-1.6071294E-2,-1.3470969E-2,1.1403285E-2,4.7664084E-3,-1.7041115E-2,2.8791756E-3,1.0740393E-2,-5.1402375E-3,1.0688045E-2,-1.1030014E-2],"split_indices":[9,9,20,9,20,13,11,7,13,2,12,12,7,9,2,0,0,7,15,11,5,7,14,14,9,7,2,12,11,14,12,0,0,0,0,0,0,0,0,0,0,0,0,0,0,0,0,0,0,0,0,0,0,0,0,0,0,0,0,0,0],"split_type":[0,0,0,0,0,0,0,0,0,0,0,0,0,0,0,0,0,0,0,0,0,0,0,0,0,0,0,0,0,0,0,0,0,0,0,0,0,0,0,0,0,0,0,0,0,0,0,0,0,0,0,0,0,0,0,0,0,0,0,0,0],"sum_hessian":[4.700692E3,1.9487028E3,2.7519893E3,1.4768317E3,4.7187112E2,2.372719E3,3.7927008E2,1.3344153E3,1.4241638E2,1.5780156E2,3.1406958E2,9.350011E2,1.437718E3,2.0566396E2,1.7360611E2,1.3264972E3,7.9181466E0,5.614971E1,8.626667E1,1.0614262E2,5.165893E1,2.6037744E2,5.369215E1,7.877463E1,8.5622644E2,1.3452912E1,1.4242651E3,1.552766E2,5.0387363E1,1.6125005E2,1.2356073E1,3.2956696E0,4.622477E0,5.051243E1,5.6372833E0,8.597192E0,7.766948E1,6.68514E1,3.929122E1,4.7427723E1,4.231209E0,3.4072285E1,2.2630515E2,4.7586304E1,6.1058455E0,7.69015E0,7.108447E1,2.807377E2,5.754888E2,5.3965693E0,8.056343E0,4.264888E2,9.977763E2,5.782495E1,9.745165E1,3.724792E0,4.666257E1,1.5809375E2,3.156288E0,5.7161107E0,6.6399627E0],"tree_param":{"num_deleted":"0","num_feature":"24","num_nodes":"61","size_leaf_vector":"1"}},{"base_weights":[1.8451275E-2,1.5544034E0,-7.968885E-1,1.646527E-2,1.096748E0,-1.1421589E0,7.5661457E-1,6.769174E-1,1.4492867E0,-1.1961076E0,4.9524972E-1,3.4995833E-1,1.3251358E0,-7.997896E-3,7.3557234E-1,1.5002265E0,1.0671433E0,-1.2990279E0,-4.4559446E-1,-1.8609986E-1,9.980752E-1,3.1286653E-3,5.0068116E-1,1.2035441E0,1.5338212E0,5.749305E-3,1.1608824E-2,1.5420028E-2,1.0942714E-2,1.3800294E-2,3.5456223E-3,-9.375214E-3,-1.40448185E-2,1.5185659E-3,-5.72906E-3,-1.1497912E-2,1.4105206E-3,1.2508245E-2,-8.119417E-3,-1.2685473E-3,1.3729838E-2,6.0330383E-3,-2.477474E-3,6.724252E-3,1.3031165E-2,1.5715895E-2,7.11956E-3],"categories":[],"categories_nodes":[],"categories_segments":[],"categories_sizes":[],"default_left":[0,0,0,0,0,0,0,0,0,0,0,0,0,0,0,0,0,0,0,0,0,0,0,0,0,0,0,0,0,0,0,0,0,0,0,0,0,0,0,0,0,0,0,0,0,0,0],"id":23,"left_children":[1,3,5,-1,7,9,11,13,15,17,19,21,23,-1,25,27,29,31,33,35,37,39,41,43,45,-1,-1,-1,-1,-1,-1,-1,-1,-1,-1,-1,-1,-1,-1,-1,-1,-1,-1,-1,-1,-1,-1],"loss_changes":[5.9594995E3,6.776611E1,1.6682577E3,0E0,4.0387177E1,2.252976E2,1.3036069E2,1.1800949E1,1.339447E0,1.8966284E2,2.8225643E1,1.7314861E1,4.1325073E0,0E0,7.8747787E0,5.3125E-1,4.244257E0,8.123218E1,2.2794445E1,1.1384563E1,2.2630974E1,1.8220924E1,1.7884098E1,7.242386E0,1.4604645E0,0E0,0E0,0E0,0E0,0E0,0E0,0E0,0E0,0E0,0E0,0E0,0E0,0E0,0E0,0E0,0E0,0E0,0E0,0E0,0E0,0E0,0E0],"parents":[2147483647,0,0,1,1,2,2,4,4,5,5,6,6,7,7,8,8,9,9,10,10,11,11,12,12,14,14,15,15,16,16,17,17,18,18,19,19,20,20,21,21,22,22,23,23,24,24],"right_children":[2,4,6,-1,8,10,12,14,16,18,20,22,24,-1,26,28,30,32,34,36,38,40,42,44,46,-1,-1,-1,-1,-1,-1,-1,-1,-1,-1,-1,-1,-1,-1,-1,-1,-1,-1,-1,-1,-1,-1],"split_conditions":[1.92E0,1.14E0,2E0,1.646527E-2,5E0,2E0,5E0,2.1779194E-1,5E0,1E0,4E0,2E0,2.7333333E0,-7.997896E-3,3E0,3E0,-3.9E-1,2.92E0,2E0,-3.2666665E-1,1E1,3.44E0,5E0,6E0,7.4333334E-1,5.749305E-3,1.1608824E-2,1.5420028E-2,1.0942714E-2,1.3800294E-2,3.5456223E-3,-9.375214E-3,-1.40448185E-2,1.5185659E-3,-5.72906E-3,-1.1497912E-2,1.4105206E-3,1.2508245E-2,-8.119417E-3,-1.2685473E-3,1.3729838E-2,6.0330383E-3,-2.477474E-3,6.724252E-3,1.3031165E-2,1.5715895E-2,7.11956E-3],"split_indices":[9,9,3,0,3,4,3,15,2,3,4,2,11,0,2,4,18,9,12,18,4,11,2,3,18,0,0,0,0,0,0,0,0,0,0,0,0,0,0,0,0,0,0,0,0,0,0],"split_type":[0,0,0,0,0,0,0,0,0,0,0,0,0,0,0,0,0,0,0,0,0,0,0,0,0,0,0,0,0,0,0,0,0,0,0,0,0,0,0,0,0,0,0,0,0,0,0],"sum_hessian":[4.7567676E3,1.649154E3,3.1076135E3,1.3706514E3,2.7850275E2,2.5427458E3,5.648675E2,1.284521E2,1.5005066E2,2.4619014E3,8.0844444E1,3.3025543E2,2.3461208E2,4.424505E0,1.24027596E2,1.298198E2,2.0230858E1,2.1643645E3,2.97537E2,3.4595707E1,4.6248737E1,1.00353E2,2.2990244E2,1.5251538E2,8.209669E1,9.1731804E1,3.2295795E1,1.15169426E2,1.4650373E1,1.3407233E1,6.8236237E0,4.910134E2,1.6733511E3,5.2231373E1,2.453056E2,8.130664E0,2.6465042E1,4.0853E1,5.395738E0,9.2484665E1,7.8683295E0,2.0235054E2,2.7551903E1,2.5302914E1,1.2721247E2,7.76176E1,4.479087E0],"tree_param":{"num_deleted":"0","num_feature":"24","num_nodes":"47","size_leaf_vector":"1"}},{"base_weights":[-6.823526E-4,1.4254714E0,-6.834681E-1,1.5705177E0,5.773543E-1,-1.1553197E0,9.089839E-1,1.6105654E0,1.2554061E0,-6.121414E-1,1.366507E0,-3.964076E-1,-1.2867682E0,2.7276793E-1,1.4062971E0,1.627313E-2,1.452407E0,1.4989642E0,-2.3467429E-1,-1.826284E-1,-1.3521252E0,1.4827192E0,5.028946E-1,-4.8185143E-1,1.1236724E0,-1.3100439E0,5.687442E-1,3.62661E-1,-8.8283205E-1,1.5632007E0,1.248865E0,1.6159125E-2,1.967165E-3,1.6300315E-2,1.0200931E-2,-7.3173987E-3,1.2591934E-2,2.2768728E-3,-8.673382E-3,-1.735989E-2,-7.69308E-3,1.6379168E-2,1.1611274E-2,-1.2349087E-3,1.5010796E-2,1.3339334E-2,-5.217902E-3,4.417491E-3,1.6790815E-2,-1.3713637E-2,-5.7881563E-3,-9.439415E-3,1.0010738E-2,2.1461926E-3,6.891534E-3,-1.3399861E-3,-1.7178256E-2,1.5797129E-2,8.3807595E-3,8.816606E-3,1.3026431E-2],"categories":[],"categories_nodes":[],"categories_segments":[],"categories_sizes":[],"default_left":[0,0,0,0,0,0,0,0,0,0,0,0,0,0,0,0,0,0,0,0,0,0,0,0,0,0,0,0,0,0,0,0,0,0,0,0,0,0,0,0,0,0,0,0,0,0,0,0,0,0,0,0,0,0,0,0,0,0,0,0,0],"id":24,"left_children":[1,3,5,7,9,11,13,15,17,19,21,23,25,27,29,-1,31,33,35,37,39,41,43,45,47,49,51,53,55,57,59,-1,-1,-1,-1,-1,-1,-1,-1,-1,-1,-1,-1,-1,-1,-1,-1,-1,-1,-1,-1,-1,-1,-1,-1,-1,-1,-1,-1,-1,-1],"loss_changes":[4.5671577E3,1.858938E2,2.3842974E3,1.4334717E1,2.1049432E2,2.436167E2,2.2917767E2,6.730957E-1,5.50399E1,2.828506E1,1.2761093E1,4.7654255E1,9.08125E1,3.351608E1,8.101013E0,0E0,2.4130814E1,6.4748535E0,1.7283365E1,1.6480412E1,6.0055428E0,3.9927979E0,1.1111665E1,2.5652588E1,6.683401E0,9.15708E1,1.8297146E1,1.4217281E1,1.4373165E1,1.0691223E0,2.9614563E0,0E0,0E0,0E0,0E0,0E0,0E0,0E0,0E0,0E0,0E0,0E0,0E0,0E0,0E0,0E0,0E0,0E0,0E0,0E0,0E0,0E0,0E0,0E0,0E0,0E0,0E0,0E0,0E0,0E0,0E0],"parents":[2147483647,0,0,1,1,2,2,3,3,4,4,5,5,6,6,7,7,8,8,9,9,10,10,11,11,12,12,13,13,14,14,16,16,17,17,18,18,19,19,20,20,21,21,22,22,23,23,24,24,25,25,26,26,27,27,28,28,29,29,30,30],"right_children":[2,4,6,8,10,12,14,16,18,20,22,24,26,28,30,-1,32,34,36,38,40,42,44,46,48,50,52,54,56,58,60,-1,-1,-1,-1,-1,-1,-1,-1,-1,-1,-1,-1,-1,-1,-1,-1,-1,-1,-1,-1,-1,-1,-1,-1,-1,-1,-1,-1,-1,-1],"split_conditions":[-8.3E-1,-1.17E0,2E0,-1.43E0,3E0,2.665E0,5E0,-1.71E0,3.11E0,3.08E0,1E0,4E0,3E0,5E0,1.57E0,1.627313E-2,3.03E0,1.93E0,5E0,2.26E0,-9.2E-1,1.8966666E0,2.48E0,1.93E0,3E0,1E0,2.82E0,3E0,2.17E0,4E0,-5.2E-1,1.6159125E-2,1.967165E-3,1.6300315E-2,1.0200931E-2,-7.3173987E-3,1.2591934E-2,2.2768728E-3,-8.673382E-3,-1.735989E-2,-7.69308E-3,1.6379168E-2,1.1611274E-2,-1.2349087E-3,1.5010796E-2,1.3339334E-2,-5.217902E-3,4.417491E-3,1.6790815E-2,-1.3713637E-2,-5.7881563E-3,-9.439415E-3,1.0010738E-2,2.1461926E-3,6.891534E-3,-1.3399861E-3,-1.7178256E-2,1.5797129E-2,8.3807595E-3,8.816606E-3,1.3026431E-2],"split_indices":[14,14,3,14,3,11,3,14,5,0,4,4,4,2,12,0,5,11,3,12,14,11,11,11,2,3,5,2,12,4,14,0,0,0,0,0,0,0,0,0,0,0,0,0,0,0,0,0,0,0,0,0,0,0,0,0,0,0,0,0,0],"split_type":[0,0,0,0,0,0,0,0,0,0,0,0,0,0,0,0,0,0,0,0,0,0,0,0,0,0,0,0,0,0,0,0,0,0,0,0,0,0,0,0,0,0,0,0,0,0,0,0,0,0,0,0,0,0,0,0,0,0,0,0,0],"sum_hessian":[4.6882407E3,1.5175026E3,3.170738E3,1.295152E3,2.2235059E2,2.446193E3,7.245448E2,1.1454633E3,1.4968875E2,8.8770485E1,1.335801E2,3.6173703E2,2.084456E3,3.1855887E2,4.0598596E2,1.0273827E3,1.1808054E2,1.2865393E2,2.1034822E1,5.695726E1,3.1813223E1,1.1710497E2,1.647512E1,3.4313254E2,1.86045E1,2.0589229E3,2.5533255E1,2.962036E2,2.2355234E1,1.9886203E2,2.0712393E2,1.0422267E2,1.3857873E1,9.912061E1,2.9533321E1,1.616597E1,4.8688517E0,3.6032238E1,2.0925024E1,1.7987444E1,1.3825778E1,7.622582E1,4.0879154E1,1.0661225E1,5.8138947E0,6.687578E0,3.3644498E2,9.157011E0,9.447488E0,1.8988151E3,1.6010776E2,5.4123845E0,2.012087E1,2.0493646E2,9.126716E1,1.2397485E1,9.95775E0,1.9328215E2,5.5798817E0,2.8680988E1,1.7844295E2],"tree_param":{"num_deleted":"0","num_feature":"24","num_nodes":"61","size_leaf_vector":"1"}},{"base_weights":[-1.4217956E-3,1.4083585E0,-9.0289E-1,1.5973614E0,6.252678E-1,-1.1632141E0,6.559716E-1,1.6254121E0,1.2357153E0,1.9030339E-1,1.3505398E0,-4.5359004E-1,-1.2689284E0,1.8991017E-1,1.3317842E0,1.6279893E-2,9.619008E-1,1.3005178E0,8.732426E-4,-4.8420605E-1,3.7028262E-1,1.0297054E0,1.44586135E-2,-6.281883E-1,-7.512063E-2,-1.3319958E0,-5.333878E-1,2.794643E-1,-6.9992787E-1,1.3581629E0,1.5890513E-3,1.317076E-2,3.6659783E-3,6.2363488E-3,1.3638706E-2,9.659311E-3,-7.2544157E-3,2.7072732E-3,1.2552796E-2,1.1747546E-2,2.2188583E-3,2.331318E-3,-7.971308E-3,-6.292619E-3,2.3503478E-3,-1.1631438E-2,-1.4687839E-2,-1.5361006E-2,-3.8374646E-3,-2.996664E-3,4.098542E-3,-9.444969E-3,4.556882E-3,1.1049034E-2,1.43006705E-2],"categories":[],"categories_nodes":[],"categories_segments":[],"categories_sizes":[],"default_left":[0,0,0,0,0,0,0,0,0,0,0,0,0,0,0,0,0,0,0,0,0,0,0,0,0,0,0,0,0,0,0,0,0,0,0,0,0,0,0,0,0,0,0,0,0,0,0,0,0,0,0,0,0,0,0],"id":25,"left_children":[1,3,5,7,9,11,13,15,17,19,21,23,25,27,29,-1,31,33,-1,35,37,39,-1,41,43,45,47,49,51,53,-1,-1,-1,-1,-1,-1,-1,-1,-1,-1,-1,-1,-1,-1,-1,-1,-1,-1,-1,-1,-1,-1,-1,-1,-1],"loss_changes":[5.9637144E3,2.6989526E2,1.1623228E3,1.2941895E1,1.1252371E2,1.8344946E2,1.289594E2,7.6782227E-1,8.091446E0,2.7450306E1,2.605011E0,2.1073128E1,9.830469E1,1.9636683E1,4.959442E0,0E0,1.1503024E0,3.6218262E0,0E0,1.7404583E1,1.5333605E1,3.739132E0,0E0,3.1992332E1,1.7684793E1,4.368286E1,2.4953259E1,1.6914598E1,6.815791E0,1.3966064E0,0E0,0E0,0E0,0E0,0E0,0E0,0E0,0E0,0E0,0E0,0E0,0E0,0E0,0E0,0E0,0E0,0E0,0E0,0E0,0E0,0E0,0E0,0E0,0E0,0E0],"parents":[2147483647,0,0,1,1,2,2,3,3,4,4,5,5,6,6,7,7,8,8,9,9,10,10,11,11,12,12,13,13,14,14,16,16,17,17,19,19,20,20,21,21,23,23,24,24,25,25,26,26,27,27,28,28,29,29],"right_children":[2,4,6,8,10,12,14,16,18,20,22,24,26,28,30,-1,32,34,-1,36,38,40,-1,42,44,46,48,50,52,54,-1,-1,-1,-1,-1,-1,-1,-1,-1,-1,-1,-1,-1,-1,-1,-1,-1,-1,-1,-1,-1,-1,-1,-1,-1],"split_conditions":[2.2E0,1.55E0,2E0,1.14E0,5E0,2.68E0,5E0,4E0,2.3366666E0,1E0,7E0,1E0,1E0,1E0,7.4333334E-1,1.6279893E-2,3.03E0,3E0,8.732426E-4,2.12E0,3.34E0,2.1E0,1.44586135E-2,2.2866666E0,2.75E0,3.22E0,2.61E0,2.33E0,3.65E0,6E0,1.5890513E-3,1.317076E-2,3.6659783E-3,6.2363488E-3,1.3638706E-2,9.659311E-3,-7.2544157E-3,2.7072732E-3,1.2552796E-2,1.1747546E-2,2.2188583E-3,2.331318E-3,-7.971308E-3,-6.292619E-3,2.3503478E-3,-1.1631438E-2,-1.4687839E-2,-1.5361006E-2,-3.8374646E-3,-2.996664E-3,4.098542E-3,-9.444969E-3,4.556882E-3,1.1049034E-2,1.43006705E-2],"split_indices":[9,9,3,9,3,11,3,7,11,3,3,16,3,17,18,0,5,3,0,5,5,9,0,11,0,11,7,0,5,3,0,0,0,0,0,0,0,0,0,0,0,0,0,0,0,0,0,0,0,0,0,0,0,0,0],"split_type":[0,0,0,0,0,0,0,0,0,0,0,0,0,0,0,0,0,0,0,0,0,0,0,0,0,0,0,0,0,0,0,0,0,0,0,0,0,0,0,0,0,0,0,0,0,0,0,0,0,0,0,0,0,0,0],"sum_hessian":[4.690615E3,1.8292856E3,2.8613296E3,1.4727822E3,3.5650345E2,2.452093E3,4.092366E2,1.3635273E3,1.0925491E2,2.2364195E2,1.328615E2,3.1861685E2,2.133476E3,2.4296288E2,1.6627373E2,1.3568033E3,6.724E0,1.03293686E2,5.96123E0,4.6749226E1,1.7689273E2,3.3135643E1,9.9725845E1,2.1758096E2,1.01035866E2,1.9642449E3,1.6923126E2,2.2136993E2,2.1592937E1,1.624619E2,3.8118207E0,3.4519925E0,3.2720072E0,9.768424E0,9.352526E1,6.23924E0,4.0509983E1,1.6017967E2,1.671306E1,2.7706532E1,5.4291134E0,3.5616634E1,1.8196434E2,3.588781E1,6.5148056E1,8.833431E2,1.0809017E3,2.077272E1,1.4845854E2,4.044298E1,1.8092696E2,1.79721E1,3.6208389E0,3.9544712E1,1.2291719E2],"tree_param":{"num_deleted":"0","num_feature":"24","num_nodes":"55","size_leaf_vector":"1"}},{"base_weights":[-1.8843081E-3,1.4729141E0,-8.429287E-1,1.5990124E0,7.9362273E-1,-1.1446472E0,7.0996225E-1,1.6159351E0,1.2358848E0,9.663017E-2,1.1645083E0,-6.9463277E-1,-1.3229451E0,3.1254247E-1,1.2711854E0,1.6184777E-2,1.0457666E0,7.953229E-1,1.3776603E0,5.661557E-1,-5.3466076E-1,9.5443964E-1,1.4381347E0,-7.430576E-1,9.130052E-1,-1.3535349E0,5.6202406E-1,3.9651695E-1,-7.3676E-1,1.3195415E0,6.537754E-1,1.3834177E-2,3.5833162E-3,1.0110998E-2,2.223421E-3,1.5306319E-2,9.966763E-3,8.082384E-3,-2.1255293E-3,-9.41357E-3,4.9431645E-3,1.1621323E-2,3.6630477E-3,1.1464755E-2,1.5310767E-2,-5.2683585E-4,-8.275708E-3,1.6945178E-2,2.753322E-3,-1.3963479E-2,-6.8692565E-3,1.7833482E-2,-1.0822352E-4,2.1463681E-3,7.666661E-3,-1.0514805E-2,8.357128E-3,1.346557E-2,3.2412657E-3,1.2559611E-3,1.0870045E-2],"categories":[],"categories_nodes":[],"categories_segments":[],"categories_sizes":[],"default_left":[0,0,0,0,0,0,0,0,0,0,0,0,0,0,0,0,0,0,0,0,0,0,0,0,0,0,0,0,0,0,0,0,0,0,0,0,0,0,0,0,0,0,0,0,0,0,0,0,0,0,0,0,0,0,0,0,0,0,0,0,0],"id":26,"left_children":[1,3,5,7,9,11,13,15,17,19,21,23,25,27,29,-1,31,33,35,37,39,41,43,45,47,49,51,53,55,57,59,-1,-1,-1,-1,-1,-1,-1,-1,-1,-1,-1,-1,-1,-1,-1,-1,-1,-1,-1,-1,-1,-1,-1,-1,-1,-1,-1,-1,-1,-1],"loss_changes":[5.7695864E3,1.4343091E2,1.3887163E3,6.7521973E0,6.8772064E1,1.9812354E2,1.0722615E2,2.746582E-1,3.1298523E0,2.8058138E1,8.619385E0,5.5644684E1,1.03144775E2,2.5300331E1,5.0998535E0,0E0,1.5588274E0,2.104001E0,1.3776703E0,1.0386436E1,1.7394524E1,1.1949593E1,2.376709E-1,3.997934E1,1.0045862E1,4.8915527E1,2.0351868E1,1.7570568E1,1.1459565E1,4.517639E0,3.6362014E0,0E0,0E0,0E0,0E0,0E0,0E0,0E0,0E0,0E0,0E0,0E0,0E0,0E0,0E0,0E0,0E0,0E0,0E0,0E0,0E0,0E0,0E0,0E0,0E0,0E0,0E0,0E0,0E0,0E0,0E0],"parents":[2147483647,0,0,1,1,2,2,3,3,4,4,5,5,6,6,7,7,8,8,9,9,10,10,11,11,12,12,13,13,14,14,16,16,17,17,18,18,19,19,20,20,21,21,22,22,23,23,24,24,25,25,26,26,27,27,28,28,29,29,30,30],"right_children":[2,4,6,8,10,12,14,16,18,20,22,24,26,28,30,-1,32,34,36,38,40,42,44,46,48,50,52,54,56,58,60,-1,-1,-1,-1,-1,-1,-1,-1,-1,-1,-1,-1,-1,-1,-1,-1,-1,-1,-1,-1,-1,-1,-1,-1,-1,-1,-1,-1,-1,-1],"split_conditions":[2.06E0,1.43E0,2E0,1.14E0,3E0,2.91E0,5E0,4E0,5E0,1.86E0,8E0,5E0,2E0,5E0,7.5E-1,1.6184777E-2,6.666667E-3,2.7E0,1E0,2.85E0,4E0,-3.8333333E-1,-9.2E-1,2.03E0,7E0,1E0,2.3E0,3E0,3.25E0,7.1E-1,1E0,1.3834177E-2,3.5833162E-3,1.0110998E-2,2.223421E-3,1.5306319E-2,9.966763E-3,8.082384E-3,-2.1255293E-3,-9.41357E-3,4.9431645E-3,1.1621323E-2,3.6630477E-3,1.1464755E-2,1.5310767E-2,-5.2683585E-4,-8.275708E-3,1.6945178E-2,2.753322E-3,-1.3963479E-2,-6.8692565E-3,1.7833482E-2,-1.0822352E-4,2.1463681E-3,7.666661E-3,-1.0514805E-2,8.357128E-3,1.346557E-2,3.2412657E-3,1.2559611E-3,1.0870045E-2],"split_indices":[9,9,3,9,3,9,3,7,3,12,3,4,4,2,14,0,18,7,4,0,2,18,14,12,4,3,12,2,9,18,4,0,0,0,0,0,0,0,0,0,0,0,0,0,0,0,0,0,0,0,0,0,0,0,0,0,0,0,0,0,0],"split_type":[0,0,0,0,0,0,0,0,0,0,0,0,0,0,0,0,0,0,0,0,0,0,0,0,0,0,0,0,0,0,0,0,0,0,0,0,0,0,0,0,0,0,0,0,0,0,0,0,0,0,0,0,0,0,0,0,0,0,0,0,0],"sum_hessian":[4.6495E3,1.6882855E3,2.9612144E3,1.4228121E3,2.654734E2,2.4796873E3,4.8152722E2,1.3561611E3,6.665099E1,9.263956E1,1.7283382E2,7.050569E2,1.7746302E3,2.8281436E2,1.9871284E2,1.3483097E3,7.8514967E0,1.783602E1,4.8814972E1,5.318566E1,3.94539E1,1.0031104E2,7.252278E1,6.849624E2,2.009447E1,1.7465684E3,2.806184E1,2.6243417E2,2.038019E1,1.832253E2,1.5487551E1,4.586357E0,3.2651398E0,1.2401244E1,5.4347744E0,3.2677017E1,1.6137955E1,4.0543644E1,1.2642016E1,2.8338465E1,1.1115435E1,7.34109E1,2.6900143E1,2.0748348E1,5.177443E1,7.4882545E1,6.1007983E2,8.284226E0,1.1810242E1,1.6401359E3,1.0643255E2,8.284955E0,1.9776884E1,1.770279E2,8.540629E1,1.7257526E1,3.1226645E0,1.7804051E2,5.1847825E0,7.5602455E0,7.927305E0],"tree_param":{"num_deleted":"0","num_feature":"24","num_nodes":"61","size_leaf_vector":"1"}},{"base_weights":[7.744998E-3,1.3656921E0,-9.0079045E-1,1.5856353E0,5.9508E-1,-1.1534964E0,6.683265E-1,1.6056865E-2,1.3165001E0,2.397567E-2,8.8090324E-1,-1.2521083E0,-3.9710885E-1,3.6154208E-1,7.3149806E-1,1.370706E0,7.538174E-1,2.7971116E-1,-4.1988915E-1,9.670284E-1,2.8671885E-1,-5.6633896E-1,-1.3176541E0,-2.921004E-1,-1.3885874E0,-3.6480403E-1,5.4707694E-1,4.870357E-1,8.4190047E-1,7.7713323E-3,1.4197526E-2,1.2611629E-2,-9.2778716E-4,3.8794024E-4,9.6520595E-3,3.0032247E-3,-8.50439E-3,1.2725299E-2,8.497306E-3,-2.5586586E-3,9.3164975E-3,9.464597E-3,-6.5481053E-3,-1.1861132E-2,-1.41651E-2,1.96126E-3,-4.8057684E-3,-1.5307691E-2,-2.546074E-3,4.074214E-3,-1.7152026E-2,1.2321823E-2,3.0328669E-3,-3.88836E-3,5.946626E-3,1.2634444E-2,7.787731E-3],"categories":[],"categories_nodes":[],"categories_segments":[],"categories_sizes":[],"default_left":[0,0,0,0,0,0,0,0,0,0,0,0,0,0,0,0,0,0,0,0,0,0,0,0,0,0,0,0,0,0,0,0,0,0,0,0,0,0,0,0,0,0,0,0,0,0,0,0,0,0,0,0,0,0,0,0,0],"id":27,"left_children":[1,3,5,7,9,11,13,-1,15,17,19,21,23,25,27,29,31,33,35,37,39,41,43,45,47,49,51,53,55,-1,-1,-1,-1,-1,-1,-1,-1,-1,-1,-1,-1,-1,-1,-1,-1,-1,-1,-1,-1,-1,-1,-1,-1,-1,-1,-1,-1],"loss_changes":[5.7835015E3,3.1755078E2,1.1144712E3,5.7714844E0,6.8348434E1,1.7996484E2,7.29805E0,0E0,2.2264557E0,1.6092009E1,1.40060425E1,9.544141E1,2.8799366E1,9.445541E0,8.297043E0,1.6990509E0,5.104944E0,1.4807181E1,1.633126E1,7.639267E0,1.3100434E1,2.5840923E1,2.3708984E1,2.3551136E1,3.898613E0,1.5881595E1,8.820833E0,9.916346E0,4.8936615E0,0E0,0E0,0E0,0E0,0E0,0E0,0E0,0E0,0E0,0E0,0E0,0E0,0E0,0E0,0E0,0E0,0E0,0E0,0E0,0E0,0E0,0E0,0E0,0E0,0E0,0E0,0E0,0E0],"parents":[2147483647,0,0,1,1,2,2,3,3,4,4,5,5,6,6,8,8,9,9,10,10,11,11,12,12,13,13,14,14,15,15,16,16,17,17,18,18,19,19,20,20,21,21,22,22,23,23,24,24,25,25,26,26,27,27,28,28],"right_children":[2,4,6,8,10,12,14,-1,16,18,20,22,24,26,28,30,32,34,36,38,40,42,44,46,48,50,52,54,56,-1,-1,-1,-1,-1,-1,-1,-1,-1,-1,-1,-1,-1,-1,-1,-1,-1,-1,-1,-1,-1,-1,-1,-1,-1,-1,-1,-1],"split_conditions":[2.29E0,1.55E0,1E0,1.14E0,1E0,1E0,1.9287302E-1,1.6056865E-2,2.3033333E0,2.84E0,2.08E0,2.68E0,5E0,2.38E0,2.52E0,2.01E0,2.51E0,2.7E0,1E0,1.93E0,-3.4E-1,2.2433333E0,3.22E0,2.53E0,3.285E0,1E0,2.67E0,-5.3E-1,1E0,7.7713323E-3,1.4197526E-2,1.2611629E-2,-9.2778716E-4,3.8794024E-4,9.6520595E-3,3.0032247E-3,-8.50439E-3,1.2725299E-2,8.497306E-3,-2.5586586E-3,9.3164975E-3,9.464597E-3,-6.5481053E-3,-1.1861132E-2,-1.41651E-2,1.96126E-3,-4.8057684E-3,-1.5307691E-2,-2.546074E-3,4.074214E-3,-1.7152026E-2,1.2321823E-2,3.0328669E-3,-3.88836E-3,5.946626E-3,1.2634444E-2,7.787731E-3],"split_indices":[9,9,20,9,20,19,15,0,11,0,12,11,2,12,0,0,0,0,1,11,14,11,11,0,11,1,13,14,2,0,0,0,0,0,0,0,0,0,0,0,0,0,0,0,0,0,0,0,0,0,0,0,0,0,0,0,0],"split_type":[0,0,0,0,0,0,0,0,0,0,0,0,0,0,0,0,0,0,0,0,0,0,0,0,0,0,0,0,0,0,0,0,0,0,0,0,0,0,0,0,0,0,0,0,0,0,0,0,0,0,0,0,0,0,0,0,0],"sum_hessian":[4.685771E3,1.8781224E3,2.8076484E3,1.4602809E3,4.1784155E2,2.4184263E3,3.8922217E2,1.3544077E3,1.0587322E2,1.3973015E2,2.781114E2,2.1389158E3,2.7951056E2,6.760932E1,3.2161282E2,9.526032E1,1.0612897E1,8.8887115E1,5.084304E1,2.4235527E2,3.575612E1,1.87443E2,1.9514728E3,2.5391298E2,2.5597563E1,1.3559462E1,5.404986E1,1.0174095E2,2.1987189E2,8.55619E0,8.670414E1,6.329866E0,4.283031E0,6.655349E1,2.233363E1,1.9135756E1,3.1707285E1,6.45046E1,1.7785066E2,1.9746513E1,1.6009607E1,9.82058E0,1.7762242E2,8.428915E2,1.1085813E3,7.070898E1,1.8320401E2,2.2434723E1,3.162841E0,9.070685E0,4.488776E0,1.3121425E1,4.0928432E1,1.084786E1,9.089309E1,2.6161264E1,1.9371062E2],"tree_param":{"num_deleted":"0","num_feature":"24","num_nodes":"57","size_leaf_vector":"1"}},{"base_weights":[-2.3398984E-2,1.497633E0,-8.028757E-1,1.5937179E0,1.0064116E0,-1.1191131E0,6.7017686E-1,1.597163E-2,8.3100635E-1,6.827655E-1,1.3160219E0,-1.1615546E0,8.5521746E-1,2.2838572E-1,1.2759624E0,1.2938811E-2,1.8971462E-3,8.600275E-1,-4.2323145E-1,1.3813279E0,6.223241E-1,-1.2650545E0,-4.246875E-1,1.0476961E0,-3.9265722E-1,1.7699005E-1,1.1377419E0,1.2989643E0,8.5119136E-5,5.5057607E-3,1.1915906E-2,-1.6257357E-2,-3.3581902E-5,1.4136621E-2,4.8310715E-3,-8.645091E-3,1.2752141E-2,-7.188732E-3,-1.3451982E-2,-5.1036677E-3,6.060664E-3,3.0823874E-3,1.3084085E-2,7.358514E-3,-1.4075168E-2,-1.5637056E-3,3.2526967E-3,3.5261132E-3,1.5020963E-2,1.0161575E-2,1.3637391E-2],"categories":[],"categories_nodes":[],"categories_segments":[],"categories_sizes":[],"default_left":[0,0,0,0,0,0,0,0,0,0,0,0,0,0,0,0,0,0,0,0,0,0,0,0,0,0,0,0,0,0,0,0,0,0,0,0,0,0,0,0,0,0,0,0,0,0,0,0,0,0,0],"id":28,"left_children":[1,3,5,7,9,11,13,-1,15,17,19,21,23,25,27,-1,-1,29,31,33,35,37,39,41,43,45,47,49,-1,-1,-1,-1,-1,-1,-1,-1,-1,-1,-1,-1,-1,-1,-1,-1,-1,-1,-1,-1,-1,-1,-1],"loss_changes":[5.4334526E3,7.168652E1,1.4122393E3,2.0810547E0,2.4829498E1,2.100476E2,1.4319853E2,0E0,2.1046562E0,2.538224E1,5.0362854E0,1.857644E2,1.3160313E1,1.4345917E1,6.5744934E0,0E0,0E0,1.0662369E1,9.232994E0,2.7478638E0,1.373934E1,9.277026E1,2.7012112E1,8.514618E0,9.992309E0,1.4672035E1,4.1808853E0,2.6784058E0,0E0,0E0,0E0,0E0,0E0,0E0,0E0,0E0,0E0,0E0,0E0,0E0,0E0,0E0,0E0,0E0,0E0,0E0,0E0,0E0,0E0,0E0,0E0],"parents":[2147483647,0,0,1,1,2,2,3,3,4,4,5,5,6,6,8,8,9,9,10,10,11,11,12,12,13,13,14,14,17,17,18,18,19,19,20,20,21,21,22,22,23,23,24,24,25,25,26,26,27,27],"right_children":[2,4,6,8,10,12,14,-1,16,18,20,22,24,26,28,-1,-1,30,32,34,36,38,40,42,44,46,48,50,-1,-1,-1,-1,-1,-1,-1,-1,-1,-1,-1,-1,-1,-1,-1,-1,-1,-1,-1,-1,-1,-1,-1],"split_conditions":[1.92E0,1.14E0,2E0,4E0,5E0,3E0,5E0,1.597163E-2,3.03E0,1.82E0,5E0,1E0,1E1,5E0,7.1E-1,1.2938811E-2,1.8971462E-3,2.2433333E0,2.3E0,6E0,2.49E0,2.71E0,3.3333333E0,5E0,-2.2666667E-1,2E0,2.3E0,6E0,8.5119136E-5,5.5057607E-3,1.1915906E-2,-1.6257357E-2,-3.3581902E-5,1.4136621E-2,4.8310715E-3,-8.645091E-3,1.2752141E-2,-7.188732E-3,-1.3451982E-2,-5.1036677E-3,6.060664E-3,3.0823874E-3,1.3084085E-2,7.358514E-3,-1.4075168E-2,-1.5637056E-3,3.2526967E-3,3.5261132E-3,1.5020963E-2,1.0161575E-2,1.3637391E-2],"split_indices":[9,9,3,7,3,4,3,0,5,12,2,3,4,4,18,0,0,11,7,4,0,9,11,4,18,2,7,3,0,0,0,0,0,0,0,0,0,0,0,0,0,0,0,0,