{"learner":{"attributes":{"scikit_learn":"{\"_estimator_type\": \"classifier\"}"},"feature_names":["OLD_GPA_M6","GENDER_ENCODED","FAC_ENCODED","COUNT_F","COUNT_WIU","TERM1","TERM1_missing","avg_gpa_up_to_now","min_gpa_up_to_now","max_gpa_up_to_now","improvement_from_hs","has_F","multiple_F","low_gpa","early_warning","current_term"],"feature_types":["float","int","int","int","int","float","int","float","float","float","float","int","int","int","int","int"],"gradient_booster":{"model":{"cats":{"enc":[],"feature_segments":[],"sorted_idx":[]},"gbtree_model_param":{"num_parallel_tree":"1","num_trees":"100"},"iteration_indptr":[0,1,2,3,4,5,6,7,8,9,10,11,12,13,14,15,16,17,18,19,20,21,22,23,24,25,26,27,28,29,30,31,32,33,34,35,36,37,38,39,40,41,42,43,44,45,46,47,48,49,50,51,52,53,54,55,56,57,58,59,60,61,62,63,64,65,66,67,68,69,70,71,72,73,74,75,76,77,78,79,80,81,82,83,84,85,86,87,88,89,90,91,92,93,94,95,96,97,98,99,100],"tree_info":[0,0,0,0,0,0,0,0,0,0,0,0,0,0,0,0,0,0,0,0,0,0,0,0,0,0,0,0,0,0,0,0,0,0,0,0,0,0,0,0,0,0,0,0,0,0,0,0,0,0,0,0,0,0,0,0,0,0,0,0,0,0,0,0,0,0,0,0,0,0,0,0,0,0,0,0,0,0,0,0,0,0,0,0,0,0,0,0,0,0,0,0,0,0,0,0,0,0,0,0],"trees":[{"base_weights":[9.2817405E-3,-8.547245E-1,1.5716568E0,-1.0473542E0,2.0964168E-1,1.1212255E0,1.8639368E0,-1.0846197E-1,1.0484449E-1,1.7173043E-2,1.089518E-1,8.419829E-2,1.3182804E-1,1.8944536E-1,1.6288272E-1],"categories":[],"categories_nodes":[],"categories_segments":[],"categories_sizes":[],"default_left":[0,0,0,0,0,0,0,0,0,0,0,0,0,0,0],"id":0,"left_children":[1,3,5,7,9,11,13,-1,-1,-1,-1,-1,-1,-1,-1],"loss_changes":[8.416539E3,8.233574E2,2.9020117E2,2.6665454E2,2.0363535E1,4.710498E1,6.563965E0,0E0,0E0,0E0,0E0,0E0,0E0,0E0,0E0],"parents":[2147483647,0,0,1,1,2,2,3,3,4,4,5,5,6,6],"right_children":[2,4,6,8,10,12,14,-1,-1,-1,-1,-1,-1,-1,-1],"split_conditions":[2E0,1E0,5E0,3E0,3E0,3E0,1E0,-1.0846197E-1,1.0484449E-1,1.7173043E-2,1.089518E-1,8.419829E-2,1.3182804E-1,1.8944536E-1,1.6288272E-1],"split_indices":[3,3,3,4,4,3,4,0,0,0,0,0,0,0,0],"split_type":[0,0,0,0,0,0,0,0,0,0,0,0,0,0,0],"sum_hessian":[6.2329307E3,4.013748E3,2.2191826E3,3.3986704E3,6.150778E2,8.752202E2,1.3439625E3,3.3397683E3,5.8901943E1,5.9081647E2,2.4261345E1,3.6427957E2,5.1094064E2,1.1833127E3,1.6064972E2],"tree_param":{"num_deleted":"0","num_feature":"16","num_nodes":"15","size_leaf_vector":"1"}},{"base_weights":[1.3473236E-3,-7.834191E-1,1.4282563E0,-9.518284E-1,1.4962538E-1,9.109973E-1,1.6433423E0,-1.4564085E-1,-8.176142E-2,4.2041533E-2,-1.767239E-3,7.382906E-2,1.1179081E-1,1.3129486E-1,1.6958897E-1],"categories":[],"categories_nodes":[],"categories_segments":[],"categories_sizes":[],"default_left":[0,0,0,0,0,0,0,0,0,0,0,0,0,0,0],"id":1,"left_children":[1,3,5,7,9,11,13,-1,-1,-1,-1,-1,-1,-1,-1],"loss_changes":[6.961178E3,6.3035864E2,2.4390918E2,2.289021E2,2.7827309E1,2.240503E1,2.4800293E1,0E0,0E0,0E0,0E0,0E0,0E0,0E0,0E0],"parents":[2147483647,0,0,1,1,2,2,3,3,4,4,5,5,6,6],"right_children":[2,4,6,8,10,12,14,-1,-1,-1,-1,-1,-1,-1,-1],"split_conditions":[2E0,1E0,4E0,1E0,2E0,3E0,5E0,-1.4564085E-1,-8.176142E-2,4.2041533E-2,-1.767239E-3,7.382906E-2,1.1179081E-1,1.3129486E-1,1.6958897E-1],"split_indices":[3,3,3,2,2,3,3,0,0,0,0,0,0,0,0],"split_type":[0,0,0,0,0,0,0,0,0,0,0,0,0,0,0],"sum_hessian":[6.214503E3,4.0097085E3,2.2047944E3,3.3966177E3,6.130908E2,6.490745E2,1.5557198E3,7.115783E2,2.6850393E3,2.3355052E2,3.795403E2,3.5626852E2,2.9280603E2,2.1704268E2,1.3386771E3],"tree_param":{"num_deleted":"0","num_feature":"16","num_nodes":"15","size_leaf_vector":"1"}},{"base_weights":[-1.1822968E-3,-7.132574E-1,1.3027084E0,-8.7600017E-1,1.6063884E-1,7.9886E-1,1.5169061E0,-9.127824E-2,1.0943668E-1,6.1229326E-2,8.179433E-3,1.1894508E-1,7.12352E-2,1.21132635E-1,1.565548E-1],"categories":[],"categories_nodes":[],"categories_segments":[],"categories_sizes":[],"default_left":[0,0,0,0,0,0,0,0,0,0,0,0,0,0,0],"id":2,"left_children":[1,3,5,7,9,11,13,-1,-1,-1,-1,-1,-1,-1,-1],"loss_changes":[5.6971094E3,5.6456665E2,2.326958E2,2.4348315E2,2.216695E1,2.1070068E1,2.0692627E1,0E0,0E0,0E0,0E0,0E0,0E0,0E0,0E0],"parents":[2147483647,0,0,1,1,2,2,3,3,4,4,5,5,6,6],"right_children":[2,4,6,8,10,12,14,-1,-1,-1,-1,-1,-1,-1,-1],"split_conditions":[2E0,1E0,4E0,3E0,2.14E0,1.94E0,5E0,-9.127824E-2,1.0943668E-1,6.1229326E-2,8.179433E-3,1.1894508E-1,7.12352E-2,1.21132635E-1,1.565548E-1],"split_indices":[3,3,3,4,7,5,3,0,0,0,0,0,0,0,0],"split_type":[0,0,0,0,0,0,0,0,0,0,0,0,0,0,0],"sum_hessian":[6.1340312E3,3.9676748E3,2.1663562E3,3.3447844E3,6.2289044E2,6.4764886E2,1.5187075E3,3.284016E3,6.0768303E1,9.157047E1,5.3131995E2,1.1512055E2,5.3252826E2,2.1210637E2,1.3066011E3],"tree_param":{"num_deleted":"0","num_feature":"16","num_nodes":"15","size_leaf_vector":"1"}},{"base_weights":[4.0891347E-3,-6.363404E-1,1.2098354E0,-7.849486E-1,1.6070157E-1,8.2669073E-1,1.4617833E0,-8.201737E-2,1.0346331E-1,9.574394E-3,7.721418E-2,6.1252415E-2,9.838266E-2,1.4883156E-1,1.2650058E-1],"categories":[],"categories_nodes":[],"categories_segments":[],"categories_sizes":[],"default_left":[0,0,0,0,0,0,0,0,0,0,0,0,0,0,0],"id":3,"left_children":[1,3,5,7,9,11,13,-1,-1,-1,-1,-1,-1,-1,-1],"loss_changes":[4.668458E3,4.6781116E2,2.0124146E2,2.1416602E2,2.4603882E1,2.7473999E1,4.7160645E0,0E0,0E0,0E0,0E0,0E0,0E0,0E0,0E0],"parents":[2147483647,0,0,1,1,2,2,3,3,4,4,5,5,6,6],"right_children":[2,4,6,8,10,12,14,-1,-1,-1,-1,-1,-1,-1,-1],"split_conditions":[2E0,1E0,5E0,3E0,8.1E-1,3E0,1E0,-8.201737E-2,1.0346331E-1,9.574394E-3,7.721418E-2,6.1252415E-2,9.838266E-2,1.4883156E-1,1.2650058E-1],"split_indices":[3,3,3,4,10,3,4,0,0,0,0,0,0,0,0],"split_type":[0,0,0,0,0,0,0,0,0,0,0,0,0,0,0],"sum_hessian":[6.0436973E3,3.947476E3,2.0962212E3,3.3271462E3,6.2033E2,8.332915E2,1.2629298E3,3.2644983E3,6.2647823E1,5.6180237E2,5.8527664E1,3.547233E2,4.7856818E2,1.1070931E3,1.5583662E2],"tree_param":{"num_deleted":"0","num_feature":"16","num_nodes":"15","size_leaf_vector":"1"}},{"base_weights":[-2.1434044E-3,-5.8143204E-1,1.1152108E0,-7.212179E-1,1.541571E-1,6.5850097E-1,1.3210989E0,-1.2156051E-1,-5.932079E-2,2.200989E-2,-5.966124E-2,7.094098E-2,4.332613E-3,1.12365834E-1,1.3943093E-1],"categories":[],"categories_nodes":[],"categories_segments":[],"categories_sizes":[],"default_left":[0,0,0,0,0,0,0,0,0,0,0,0,0,0,0],"id":4,"left_children":[1,3,5,7,9,11,13,-1,-1,-1,-1,-1,-1,-1,-1],"loss_changes":[3.8268528E3,4.0047473E2,1.8894556E2,2.0635583E2,3.0953793E1,1.9675873E1,1.853125E1,0E0,0E0,0E0,0E0,0E0,0E0,0E0,0E0],"parents":[2147483647,0,0,1,1,2,2,3,3,4,4,5,5,6,6],"right_children":[2,4,6,8,10,12,14,-1,-1,-1,-1,-1,-1,-1,-1],"split_conditions":[2E0,1E0,4E0,1E0,5E0,5E0,6E0,-1.2156051E-1,-5.932079E-2,2.200989E-2,-5.966124E-2,7.094098E-2,4.332613E-3,1.12365834E-1,1.3943093E-1],"split_indices":[3,3,3,2,2,2,3,0,0,0,0,0,0,0,0],"split_type":[0,0,0,0,0,0,0,0,0,0,0,0,0,0,0],"sum_hessian":[5.91029E3,3.892642E3,2.0176478E3,3.271055E3,6.2158716E2,6.2824524E2,1.3894026E3,6.710187E2,2.6000361E3,5.7204956E2,4.9537582E1,5.800869E2,4.8158318E1,3.8025217E2,1.00915045E3],"tree_param":{"num_deleted":"0","num_feature":"16","num_nodes":"15","size_leaf_vector":"1"}},{"base_weights":[3.9763637E-3,-5.135145E-1,1.038944E0,-6.427746E-1,1.5689664E-1,5.9694594E-1,1.2452185E0,-3.889372E-2,-9.0710215E-2,5.9302177E-2,8.085579E-3,9.8738045E-2,5.0659943E-2,1.0475687E-1,1.3211572E-1],"categories":[],"categories_nodes":[],"categories_segments":[],"categories_sizes":[],"default_left":[0,0,0,0,0,0,0,0,0,0,0,0,0,0,0],"id":5,"left_children":[1,3,5,7,9,11,13,-1,-1,-1,-1,-1,-1,-1,-1],"loss_changes":[3.1270808E3,3.3740576E2,1.7669922E2,2.1861023E2,2.0844162E1,2.1411942E1,1.8518799E1,0E0,0E0,0E0,0E0,0E0,0E0,0E0,0E0],"parents":[2147483647,0,0,1,1,2,2,3,3,4,4,5,5,6,6],"right_children":[2,4,6,8,10,12,14,-1,-1,-1,-1,-1,-1,-1,-1],"split_conditions":[2E0,1E0,4E0,3.22E0,2.14E0,1.94E0,6E0,-3.889372E-2,-9.0710215E-2,5.9302177E-2,8.085579E-3,9.8738045E-2,5.0659943E-2,1.0475687E-1,1.3211572E-1],"split_indices":[3,3,3,5,7,5,3,0,0,0,0,0,0,0,0],"split_type":[0,0,0,0,0,0,0,0,0,0,0,0,0,0,0],"sum_hessian":[5.836616E3,3.8913958E3,1.9452205E3,3.2624192E3,6.2897656E2,6.201906E2,1.3250299E3,1.6654937E3,1.5969254E3,9.237422E1,5.3660236E2,1.1467804E2,5.0551254E2,3.7188898E2,9.531409E2],"tree_param":{"num_deleted":"0","num_feature":"16","num_nodes":"15","size_leaf_vector":"1"}},{"base_weights":[9.3118363E-4,-4.809117E-1,9.810757E-1,-6.638307E-2,-6.5179396E-1,1.2988162E0,8.9950526E-1,-9.710178E-3,1.1202089E-1,-7.393096E-2,-1.0228767E-3,1.303555E-1,2.2230565E-3,9.591526E-2,5.6865644E-2],"categories":[],"categories_nodes":[],"categories_segments":[],"categories_sizes":[],"default_left":[0,0,0,0,0,0,0,0,0,0,0,0,0,0,0],"id":6,"left_children":[1,3,5,7,9,11,13,-1,-1,-1,-1,-1,-1,-1,-1],"loss_changes":[2.682275E3,2.6967206E2,4.7346558E1,4.066239E1,1.5136829E2,2.2705688E0,2.8912231E1,0E0,0E0,0E0,0E0,0E0,0E0,0E0,0E0],"parents":[2147483647,0,0,1,1,2,2,3,3,4,4,5,5,6,6],"right_children":[2,4,6,8,10,12,14,-1,-1,-1,-1,-1,-1,-1,-1],"split_conditions":[1E0,2.77E0,1.64E0,4E0,1E0,9E0,1E0,-9.710178E-3,1.1202089E-1,-7.393096E-2,-1.0228767E-3,1.303555E-1,2.2230565E-3,9.591526E-2,5.6865644E-2],"split_indices":[12,0,5,4,11,4,4,0,0,0,0,0,0,0,0],"split_type":[0,0,0,0,0,0,0,0,0,0,0,0,0,0,0],"sum_hessian":[5.6774697E3,3.8066265E3,1.8708431E3,1.1115648E3,2.6950618E3,3.7912366E2,1.4917195E3,1.0844095E3,2.7155218E1,2.3714243E3,3.236373E2,3.777005E2,1.4231795E0,1.262254E3,2.2946544E2],"tree_param":{"num_deleted":"0","num_feature":"16","num_nodes":"15","size_leaf_vector":"1"}},{"base_weights":[-6.322438E-4,-4.5004335E-1,9.1807777E-1,-1.4946859E-1,-6.731992E-1,5.524871E-1,1.1948354E0,4.9071327E-2,-2.2398187E-2,-7.479765E-2,8.228142E-3,3.565748E-2,7.056385E-2,1.2255938E-1,9.6984826E-2],"categories":[],"categories_nodes":[],"categories_segments":[],"categories_sizes":[],"default_left":[0,0,0,0,0,0,0,0,0,0,0,0,0,0,0],"id":7,"left_children":[1,3,5,7,9,11,13,-1,-1,-1,-1,-1,-1,-1,-1],"loss_changes":[2.3048723E3,2.5134229E2,1.8488037E2,7.636436E1,1.2158447E2,2.3510056E1,6.028076E0,0E0,0E0,0E0,0E0,0E0,0E0,0E0,0E0],"parents":[2147483647,0,0,1,1,2,2,3,3,4,4,5,5,6,6],"right_children":[2,4,6,8,10,12,14,-1,-1,-1,-1,-1,-1,-1,-1],"split_conditions":[2E0,3.05E0,5E0,2.14E0,1E0,3E0,1E0,4.9071327E-2,-2.2398187E-2,-7.479765E-2,8.228142E-3,3.565748E-2,7.056385E-2,1.2255938E-1,9.6984826E-2],"split_indices":[3,7,3,5,3,3,4,0,0,0,0,0,0,0,0],"split_type":[0,0,0,0,0,0,0,0,0,0,0,0,0,0,0],"sum_hessian":[5.580447E3,3.7476807E3,1.8327661E3,1.5975569E3,2.1501235E3,7.909435E2,1.0418226E3,1.6597708E2,1.4315798E3,1.9564813E3,1.9364227E2,3.484862E2,4.424573E2,9.126108E2,1.2921178E2],"tree_param":{"num_deleted":"0","num_feature":"16","num_nodes":"15","size_leaf_vector":"1"}},{"base_weights":[-1.3800384E-3,-4.132751E-1,8.6868906E-1,-5.2523207E-2,-5.655257E-1,5.293766E-1,1.1378971E0,5.603543E-2,-1.1365049E-2,-5.9780933E-2,1.0486847E-1,8.626308E-2,4.5085207E-2,1.1709034E-1,9.164276E-2],"categories":[],"categories_nodes":[],"categories_segments":[],"categories_sizes":[],"default_left":[0,0,0,0,0,0,0,0,0,0,0,0,0,0,0],"id":8,"left_children":[1,3,5,7,9,11,13,-1,-1,-1,-1,-1,-1,-1,-1],"loss_changes":[1.960705E3,2.0391718E2,1.5996997E2,4.1390514E1,1.3669751E2,2.0010574E1,6.0855713E0,0E0,0E0,0E0,0E0,0E0,0E0,0E0,0E0],"parents":[2147483647,0,0,1,1,2,2,3,3,4,4,5,5,6,6],"right_children":[2,4,6,8,10,12,14,-1,-1,-1,-1,-1,-1,-1,-1],"split_conditions":[2E0,2.77E0,5E0,2.12E0,3E0,1.94E0,1E0,5.603543E-2,-1.1365049E-2,-5.9780933E-2,1.0486847E-1,8.626308E-2,4.5085207E-2,1.1709034E-1,9.164276E-2],"split_indices":[3,0,3,5,4,5,4,0,0,0,0,0,0,0,0],"split_type":[0,0,0,0,0,0,0,0,0,0,0,0,0,0,0],"sum_hessian":[5.469064E3,3.71221E3,1.7568538E3,1.1021215E3,2.6100886E3,7.7854047E2,9.783133E2,9.921362E1,1.0029078E3,2.5595286E3,5.0560005E1,1.4656036E2,6.319801E2,8.476926E2,1.306207E2],"tree_param":{"num_deleted":"0","num_feature":"16","num_nodes":"15","size_leaf_vector":"1"}},{"base_weights":[1.3673619E-3,-3.73304E-1,8.19076E-1,-4.741419E-1,1.21319234E-1,4.8482618E-1,1.0897183E0,-5.066025E-2,1.0711008E-1,7.1824263E-3,6.941361E-2,2.9586047E-2,6.304322E-2,1.1296447E-1,8.294576E-2],"categories":[],"categories_nodes":[],"categories_segments":[],"categories_sizes":[],"default_left":[0,0,0,0,0,0,0,0,0,0,0,0,0,0,0],"id":9,"left_children":[1,3,5,7,9,11,13,-1,-1,-1,-1,-1,-1,-1,-1],"loss_changes":[1.6325361E3,1.8231949E2,1.5093799E2,1.5280792E2,1.7517382E1,2.0475494E1,8.668823E0,0E0,0E0,0E0,0E0,0E0,0E0,0E0,0E0],"parents":[2147483647,0,0,1,1,2,2,3,3,4,4,5,5,6,6],"right_children":[2,4,6,8,10,12,14,-1,-1,-1,-1,-1,-1,-1,-1],"split_conditions":[2E0,1E0,5E0,3E0,8.6E-1,3E0,1E0,-5.066025E-2,1.0711008E-1,7.1824263E-3,6.941361E-2,2.9586047E-2,6.304322E-2,1.1296447E-1,8.294576E-2],"split_indices":[3,3,3,4,10,3,4,0,0,0,0,0,0,0,0],"split_type":[0,0,0,0,0,0,0,0,0,0,0,0,0,0,0],"sum_hessian":[5.326609E3,3.6532468E3,1.6733619E3,3.034625E3,6.1862177E2,7.4994867E2,9.234133E2,2.9728472E3,6.1777782E1,5.704562E2,4.8165607E1,3.2769803E2,4.2225064E2,7.976987E2,1.2571458E2],"tree_param":{"num_deleted":"0","num_feature":"16","num_nodes":"15","size_leaf_vector":"1"}},{"base_weights":[8.441642E-3,-2.8343278E-1,8.995368E-1,-4.239346E-1,1.6093342E-1,5.791304E-1,1.0515109E0,-8.88732E-2,-3.1030292E-2,3.5245124E-2,3.8392076E-3,6.2970735E-2,2.8852236E-3,8.414961E-2,1.0905974E-1],"categories":[],"categories_nodes":[],"categories_segments":[],"categories_sizes":[],"default_left":[0,0,0,0,0,0,0,0,0,0,0,0,0,0,0],"id":10,"left_children":[1,3,5,7,9,11,13,-1,-1,-1,-1,-1,-1,-1,-1],"loss_changes":[1.3537925E3,2.4486624E2,6.192627E1,1.5707587E2,2.2109003E1,1.15429535E1,6.2227173E0,0E0,0E0,0E0,0E0,0E0,0E0,0E0,0E0],"parents":[2147483647,0,0,1,1,2,2,3,3,4,4,5,5,6,6],"right_children":[2,4,6,8,10,12,14,-1,-1,-1,-1,-1,-1,-1,-1],"split_conditions":[3E0,1E0,5E0,1E0,2.52E0,5E0,6E0,-8.88732E-2,-3.1030292E-2,3.5245124E-2,3.8392076E-3,6.2970735E-2,2.8852236E-3,8.414961E-2,1.0905974E-1],"split_indices":[3,3,3,2,7,2,3,0,0,0,0,0,0,0,0],"split_type":[0,0,0,0,0,0,0,0,0,0,0,0,0,0,0],"sum_hessian":[5.2031543E3,3.919892E3,1.2832621E3,2.9782583E3,9.416339E2,4.143985E2,8.6886365E2,5.837352E2,2.394523E3,3.6667984E2,5.7495404E2,3.793843E2,3.5014164E1,1.3986821E2,7.289954E2],"tree_param":{"num_deleted":"0","num_feature":"16","num_nodes":"15","size_leaf_vector":"1"}},{"base_weights":[4.4393665E-3,-3.1114903E-1,7.34084E-1,-4.6904474E-2,-5.184371E-1,4.3270347E-1,1.0092732E0,-8.339174E-3,9.208884E-2,-1.4944001E-2,-6.257758E-2,4.7542717E-2,-9.396079E-3,1.04480006E-1,7.7943474E-2],"categories":[],"categories_nodes":[],"categories_segments":[],"categories_sizes":[],"default_left":[0,0,0,0,0,0,0,0,0,0,0,0,0,0,0],"id":11,"left_children":[1,3,5,7,9,11,13,-1,-1,-1,-1,-1,-1,-1,-1],"loss_changes":[1.1731139E3,1.9477509E2,1.27137146E2,5.5322544E1,7.883954E1,1.6603577E1,5.744873E0,0E0,0E0,0E0,0E0,0E0,0E0,0E0,0E0],"parents":[2147483647,0,0,1,1,2,2,3,3,4,4,5,5,6,6],"right_children":[2,4,6,8,10,12,14,-1,-1,-1,-1,-1,-1,-1,-1],"split_conditions":[2E0,3.05E0,5E0,3E0,2.83E0,5E0,1E0,-8.339174E-3,9.208884E-2,-1.4944001E-2,-6.257758E-2,4.7542717E-2,-9.396079E-3,1.04480006E-1,7.7943474E-2],"split_indices":[3,7,3,4,0,2,4,0,0,0,0,0,0,0,0],"split_type":[0,0,0,0,0,0,0,0,0,0,0,0,0,0,0],"sum_hessian":[5.0925806E3,3.5553726E3,1.5372083E3,1.5634984E3,1.991874E3,7.3491705E2,8.022912E2,1.5075743E3,5.5924015E1,4.49393E2,1.5424811E3,6.79863E2,5.5054077E1,6.9180975E2,1.1048145E2],"tree_param":{"num_deleted":"0","num_feature":"16","num_nodes":"15","size_leaf_vector":"1"}},{"base_weights":[6.6098236E-3,-2.3440666E-1,8.1208414E-1,-3.6149108E-1,1.5963022E-1,5.600053E-1,1.0188063E0,-8.4427655E-2,-2.4849853E-2,2.021346E-2,-3.0361587E-2,6.130318E-2,1.4709956E-3,1.062088E-1,7.3823035E-2],"categories":[],"categories_nodes":[],"categories_segments":[],"categories_sizes":[],"default_left":[0,0,0,0,0,0,0,0,0,0,0,0,0,0,0],"id":12,"left_children":[1,3,5,7,9,11,13,-1,-1,-1,-1,-1,-1,-1,-1],"loss_changes":[9.7063074E2,1.9276733E2,5.9434753E1,1.585433E2,1.85538E1,1.5057358E1,6.8841553E0,0E0,0E0,0E0,0E0,0E0,0E0,0E0,0E0],"parents":[2147483647,0,0,1,1,2,2,3,3,4,4,5,5,6,6],"right_children":[2,4,6,8,10,12,14,-1,-1,-1,-1,-1,-1,-1,-1],"split_conditions":[3E0,1E0,6E0,1E0,5E0,5E0,1E0,-8.4427655E-2,-2.4849853E-2,2.021346E-2,-3.0361587E-2,6.130318E-2,1.4709956E-3,1.062088E-1,7.3823035E-2],"split_indices":[3,3,3,2,2,2,4,0,0,0,0,0,0,0,0],"split_type":[0,0,0,0,0,0,0,0,0,0,0,0,0,0,0],"sum_hessian":[4.997853E3,3.8473472E3,1.150506E3,2.9091677E3,9.3817944E2,5.200553E2,6.3045074E2,5.505121E2,2.3586555E3,8.598491E2,7.8330376E1,4.7385196E2,4.6203346E1,5.437816E2,8.666912E1],"tree_param":{"num_deleted":"0","num_feature":"16","num_nodes":"15","size_leaf_vector":"1"}},{"base_weights":[-1.8496602E-3,-2.2866905E-1,7.772793E-1,-1.0887054E-1,-5.442294E-1,4.5283255E-1,9.4885904E-1,5.2643497E-2,-1.5135153E-2,-6.1923828E-2,1.529964E-2,6.986687E-2,2.8014312E-2,1.1236548E-1,8.837638E-2],"categories":[],"categories_nodes":[],"categories_segments":[],"categories_sizes":[],"default_left":[0,0,0,0,0,0,0,0,0,0,0,0,0,0,0],"id":13,"left_children":[1,3,5,7,9,11,13,-1,-1,-1,-1,-1,-1,-1,-1],"loss_changes":[8.683365E2,1.4380911E2,6.124579E1,7.45598E1,5.484897E1,1.6155045E1,7.2421265E0,0E0,0E0,0E0,0E0,0E0,0E0,0E0,0E0],"parents":[2147483647,0,0,1,1,2,2,3,3,4,4,5,5,6,6],"right_children":[2,4,6,8,10,12,14,-1,-1,-1,-1,-1,-1,-1,-1],"split_conditions":[3E0,3.42E0,5E0,2.03E0,1E0,-4.2E-1,1.64E0,5.2643497E-2,-1.5135153E-2,-6.1923828E-2,1.529964E-2,6.986687E-2,2.8014312E-2,1.1236548E-1,8.837638E-2],"split_indices":[3,5,3,5,3,10,5,0,0,0,0,0,0,0,0],"split_type":[0,0,0,0,0,0,0,0,0,0,0,0,0,0,0],"sum_hessian":[4.9115796E3,3.8046729E3,1.1069067E3,2.7587087E3,1.045964E3,3.841472E2,7.227596E2,1.7219098E2,2.5865178E3,9.4446814E2,1.0149584E2,1.572477E2,2.2689949E2,1.917107E2,5.310489E2],"tree_param":{"num_deleted":"0","num_feature":"16","num_nodes":"15","size_leaf_vector":"1"}},{"base_weights":[1.4756164E-2,-2.1244688E-1,5.948455E-1,5.5529352E-2,-3.5391796E-1,1.0125552E0,5.1708066E-1,6.726032E-2,-8.930769E-4,-3.836682E-2,9.710289E-2,1.0251265E-1,-6.035602E-2,5.908149E-2,1.4853738E-2],"categories":[],"categories_nodes":[],"categories_segments":[],"categories_sizes":[],"default_left":[0,0,0,0,0,0,0,0,0,0,0,0,0,0,0],"id":14,"left_children":[1,3,5,7,9,11,13,-1,-1,-1,-1,-1,-1,-1,-1],"loss_changes":[6.351853E2,1.3130775E2,4.3535034E1,4.763517E1,8.971854E1,4.9224854E0,3.1040771E1,0E0,0E0,0E0,0E0,0E0,0E0,0E0,0E0],"parents":[2147483647,0,0,1,1,2,2,3,3,4,4,5,5,6,6],"right_children":[2,4,6,8,10,12,14,-1,-1,-1,-1,-1,-1,-1,-1],"split_conditions":[1E0,2.83E0,1.55E0,2.03E0,3E0,9E0,1E0,6.726032E-2,-8.930769E-4,-3.836682E-2,9.710289E-2,1.0251265E-1,-6.035602E-2,5.908149E-2,1.4853738E-2],"split_indices":[12,0,5,0,4,4,4,0,0,0,0,0,0,0,0],"split_type":[0,0,0,0,0,0,0,0,0,0,0,0,0,0,0],"sum_hessian":[4.8174243E3,3.4620715E3,1.3553527E3,1.196415E3,2.2656565E3,2.1083614E2,1.1445166E3,1.12265755E2,1.0841493E3,2.2165957E3,4.9060856E1,2.0957164E2,1.2645006E0,9.532061E2,1.9131046E2],"tree_param":{"num_deleted":"0","num_feature":"16","num_nodes":"15","size_leaf_vector":"1"}},{"base_weights":[1.5432535E-3,-2.9392084E-1,4.3128636E-1,-7.604169E-1,-1.8998271E-1,1.5778802E-1,5.60722E-1,1.5927716E-1,-7.9870984E-2,1.2340529E-2,-2.7803767E-2,4.0023904E-2,1.0404072E-3,9.5893405E-2,4.792015E-2],"categories":[],"categories_nodes":[],"categories_segments":[],"categories_sizes":[],"default_left":[0,0,0,0,0,0,0,0,0,0,0,0,0,0,0],"id":15,"left_children":[1,3,5,7,9,11,13,-1,-1,-1,-1,-1,-1,-1,-1],"loss_changes":[6.013029E2,1.3592162E2,6.821304E1,4.731781E1,6.3400543E1,2.2192621E1,4.2040985E1,0E0,0E0,0E0,0E0,0E0,0E0,0E0,0E0],"parents":[2147483647,0,0,1,1,2,2,3,3,4,4,5,5,6,6],"right_children":[2,4,6,8,10,12,14,-1,-1,-1,-1,-1,-1,-1,-1],"split_conditions":[1E0,1E0,1E0,-9.3E-1,2.61E0,2E0,1.64E0,1.5927716E-1,-7.9870984E-2,1.2340529E-2,-2.7803767E-2,4.0023904E-2,1.0404072E-3,9.5893405E-2,4.792015E-2],"split_indices":[11,2,12,10,0,2,5,0,0,0,0,0,0,0,0],"split_type":[0,0,0,0,0,0,0,0,0,0,0,0,0,0,0],"sum_hessian":[4.733653E3,2.8052542E3,1.9283987E3,5.0999112E2,2.2952632E3,6.201777E2,1.308221E3,7.5160823E0,5.0247504E2,5.0336905E2,1.791894E3,2.3382043E2,3.8635727E2,2.2047572E2,1.0877452E3],"tree_param":{"num_deleted":"0","num_feature":"16","num_nodes":"15","size_leaf_vector":"1"}},{"base_weights":[4.142943E-3,-1.463667E-1,7.854037E-1,-2.6460257E-1,1.3745366E-1,5.435866E-1,9.071858E-1,-6.846019E-2,-1.7327385E-2,1.7937101E-2,-3.0049318E-2,6.4697444E-2,-3.1737552E-3,9.5248215E-2,6.379445E-2],"categories":[],"categories_nodes":[],"categories_segments":[],"categories_sizes":[],"default_left":[0,0,0,0,0,0,0,0,0,0,0,0,0,0,0],"id":16,"left_children":[1,3,5,7,9,11,13,-1,-1,-1,-1,-1,-1,-1,-1],"loss_changes":[5.4629144E2,1.3075772E2,2.160672E1,1.053736E2,2.10956E1,1.5119644E1,5.460907E0,0E0,0E0,0E0,0E0,0E0,0E0,0E0,0E0],"parents":[2147483647,0,0,1,1,2,2,3,3,4,4,5,5,6,6],"right_children":[2,4,6,8,10,12,14,-1,-1,-1,-1,-1,-1,-1,-1],"split_conditions":[4E0,1E0,6E0,1E0,5E0,1E0,1E0,-6.846019E-2,-1.7327385E-2,1.7937101E-2,-3.0049318E-2,6.4697444E-2,-3.1737552E-3,9.5248215E-2,6.379445E-2],"split_indices":[3,3,3,2,2,4,4,0,0,0,0,0,0,0,0],"split_type":[0,0,0,0,0,0,0,0,0,0,0,0,0,0,0],"sum_hessian":[4.6438604E3,3.894415E3,7.494452E2,2.7492014E3,1.1452137E3,2.5284532E2,4.9659982E2,4.898768E2,2.2593245E3,1.0457153E3,9.949848E1,2.1422397E2,3.862135E1,4.2291257E2,7.368726E1],"tree_param":{"num_deleted":"0","num_feature":"16","num_nodes":"15","size_leaf_vector":"1"}},{"base_weights":[2.74514E-3,-1.3612029E-1,7.5708073E-1,-2.5148267E-1,1.3802244E-1,5.0549406E-1,8.866071E-1,-6.89879E-2,-1.5908498E-2,1.7576333E-2,-2.5119469E-2,6.357278E-2,1.2695904E-2,9.3363516E-2,6.1107654E-2],"categories":[],"categories_nodes":[],"categories_segments":[],"categories_sizes":[],"default_left":[0,0,0,0,0,0,0,0,0,0,0,0,0,0,0],"id":17,"left_children":[1,3,5,7,9,11,13,-1,-1,-1,-1,-1,-1,-1,-1],"loss_changes":[4.7720633E2,1.21710884E2,2.2631927E1,1.095919E2,1.6792257E1,1.1900562E1,5.470642E0,0E0,0E0,0E0,0E0,0E0,0E0,0E0,0E0],"parents":[2147483647,0,0,1,1,2,2,3,3,4,4,5,5,6,6],"right_children":[2,4,6,8,10,12,14,-1,-1,-1,-1,-1,-1,-1,-1],"split_conditions":[4E0,1E0,6E0,1E0,5E0,1.5E-1,1E0,-6.89879E-2,-1.5908498E-2,1.7576333E-2,-2.5119469E-2,6.357278E-2,1.2695904E-2,9.3363516E-2,6.1107654E-2],"split_indices":[3,3,3,2,2,10,4,0,0,0,0,0,0,0,0],"split_type":[0,0,0,0,0,0,0,0,0,0,0,0,0,0,0],"sum_hessian":[4.5536357E3,3.846377E3,7.07259E2,2.7072278E3,1.1391493E3,2.4203767E2,4.652213E2,4.7013354E2,2.2370942E3,1.0389543E3,1.0019498E2,1.7957579E2,6.2461876E1,3.9535318E2,6.98681E1],"tree_param":{"num_deleted":"0","num_feature":"16","num_nodes":"15","size_leaf_vector":"1"}},{"base_weights":[1.4309614E-2,-1.0706269E-1,7.10085E-1,1.2475009E-1,-2.3121162E-1,4.6534446E-1,8.34829E-1,1.798865E-2,-2.3991426E-2,-2.5711596E-2,1.0789009E-1,5.7761807E-2,-1.594061E-2,8.8888146E-2,5.318309E-2],"categories":[],"categories_nodes":[],"categories_segments":[],"categories_sizes":[],"default_left":[0,0,0,0,0,0,0,0,0,0,0,0,0,0,0],"id":18,"left_children":[1,3,5,7,9,11,13,-1,-1,-1,-1,-1,-1,-1,-1],"loss_changes":[3.8104938E2,1.1060285E2,2.0072937E1,2.6999107E1,8.5204956E1,1.6122036E1,6.7772827E0,0E0,0E0,0E0,0E0,0E0,0E0,0E0,0E0],"parents":[2147483647,0,0,1,1,2,2,3,3,4,4,5,5,6,6],"right_children":[2,4,6,8,10,12,14,-1,-1,-1,-1,-1,-1,-1,-1],"split_conditions":[4E0,2.77E0,6E0,5E0,5E0,1E0,1E0,1.798865E-2,-2.3991426E-2,-2.5711596E-2,1.0789009E-1,5.7761807E-2,-1.594061E-2,8.8888146E-2,5.318309E-2],"split_indices":[3,0,3,2,4,4,4,0,0,0,0,0,0,0,0],"split_type":[0,0,0,0,0,0,0,0,0,0,0,0,0,0,0],"sum_hessian":[4.510344E3,3.8411357E3,6.6920844E2,1.339673E3,2.5014626E3,2.275327E2,4.4167575E2,1.1641611E3,1.7551178E2,2.4537495E3,4.7713272E1,1.9293578E2,3.459694E1,3.731713E2,6.850447E1],"tree_param":{"num_deleted":"0","num_feature":"16","num_nodes":"15","size_leaf_vector":"1"}},{"base_weights":[-6.521752E-3,-1.2298492E-1,6.868157E-1,2.2835754E-2,-3.7603077E-1,4.259214E-1,8.2208645E-1,-4.2884923E-3,3.0386776E-2,-4.5549665E-2,1.2093916E-2,9.5462196E-2,3.3041086E-2,8.800074E-2,4.926561E-2],"categories":[],"categories_nodes":[],"categories_segments":[],"categories_sizes":[],"default_left":[0,0,0,0,0,0,0,0,0,0,0,0,0,0,0],"id":19,"left_children":[1,3,5,7,9,11,13,-1,-1,-1,-1,-1,-1,-1,-1],"loss_changes":[3.5716818E2,1.39748E2,2.2100037E1,4.4404594E1,5.4734116E1,1.0757683E1,7.539459E0,0E0,0E0,0E0,0E0,0E0,0E0,0E0,0E0],"parents":[2147483647,0,0,1,1,2,2,3,3,4,4,5,5,6,6],"right_children":[2,4,6,8,10,12,14,-1,-1,-1,-1,-1,-1,-1,-1],"split_conditions":[4E0,3.25E0,6E0,4E0,1E0,-1.05E0,1E0,-4.2884923E-3,3.0386776E-2,-4.5549665E-2,1.2093916E-2,9.5462196E-2,3.3041086E-2,8.800074E-2,4.926561E-2],"split_indices":[3,5,3,2,3,10,4,0,0,0,0,0,0,0,0],"split_type":[0,0,0,0,0,0,0,0,0,0,0,0,0,0,0],"sum_hessian":[4.4211836E3,3.7860461E3,6.3513745E2,2.4024917E3,1.3835546E3,2.1828458E2,4.168529E2,1.9478298E3,4.5466187E2,1.1928934E3,1.906611E2,3.2023415E1,1.8626117E2,3.5309918E2,6.37537E1],"tree_param":{"num_deleted":"0","num_feature":"16","num_nodes":"15","size_leaf_vector":"1"}},{"base_weights":[-7.93826E-3,-1.3193385E-1,5.315748E-1,1.8174522E-1,-1.9986011E-1,3.0430672E-1,7.8204113E-1,7.000872E-2,1.2825735E-2,-2.8903598E-2,2.991587E-3,3.731301E-2,-3.8341034E-2,8.496237E-2,4.9450003E-2],"categories":[],"categories_nodes":[],"categories_segments":[],"categories_sizes":[],"default_left":[0,0,0,0,0,0,0,0,0,0,0,0,0,0,0],"id":20,"left_children":[1,3,5,7,9,11,13,-1,-1,-1,-1,-1,-1,-1,-1],"loss_changes":[2.9137915E2,7.549733E1,4.6095993E1,1.7402828E1,5.9670036E1,2.0419094E1,7.0923004E0,0E0,0E0,0E0,0E0,0E0,0E0,0E0,0E0],"parents":[2147483647,0,0,1,1,2,2,3,3,4,4,5,5,6,6],"right_children":[2,4,6,8,10,12,14,-1,-1,-1,-1,-1,-1,-1,-1],"split_conditions":[3E0,2.52E0,6E0,2.03E0,3E0,5E0,2.4E-1,7.000872E-2,1.2825735E-2,-2.8903598E-2,2.991587E-3,3.731301E-2,-3.8341034E-2,8.496237E-2,4.9450003E-2],"split_indices":[3,7,3,0,2,2,10,0,0,0,0,0,0,0,0],"split_type":[0,0,0,0,0,0,0,0,0,0,0,0,0,0,0],"sum_hessian":[4.3535747E3,3.5405986E3,8.1297577E2,6.2993304E2,2.9106655E3,4.2738776E2,3.85588E2,5.779196E1,5.721411E2,2.0966858E3,8.139799E2,3.8892358E2,3.846415E1,3.1062515E2,7.496286E1],"tree_param":{"num_deleted":"0","num_feature":"16","num_nodes":"15","size_leaf_vector":"1"}},{"base_weights":[-4.2214515E-3,-1.049828E-1,6.382589E-1,9.5518045E-3,-3.0546892E-1,3.867694E-1,7.863164E-1,-1.2833256E-3,7.999025E-2,-3.8253613E-2,1.5993392E-2,4.9843468E-2,-2.2721514E-2,8.429605E-2,4.964448E-2],"categories":[],"categories_nodes":[],"categories_segments":[],"categories_sizes":[],"default_left":[0,0,0,0,0,0,0,0,0,0,0,0,0,0,0],"id":21,"left_children":[1,3,5,7,9,11,13,-1,-1,-1,-1,-1,-1,-1,-1],"loss_changes":[2.786914E2,8.5453766E1,2.1427109E1,4.1927864E1,4.859015E1,1.5075836E1,5.597412E0,0E0,0E0,0E0,0E0,0E0,0E0,0E0,0E0],"parents":[2147483647,0,0,1,1,2,2,3,3,4,4,5,5,6,6],"right_children":[2,4,6,8,10,12,14,-1,-1,-1,-1,-1,-1,-1,-1],"split_conditions":[4E0,3.25E0,6E0,5E0,1E0,1E0,1E0,-1.2833256E-3,7.999025E-2,-3.8253613E-2,1.5993392E-2,4.9843468E-2,-2.2721514E-2,8.429605E-2,4.964448E-2],"split_indices":[3,5,3,4,3,4,4,0,0,0,0,0,0,0,0],"split_type":[0,0,0,0,0,0,0,0,0,0,0,0,0,0,0],"sum_hessian":[4.302931E3,3.7203054E3,5.826256E2,2.3682905E3,1.3520151E3,2.1723836E2,3.653873E2,2.3040176E3,6.4272804E1,1.160091E3,1.919242E2,1.8396828E2,3.3270077E1,3.0406213E2,6.132514E1],"tree_param":{"num_deleted":"0","num_feature":"16","num_nodes":"15","size_leaf_vector":"1"}},{"base_weights":[7.7958433E-3,-7.565374E-2,5.754121E-1,-4.12952E-1,-2.575215E-2,3.5207012E-1,7.171671E-1,-5.3457886E-2,4.3957528E-2,2.2363055E-3,-4.7708135E-2,9.276901E-2,2.4892066E-2,9.549897E-2,6.292367E-2],"categories":[],"categories_nodes":[],"categories_segments":[],"categories_sizes":[],"default_left":[0,0,0,0,0,0,0,0,0,0,0,0,0,0,0],"id":22,"left_children":[1,3,5,7,9,11,13,-1,-1,-1,-1,-1,-1,-1,-1],"loss_changes":[2.0301321E2,6.2883957E1,1.7139603E1,5.0162704E1,7.072081E1,1.2549864E1,6.406372E0,0E0,0E0,0E0,0E0,0E0,0E0,0E0,0E0],"parents":[2147483647,0,0,1,1,2,2,3,3,4,4,5,5,6,6],"right_children":[2,4,6,8,10,12,14,-1,-1,-1,-1,-1,-1,-1,-1],"split_conditions":[4E0,1E0,6E0,1E0,5E0,-1.05E0,1.64E0,-5.3457886E-2,4.3957528E-2,2.2363055E-3,-4.7708135E-2,9.276901E-2,2.4892066E-2,9.549897E-2,6.292367E-2],"split_indices":[3,2,3,3,2,10,5,0,0,0,0,0,0,0,0],"split_type":[0,0,0,0,0,0,0,0,0,0,0,0,0,0,0],"sum_hessian":[4.2840127E3,3.7356704E3,5.483426E2,4.8050858E2,3.2551619E3,2.1425572E2,3.3408685E2,4.2084164E2,5.9666927E1,2.9424268E3,3.127351E2,3.1344702E1,1.8291103E2,8.7518234E1,2.4656862E2],"tree_param":{"num_deleted":"0","num_feature":"16","num_nodes":"15","size_leaf_vector":"1"}},{"base_weights":[1.2620913E-2,-1.394573E-1,2.518972E-1,-1.6561025E-1,9.5807153E-1,7.979784E-1,2.0217325E-1,-5.1361746E-3,-4.0171083E-2,1.1724949E-1,-7.224314E-2,8.161363E-2,-5.7893496E-2,2.5720468E-2,-5.8685034E-3],"categories":[],"categories_nodes":[],"categories_segments":[],"categories_sizes":[],"default_left":[0,0,0,0,0,0,0,0,0,0,0,0,0,0,0],"id":23,"left_children":[1,3,5,7,9,11,13,-1,-1,-1,-1,-1,-1,-1,-1],"loss_changes":[1.5426659E2,7.455993E1,4.457081E1,6.8293396E1,2.2638798E1,3.9014206E0,2.170964E1,0E0,0E0,0E0,0E0,0E0,0E0,0E0,0E0],"parents":[2147483647,0,0,1,1,2,2,3,3,4,4,5,5,6,6],"right_children":[2,4,6,8,10,12,14,-1,-1,-1,-1,-1,-1,-1,-1],"split_conditions":[1E0,3E0,1.55E0,3.38E0,1E1,6E0,1E0,-5.1361746E-3,-4.0171083E-2,1.1724949E-1,-7.224314E-2,8.161363E-2,-5.7893496E-2,2.5720468E-2,-5.8685034E-3],"split_indices":[11,4,5,5,4,4,4,0,0,0,0,0,0,0,0],"split_type":[0,0,0,0,0,0,0,0,0,0,0,0,0,0,0],"sum_hessian":[4.237443E3,2.591051E3,1.6463922E3,2.5315752E3,5.9475677E1,1.3614656E2,1.5102456E3,1.7068514E3,8.247238E2,5.3013702E1,6.4619737E0,1.3477647E2,1.3700813E0,1.2471559E3,2.630897E2],"tree_param":{"num_deleted":"0","num_feature":"16","num_nodes":"15","size_leaf_vector":"1"}},{"base_weights":[-5.144295E-3,-7.296095E-2,6.402938E-1,4.0579808E-1,-1.0524688E-1,9.488358E-2,5.4734206E-1,8.446022E-2,2.857834E-2,-1.8305056E-2,7.6726004E-3,6.0303595E-2,9.174923E-3],"categories":[],"categories_nodes":[],"categories_segments":[],"categories_sizes":[],"default_left":[0,0,0,0,0,0,0,0,0,0,0,0,0],"id":24,"left_children":[1,3,5,7,9,-1,11,-1,-1,-1,-1,-1,-1],"loss_changes":[1.8270206E2,5.8425495E1,1.086261E1,1.2335953E1,5.0123165E1,0E0,7.743286E0,0E0,0E0,0E0,0E0,0E0,0E0],"parents":[2147483647,0,0,1,1,2,2,3,3,4,4,6,6],"right_children":[2,4,6,8,10,-1,12,-1,-1,-1,-1,-1,-1],"split_conditions":[5E0,2.03E0,1.64E0,1E0,3E0,9.488358E-2,5E0,8.446022E-2,2.857834E-2,-1.8305056E-2,7.6726004E-3,6.0303595E-2,9.174923E-3],"split_indices":[3,5,5,3,2,0,2,0,0,0,0,0,0],"split_type":[0,0,0,0,0,0,0,0,0,0,0,0,0],"sum_hessian":[4.171933E3,3.776066E3,3.958671E2,2.3782697E2,3.538239E3,8.951728E1,3.0634982E2,4.9780254E1,1.880467E2,2.478524E3,1.0597148E3,2.7269113E2,3.36587E1],"tree_param":{"num_deleted":"0","num_feature":"16","num_nodes":"13","size_leaf_vector":"1"}},{"base_weights":[-1.2730965E-3,-6.285459E-2,6.2188023E-1,-8.235955E-2,8.059006E-1,9.677612E-1,5.3507036E-1,-1.6550643E-2,9.04092E-3,1.03422225E-1,-1.15014195E-1,9.928146E-2,-2.0086141E-2,5.893613E-2,8.54972E-3],"categories":[],"categories_nodes":[],"categories_segments":[],"categories_sizes":[],"default_left":[0,0,0,0,0,0,0,0,0,0,0,0,0,0,0],"id":25,"left_children":[1,3,5,7,9,11,13,-1,-1,-1,-1,-1,-1,-1,-1],"loss_changes":[1.5914355E2,6.401875E1,1.0680878E1,5.3053223E1,3.824309E1,2.3540268E0,7.281151E0,0E0,0E0,0E0,0E0,0E0,0E0,0E0,0E0],"parents":[2147483647,0,0,1,1,2,2,3,3,4,4,5,5,6,6],"right_children":[2,4,6,8,10,12,14,-1,-1,-1,-1,-1,-1,-1,-1],"split_conditions":[5E0,5E0,1.55E0,1E0,1E1,4E0,5E0,-1.6550643E-2,9.04092E-3,1.03422225E-1,-1.15014195E-1,9.928146E-2,-2.0086141E-2,5.893613E-2,8.54972E-3],"split_indices":[3,4,8,3,4,4,2,0,0,0,0,0,0,0,0],"split_type":[0,0,0,0,0,0,0,0,0,0,0,0,0,0,0],"sum_hessian":[4.145075E3,3.773107E3,3.7196826E2,3.6911401E3,8.196688E1,7.259126E1,2.99377E2,2.4919187E3,1.1992214E3,7.382126E1,8.145617E0,7.1214966E1,1.3762932E0,2.6684192E2,3.253508E1],"tree_param":{"num_deleted":"0","num_feature":"16","num_nodes":"15","size_leaf_vector":"1"}},{"base_weights":[6.5603424E-3,-5.1002476E-2,6.0507745E-1,-1.8431304E-2,-4.1536754E-1,6.89457E-1,2.6701966E-1,-8.990768E-3,7.1156405E-2,-3.5751828E-3,-7.105341E-2,9.245066E-2,6.139329E-2,-2.9796523E-3,5.586509E-2],"categories":[],"categories_nodes":[],"categories_segments":[],"categories_sizes":[],"default_left":[0,0,0,0,0,0,0,0,0,0,0,0,0,0,0],"id":26,"left_children":[1,3,5,7,9,11,13,-1,-1,-1,-1,-1,-1,-1,-1],"loss_changes":[1.41775E2,4.454598E1,1.0114853E1,1.7992764E2,3.448669E1,4.5502777E0,6.4004717E0,0E0,0E0,0E0,0E0,0E0,0E0,0E0,0E0],"parents":[2147483647,0,0,1,1,2,2,3,3,4,4,5,5,6,6],"right_children":[2,4,6,8,10,12,14,-1,-1,-1,-1,-1,-1,-1,-1],"split_conditions":[5E0,5E0,2.6E-1,4E0,2.93E0,1.55E0,3.03E0,-8.990768E-3,7.1156405E-2,-3.5751828E-3,-7.105341E-2,9.245066E-2,6.139329E-2,-2.9796523E-3,5.586509E-2],"split_indices":[3,2,10,2,7,5,5,0,0,0,0,0,0,0,0],"split_type":[0,0,0,0,0,0,0,0,0,0,0,0,0,0,0],"sum_hessian":[4.1132104E3,3.7531619E3,3.600483E2,3.4461553E3,3.070067E2,2.8729877E2,7.274956E1,3.1396208E3,3.0653436E2,1.3478278E2,1.7222395E2,6.71306E1,2.2016817E2,3.649923E1,3.6250328E1],"tree_param":{"num_deleted":"0","num_feature":"16","num_nodes":"15","size_leaf_vector":"1"}},{"base_weights":[-4.0396624E-3,-6.429908E-2,4.8235872E-1,-2.482581E-2,-5.137312E-1,5.7277864E-1,7.2555274E-2,-9.6515305E-3,6.804545E-2,1.2010033E-2,-7.4967846E-2,6.819465E-2,2.3933735E-2,3.510481E-2,-2.7457496E-2],"categories":[],"categories_nodes":[],"categories_segments":[],"categories_sizes":[],"default_left":[0,0,0,0,0,0,0,0,0,0,0,0,0,0,0],"id":27,"left_children":[1,3,5,7,9,11,13,-1,-1,-1,-1,-1,-1,-1,-1],"loss_changes":[1.1958144E2,6.438687E1,1.6623116E1,1.688412E2,4.3913612E1,1.3243187E1,8.066018E0,0E0,0E0,0E0,0E0,0E0,0E0,0E0,0E0],"parents":[2147483647,0,0,1,1,2,2,3,3,4,4,5,5,6,6],"right_children":[2,4,6,8,10,12,14,-1,-1,-1,-1,-1,-1,-1,-1],"split_conditions":[4E0,5E0,1E0,4E0,2.67E0,1.6E-1,2.45E0,-9.6515305E-3,6.804545E-2,1.2010033E-2,-7.4967846E-2,6.819465E-2,2.3933735E-2,3.510481E-2,-2.7457496E-2],"split_indices":[3,2,4,2,5,10,5,0,0,0,0,0,0,0,0],"split_type":[0,0,0,0,0,0,0,0,0,0,0,0,0,0,0],"sum_hessian":[4.0778152E3,3.6290798E3,4.4873532E2,3.3370452E3,2.9203482E2,3.6729654E2,8.143879E1,3.029926E3,3.0711914E2,7.9354256E1,2.1268056E2,2.7591684E2,9.1379684E1,4.5180473E1,3.6258312E1],"tree_param":{"num_deleted":"0","num_feature":"16","num_nodes":"15","size_leaf_vector":"1"}},{"base_weights":[6.563072E-4,-4.5841526E-2,5.4075646E-1,-6.1917696E-2,7.141325E-1,6.3162667E-1,1.0781575E-1,-1.3559426E-2,9.078158E-3,9.567537E-2,-1.0536122E-1,9.5863506E-2,5.392128E-2,4.84514E-2,-3.270496E-2],"categories":[],"categories_nodes":[],"categories_segments":[],"categories_sizes":[],"default_left":[0,0,0,0,0,0,0,0,0,0,0,0,0,0,0],"id":28,"left_children":[1,3,5,7,9,11,13,-1,-1,-1,-1,-1,-1,-1,-1],"loss_changes":[1.01141525E2,4.5348476E1,1.2491173E1,4.087651E1,3.398796E1,7.450653E0,9.42813E0,0E0,0E0,0E0,0E0,0E0,0E0,0E0,0E0],"parents":[2147483647,0,0,1,1,2,2,3,3,4,4,5,5,6,6],"right_children":[2,4,6,8,10,12,14,-1,-1,-1,-1,-1,-1,-1,-1],"split_conditions":[5E0,5E0,1E0,1E0,1E1,1.64E0,2.4E0,-1.3559426E-2,9.078158E-3,9.567537E-2,-1.0536122E-1,9.5863506E-2,5.392128E-2,4.84514E-2,-3.270496E-2],"split_indices":[3,4,4,3,4,5,5,0,0,0,0,0,0,0,0],"split_type":[0,0,0,0,0,0,0,0,0,0,0,0,0,0,0],"sum_hessian":[4.0253918E3,3.7071538E3,3.1823795E2,3.6312583E3,7.589557E1,2.6265103E2,5.5586903E1,2.4495E3,1.1817583E3,6.713951E1,8.756059E0,5.5806248E1,2.068448E2,2.972431E1,2.586259E1],"tree_param":{"num_deleted":"0","num_feature":"16","num_nodes":"15","size_leaf_vector":"1"}},{"base_weights":[-3.8690954E-3,-4.839975E-2,5.2198225E-1,1.06611334E-1,-1.357914E-1,6.1220497E-1,1.4460811E-1,3.0746672E-2,4.5513184E-4,9.944953E-3,-2.1511441E-2,9.3311705E-2,5.2049965E-2,-5.8680065E-2,3.0362276E-2],"categories":[],"categories_nodes":[],"categories_segments":[],"categories_sizes":[],"default_left":[0,0,0,0,0,0,0,0,0,0,0,0,0,0,0],"id":29,"left_children":[1,3,5,7,9,11,13,-1,-1,-1,-1,-1,-1,-1,-1],"loss_changes":[9.3960915E1,5.0126938E1,1.0577614E1,2.7349205E1,4.4171425E1,6.9456787E0,7.3605304E0,0E0,0E0,0E0,0E0,0E0,0E0,0E0,0E0],"parents":[2147483647,0,0,1,1,2,2,3,3,4,4,5,5,6,6],"right_children":[2,4,6,8,10,12,14,-1,-1,-1,-1,-1,-1,-1,-1],"split_conditions":[5E0,2.77E0,1E0,2E0,2.78E0,1.64E0,-6.7E-1,3.0746672E-2,4.5513184E-4,9.944953E-3,-2.1511441E-2,9.3311705E-2,5.2049965E-2,-5.8680065E-2,3.0362276E-2],"split_indices":[3,0,4,2,5,5,10,0,0,0,0,0,0,0,0],"split_type":[0,0,0,0,0,0,0,0,0,0,0,0,0,0,0],"sum_hessian":[4.0105146E3,3.6982444E3,3.122704E2,1.3332211E3,2.3650232E3,2.5151566E2,6.0754723E1,4.485185E2,8.847026E2,5.9631946E2,1.7687037E3,5.386082E1,1.9765485E2,1.0369343E1,5.038538E1],"tree_param":{"num_deleted":"0","num_feature":"16","num_nodes":"15","size_leaf_vector":"1"}},{"base_weights":[9.057508E-3,-2.302551E-2,5.440919E-1,-3.8507566E-2,6.8222135E-1,6.3039786E-1,2.1276298E-1,3.9012782E-2,-6.2209354E-3,8.754923E-2,-9.113824E-2,9.132354E-2,5.4377872E-2,3.5135895E-2,-7.2032064E-2],"categories":[],"categories_nodes":[],"categories_segments":[],"categories_sizes":[],"default_left":[0,0,0,0,0,0,0,0,0,0,0,0,0,0,0],"id":30,"left_children":[1,3,5,7,9,11,13,-1,-1,-1,-1,-1,-1,-1,-1],"loss_changes":[6.8826454E1,4.1331795E1,6.3522186E0,3.764157E1,2.5843277E1,3.8996353E0,6.5102777E0,0E0,0E0,0E0,0E0,0E0,0E0,0E0,0E0],"parents":[2147483647,0,0,1,1,2,2,3,3,4,4,5,5,6,6],"right_children":[2,4,6,8,10,12,14,-1,-1,-1,-1,-1,-1,-1,-1],"split_conditions":[6E0,5E0,1E0,1.94E0,1E1,1.64E0,4.4E-1,3.9012782E-2,-6.2209354E-3,8.754923E-2,-9.113824E-2,9.132354E-2,5.4377872E-2,3.5135895E-2,-7.2032064E-2],"split_indices":[3,4,4,5,4,5,10,0,0,0,0,0,0,0,0],"split_type":[0,0,0,0,0,0,0,0,0,0,0,0,0,0,0],"sum_hessian":[4.0078464E3,3.782017E3,2.2582944E2,3.7017002E3,8.0316826E1,1.7844475E2,4.738468E1,1.9315346E2,3.5085469E3,7.2031525E1,8.285303E0,3.9599003E1,1.3884575E2,4.179943E1,5.5852532E0],"tree_param":{"num_deleted":"0","num_feature":"16","num_nodes":"15","size_leaf_vector":"1"}},{"base_weights":[1.1323097E-2,-4.2204928E-2,3.1487498E-1,-3.1526098E-1,-2.4732545E-3,1.9065824E-1,5.2526647E-1,-3.5331614E-2,1.4780511E-1,2.0183904E-2,-8.86454E-3,2.6926223E-2,-2.7750587E-2,8.460062E-2,4.3722585E-2],"categories":[],"categories_nodes":[],"categories_segments":[],"categories_sizes":[],"default_left":[0,0,0,0,0,0,0,0,0,0,0,0,0,0,0],"id":31,"left_children":[1,3,5,7,9,11,13,-1,-1,-1,-1,-1,-1,-1,-1],"loss_changes":[6.493186E1,3.6856537E1,1.5555267E1,2.9972095E1,5.225103E1,1.3993363E1,5.893673E0,0E0,0E0,0E0,0E0,0E0,0E0,0E0,0E0],"parents":[2147483647,0,0,1,1,2,2,3,3,4,4,5,5,6,6],"right_children":[2,4,6,8,10,12,14,-1,-1,-1,-1,-1,-1,-1,-1],"split_conditions":[3E0,1E0,6E0,2E0,2E0,4.6E-1,1.64E0,-3.5331614E-2,1.4780511E-1,2.0183904E-2,-8.86454E-3,2.6926223E-2,-2.7750587E-2,8.460062E-2,4.3722585E-2],"split_indices":[3,2,3,4,2,10,5,0,0,0,0,0,0,0,0],"split_type":[0,0,0,0,0,0,0,0,0,0,0,0,0,0,0],"sum_hessian":[3.9943499E3,3.396309E3,5.9804065E2,4.3053323E2,2.965776E3,3.7722833E2,2.2081232E2,4.223732E2,8.160028E0,8.7939856E2,2.0863774E3,3.2336133E2,5.3866985E1,4.5703003E1,1.7510931E2],"tree_param":{"num_deleted":"0","num_feature":"16","num_nodes":"15","size_leaf_vector":"1"}},{"base_weights":[1.6059097E-3,-2.5194708E-2,4.708428E-1,-9.522171E-2,1.3523825E-1,5.6169003E-1,1.21387705E-1,2.1239023E-3,-2.367113E-2,3.174088E-2,-3.647827E-2,6.781527E-2,2.6850527E-2,-8.551418E-3,7.423546E-2],"categories":[],"categories_nodes":[],"categories_segments":[],"categories_sizes":[],"default_left":[0,0,0,0,0,0,0,0,0,0,0,0,0,0,0],"id":32,"left_children":[1,3,5,7,9,11,13,-1,-1,-1,-1,-1,-1,-1,-1],"loss_changes":[4.9470478E1,4.182022E1,6.679306E0,4.2701687E1,1.0315169E2,5.568306E0,5.8615856E0,0E0,0E0,0E0,0E0,0E0,0E0,0E0,0E0],"parents":[2147483647,0,0,1,1,2,2,3,3,4,4,5,5,6,6],"right_children":[2,4,6,8,10,12,14,-1,-1,-1,-1,-1,-1,-1,-1],"split_conditions":[6E0,3E0,1E0,2E0,5E0,1.2E-1,1.3E1,2.1239023E-3,-2.367113E-2,3.174088E-2,-3.647827E-2,6.781527E-2,2.6850527E-2,-8.551418E-3,7.423546E-2],"split_indices":[3,2,4,2,2,10,3,0,0,0,0,0,0,0,0],"split_type":[0,0,0,0,0,0,0,0,0,0,0,0,0,0,0],"sum_hessian":[3.9318286E3,3.7202893E3,2.1153923E2,2.5901343E3,1.1301552E3,1.6741049E2,4.4128727E1,1.4211932E3,1.1689409E3,8.2862933E2,3.0152588E2,1.1887597E2,4.853453E1,3.374681E1,1.0381916E1],"tree_param":{"num_deleted":"0","num_feature":"16","num_nodes":"15","size_leaf_vector":"1"}},{"base_weights":[9.141268E-3,3.8943473E-1,-2.4158735E-2,5.113446E-1,-1.1798153E-1,4.482413E-3,-3.3715877E-1,5.3837966E-2,-3.1519573E-2,-5.057074E-3,-1.8481918E-1,-5.932109E-3,6.328791E-2,-4.073339E-2,5.915753E-2],"categories":[],"categories_nodes":[],"categories_segments":[],"categories_sizes":[],"default_left":[0,0,0,0,0,0,0,0,0,0,0,0,0,0,0],"id":33,"left_children":[1,3,5,7,9,11,13,-1,-1,-1,-1,-1,-1,-1,-1],"loss_changes":[4.9957382E1,1.9707897E1,3.2521286E1,5.8963776E0,7.1775417E0,1.3332652E2,2.0061996E1,0E0,0E0,0E0,0E0,0E0,0E0,0E0,0E0],"parents":[2147483647,0,0,1,1,2,2,3,3,4,4,5,5,6,6],"right_children":[2,4,6,8,10,12,14,-1,-1,-1,-1,-1,-1,-1,-1],"split_conditions":[2.03E0,1E0,5E0,3.44E0,1E1,4E0,1E0,5.3837966E-2,-3.1519573E-2,-5.057074E-3,-1.8481918E-1,-5.932109E-3,6.328791E-2,-4.073339E-2,5.915753E-2],"split_indices":[5,4,2,0,4,2,4,0,0,0,0,0,0,0,0],"split_type":[0,0,0,0,0,0,0,0,0,0,0,0,0,0,0],"sum_hessian":[3.9431624E3,3.1661813E2,3.6265442E3,2.5527821E2,6.1339916E1,3.3234194E3,3.031247E2,2.4753044E2,7.7477646E0,6.0030304E1,1.3096149E0,3.0179058E3,3.0551382E2,2.8235162E2,2.0773066E1],"tree_param":{"num_deleted":"0","num_feature":"16","num_nodes":"15","size_leaf_vector":"1"}},{"base_weights":[-2.3666383E-3,3.711999E-1,-3.4040973E-2,4.7901666E-1,-1.01608105E-1,1.7893462E-1,-8.797198E-2,3.027629E-2,6.3230924E-2,-5.0369333E-2,2.4511224E-2,2.4754755E-2,-2.0511793E-2,-1.2908051E-2,2.9177507E-2],"categories":[],"categories_nodes":[],"categories_segments":[],"categories_sizes":[],"default_left":[0,0,0,0,0,0,0,0,0,0,0,0,0,0,0],"id":34,"left_children":[1,3,5,7,9,11,13,-1,-1,-1,-1,-1,-1,-1,-1],"loss_changes":[4.64437E1,1.5687977E1,4.157485E1,6.56316E0,8.180562E0,1.9324669E1,4.5118874E1,0E0,0E0,0E0,0E0,0E0,0E0,0E0,0E0],"parents":[2147483647,0,0,1,1,2,2,3,3,4,4,5,5,6,6],"right_children":[2,4,6,8,10,12,14,-1,-1,-1,-1,-1,-1,-1,-1],"split_conditions":[2.03E0,1E0,2.51E0,1E0,3E0,5E0,3E0,3.027629E-2,6.3230924E-2,-5.0369333E-2,2.4511224E-2,2.4754755E-2,-2.0511793E-2,-1.2908051E-2,2.9177507E-2],"split_indices":[5,4,0,1,3,2,3,0,0,0,0,0,0,0,0],"split_type":[0,0,0,0,0,0,0,0,0,0,0,0,0,0,0],"sum_hessian":[3.9230376E3,3.0579364E2,3.617244E3,2.4899985E2,5.6793808E1,7.3043005E2,2.886814E3,1.1720927E2,1.3179057E2,2.6087671E1,3.0706135E1,6.200164E2,1.1041366E2,2.60543E3,2.8138394E2],"tree_param":{"num_deleted":"0","num_feature":"16","num_nodes":"15","size_leaf_vector":"1"}},{"base_weights":[-5.0455327E-3,-2.7930316E-2,4.2681727E-1,-4.1604776E-2,6.246708E-1,5.1697874E-1,1.3855395E-1,-6.001136E-4,-3.9599493E-2,8.224052E-2,-8.419158E-2,6.042185E-2,1.7440094E-2,2.8301177E-3,8.930548E-2],"categories":[],"categories_nodes":[],"categories_segments":[],"categories_sizes":[],"default_left":[0,0,0,0,0,0,0,0,0,0,0,0,0,0,0],"id":35,"left_children":[1,3,5,7,9,11,13,-1,-1,-1,-1,-1,-1,-1,-1],"loss_changes":[3.8729645E1,3.323533E1,5.0539055E0,4.600038E1,2.285922E1,4.373329E0,3.996952E0,0E0,0E0,0E0,0E0,0E0,0E0,0E0,0E0],"parents":[2147483647,0,0,1,1,2,2,3,3,4,4,5,5,6,6],"right_children":[2,4,6,8,10,12,14,-1,-1,-1,-1,-1,-1,-1,-1],"split_conditions":[6E0,5E0,2.4E-1,1E0,1E1,1E0,3.01E0,-6.001136E-4,-3.9599493E-2,8.224052E-2,-8.419158E-2,6.042185E-2,1.7440094E-2,2.8301177E-3,8.930548E-2],"split_indices":[3,4,10,4,4,4,0,0,0,0,0,0,0,0,0],"split_type":[0,0,0,0,0,0,0,0,0,0,0,0,0,0,0],"sum_hessian":[3.9165742E3,3.720364E3,1.9620998E2,3.6449253E3,7.543873E1,1.4885765E2,4.7352314E1,3.313094E3,3.3183148E2,6.686307E1,8.575663E0,1.180354E2,3.082226E1,4.2220306E1,5.1320076E0],"tree_param":{"num_deleted":"0","num_feature":"16","num_nodes":"15","size_leaf_vector":"1"}},{"base_weights":[1.3778622E-2,-6.60327E-2,1.4701903E-1,-7.735623E-2,1.3335828E0,1.9809355E-1,-8.875498E-2,9.258116E-2,-9.266351E-3,-1.8527318E-2,2.4012485E-1,2.4250146E-2,-1.861262E-2,-3.8888033E-2,4.8805032E-2],"categories":[],"categories_nodes":[],"categories_segments":[],"categories_sizes":[],"default_left":[0,0,0,0,0,0,0,0,0,0,0,0,0,0,0],"id":36,"left_children":[1,3,5,7,9,11,13,-1,-1,-1,-1,-1,-1,-1,-1],"loss_changes":[4.1482475E1,3.8768944E1,1.7614403E1,3.7263107E1,3.2285103E1,2.0543968E1,4.5351337E1,0E0,0E0,0E0,0E0,0E0,0E0,0E0,0E0],"parents":[2147483647,0,0,1,1,2,2,3,3,4,4,5,5,6,6],"right_children":[2,4,6,8,10,12,14,-1,-1,-1,-1,-1,-1,-1,-1],"split_conditions":[1E0,1.51E0,1E0,-1.15E0,1E0,5E0,3E0,9.258116E-2,-9.266351E-3,-1.8527318E-2,2.4012485E-1,2.4250146E-2,-1.861262E-2,-3.8888033E-2,4.8805032E-2],"split_indices":[3,10,4,10,1,2,2,0,0,0,0,0,0,0,0],"split_type":[0,0,0,0,0,0,0,0,0,0,0,0,0,0,0],"sum_hessian":[3.8989817E3,2.4386995E3,1.4602822E3,2.4200647E3,1.8634697E1,1.2004047E3,2.5987766E2,3.5478638E1,2.384586E3,8.03319E0,1.0601507E1,1.0763676E3,1.2403711E2,1.7115007E2,8.872759E1],"tree_param":{"num_deleted":"0","num_feature":"16","num_nodes":"15","size_leaf_vector":"1"}},{"base_weights":[8.255282E-4,-6.14666E-2,1.4139204E-1,6.894388E-2,-2.258138E-1,2.8361395E-1,-2.4753894E-1,-2.030759E-2,1.86212E-2,-1.4770319E-2,-5.5517882E-2,8.802779E-3,5.9922285E-2,-2.5784099E-3,-6.27974E-2],"categories":[],"categories_nodes":[],"categories_segments":[],"categories_sizes":[],"default_left":[0,0,0,0,0,0,0,0,0,0,0,0,0,0,0],"id":37,"left_children":[1,3,5,7,9,11,13,-1,-1,-1,-1,-1,-1,-1,-1],"loss_changes":[3.3856304E1,5.7439014E1,6.574559E1,4.7715446E1,3.0420467E1,5.36426E1,2.684918E1,0E0,0E0,0E0,0E0,0E0,0E0,0E0,0E0],"parents":[2147483647,0,0,1,1,2,2,3,3,4,4,5,5,6,6],"right_children":[2,4,6,8,10,12,14,-1,-1,-1,-1,-1,-1,-1,-1],"split_conditions":[3E0,2E0,5E0,1E0,1E0,4E0,3.08E0,-2.030759E-2,1.86212E-2,-1.4770319E-2,-5.5517882E-2,8.802779E-3,5.9922285E-2,-2.5784099E-3,-6.27974E-2],"split_indices":[2,2,2,2,4,2,7,0,0,0,0,0,0,0,0],"split_type":[0,0,0,0,0,0,0,0,0,0,0,0,0,0,0],"sum_hessian":[3.8645657E3,2.678257E3,1.1863085E3,1.4936318E3,1.1846252E3,8.6885986E2,3.1744858E2,4.4971756E2,1.0439143E3,9.587105E2,2.2591473E2,5.372187E2,3.3164117E2,2.0122354E2,1.16225044E2],"tree_param":{"num_deleted":"0","num_feature":"16","num_nodes":"15","size_leaf_vector":"1"}},{"base_weights":[-4.768732E-3,3.1967533E-1,-3.2282002E-2,4.010918E-1,5.132737E-3,-6.900531E-2,1.4951465E-1,7.107871E-2,3.2317437E-2,-2.9835304E-2,3.023606E-2,5.379219E-2,-9.117666E-3,5.3154863E-2,-2.4909763E-2],"categories":[],"categories_nodes":[],"categories_segments":[],"categories_sizes":[],"default_left":[0,0,0,0,0,0,0,0,0,0,0,0,0,0,0],"id":38,"left_children":[1,3,5,7,9,11,13,-1,-1,-1,-1,-1,-1,-1,-1],"loss_changes":[3.4509327E1,7.737219E0,2.380132E1,5.5630226E0,5.78688E0,3.9952324E1,9.1379135E1,0E0,0E0,0E0,0E0,0E0,0E0,0E0,0E0],"parents":[2147483647,0,0,1,1,2,2,3,3,4,4,5,5,6,6],"right_children":[2,4,6,8,10,12,14,-1,-1,-1,-1,-1,-1,-1,-1],"split_conditions":[2.03E0,1E0,4E0,1E0,3E0,2.03E0,5E0,7.107871E-2,3.2317437E-2,-2.9835304E-2,3.023606E-2,5.379219E-2,-9.117666E-3,5.3154863E-2,-2.4909763E-2],"split_indices":[5,4,2,3,3,0,2,0,0,0,0,0,0,0,0],"split_type":[0,0,0,0,0,0,0,0,0,0,0,0,0,0,0],"sum_hessian":[3.8637778E3,3.012098E2,3.5625679E3,2.3905693E2,6.215288E1,2.9643777E3,5.981902E2,4.6422203E1,1.9263474E2,3.075083E1,3.1402052E1,1.0365383E2,2.8607239E3,3.0527655E2,2.929136E2],"tree_param":{"num_deleted":"0","num_feature":"16","num_nodes":"15","size_leaf_vector":"1"}},{"base_weights":[-1.6164247E-2,3.084722E-2,-1.7465185E-1,6.1779004E-2,-1.6868123E-1,-2.6253498E-1,2.4008739E-1,9.055363E-3,-2.3367045E-2,-3.6677428E-2,1.3685167E-2,-2.973193E-2,1.2123042E-1,3.3033516E-2,-6.795334E-2],"categories":[],"categories_nodes":[],"categories_segments":[],"categories_sizes":[],"default_left":[0,0,0,0,0,0,0,0,0,0,0,0,0,0,0],"id":39,"left_children":[1,3,5,7,9,11,13,-1,-1,-1,-1,-1,-1,-1,-1],"loss_changes":[2.8433552E1,1.8176886E1,3.1882948E1,2.169256E1,2.3977364E1,3.7340485E1,1.2936391E1,0E0,0E0,0E0,0E0,0E0,0E0,0E0,0E0],"parents":[2147483647,0,0,1,1,2,2,3,3,4,4,5,5,6,6],"right_children":[2,4,6,8,10,12,14,-1,-1,-1,-1,-1,-1,-1,-1],"split_conditions":[3.39E0,1E0,1E0,5E0,2E0,2E0,5E0,9.055363E-3,-2.3367045E-2,-3.6677428E-2,1.3685167E-2,-2.973193E-2,1.2123042E-1,3.3033516E-2,-6.795334E-2],"split_indices":[5,4,3,2,4,4,2,0,0,0,0,0,0,0,0],"split_type":[0,0,0,0,0,0,0,0,0,0,0,0,0,0,0],"sum_hessian":[3.8144849E3,2.9424766E3,8.720083E2,2.5481426E3,3.9433398E2,7.198411E2,1.5216716E2,2.322629E3,2.2551358E2,2.3910756E2,1.5522643E2,7.040348E2,1.5806355E1,1.3915213E2,1.3015024E1],"tree_param":{"num_deleted":"0","num_feature":"16","num_nodes":"15","size_leaf_vector":"1"}},{"base_weights":[2.8881077E-3,-2.3940513E-2,2.6759943E-1,-2.7425975E-1,9.003436E-3,7.253076E-1,1.9585676E-1,-3.25402E-2,9.629874E-2,1.7632408E-2,-6.3865827E-3,7.750739E-2,-3.0932343E-2,1.15218535E-2,7.024553E-2],"categories":[],"categories_nodes":[],"categories_segments":[],"categories_sizes":[],"default_left":[0,0,0,0,0,0,0,0,0,0,0,0,0,0,0],"id":40,"left_children":[1,3,5,7,9,11,13,-1,-1,-1,-1,-1,-1,-1,-1],"loss_changes":[2.7295055E1,2.878107E1,1.1471849E1,2.5996933E1,3.7623924E1,2.6883583E0,1.2465533E1,0E0,0E0,0E0,0E0,0E0,0E0,0E0,0E0],"parents":[2147483647,0,0,1,1,2,2,3,3,4,4,5,5,6,6],"right_children":[2,4,6,8,10,12,14,-1,-1,-1,-1,-1,-1,-1,-1],"split_conditions":[4E0,1E0,-1.05E0,1E0,2E0,4E0,3.32E0,-3.25402E-2,9.629874E-2,1.7632408E-2,-6.3865827E-3,7.750739E-2,-3.0932343E-2,1.15218535E-2,7.024553E-2],"split_indices":[3,2,10,4,2,4,7,0,0,0,0,0,0,0,0],"split_type":[0,0,0,0,0,0,0,0,0,0,0,0,0,0,0],"sum_hessian":[3.8414756E3,3.4887942E3,3.526814E2,4.049003E2,3.083894E3,4.6555298E1,3.061261E2,3.8953564E2,1.53646555E1,9.351668E2,2.1487273E3,4.4658092E1,1.8972087E0,2.6514835E2,4.097777E1],"tree_param":{"num_deleted":"0","num_feature":"16","num_nodes":"15","size_leaf_vector":"1"}},{"base_weights":[-6.538493E-3,2.9516456E-1,-3.2061093E-2,6.0743594E-1,2.2262265E-1,-4.2873535E-2,4.7432643E-1,8.0461964E-2,-1.5463128E-2,5.31298E-2,8.408966E-3,-9.780166E-3,6.64512E-3,6.336372E-2,-4.851016E-2],"categories":[],"categories_nodes":[],"categories_segments":[],"categories_sizes":[],"default_left":[0,0,0,0,0,0,0,0,0,0,0,0,0,0,0],"id":41,"left_children":[1,3,5,7,9,11,13,-1,-1,-1,-1,-1,-1,-1,-1],"loss_changes":[2.9453392E1,6.6229935E0,1.9328516E1,8.488611E0,1.0375406E1,2.0745491E1,1.158832E1,0E0,0E0,0E0,0E0,0E0,0E0,0E0,0E0],"parents":[2147483647,0,0,1,1,2,2,3,3,4,4,5,5,6,6],"right_children":[2,4,6,8,10,12,14,-1,-1,-1,-1,-1,-1,-1,-1],"split_conditions":[2.03E0,1E0,5E0,-4.5E-1,1.55E0,1E0,1E1,8.0461964E-2,-1.5463128E-2,5.31298E-2,8.408966E-3,-9.780166E-3,6.64512E-3,6.336372E-2,-4.851016E-2],"split_indices":[8,3,4,10,8,3,4,0,0,0,0,0,0,0,0],"split_type":[0,0,0,0,0,0,0,0,0,0,0,0,0,0,0],"sum_hessian":[3.8227644E3,2.9733994E2,3.5254246E3,5.4662113E1,2.4267781E2,3.4526191E3,7.280536E1,4.3381405E1,1.1280707E1,7.429674E1,1.6838107E2,2.298092E3,1.154527E3,6.272894E1,1.0076425E1],"tree_param":{"num_deleted":"0","num_feature":"16","num_nodes":"15","size_leaf_vector":"1"}},{"base_weights":[2.9872763E-3,-3.0824961E-2,1.7029266E-1,4.1814032E-1,-5.0283395E-2,4.4925013E-1,-1.2519248E-1,1.7873852E-2,1.1411343E-1,-1.2289967E-2,7.582792E-3,2.711538E-3,6.1439555E-2,-2.0949868E-2,8.610303E-2],"categories":[],"categories_nodes":[],"categories_segments":[],"categories_sizes":[],"default_left":[0,0,0,0,0,0,0,0,0,0,0,0,0,0,0],"id":42,"left_children":[1,3,5,7,9,11,13,-1,-1,-1,-1,-1,-1,-1,-1],"loss_changes":[2.1517502E1,2.7664886E1,5.2767525E1,2.2566067E1,2.77916E1,2.293026E1,2.6065386E1,0E0,0E0,0E0,0E0,0E0,0E0,0E0,0E0],"parents":[2147483647,0,0,1,1,2,2,3,3,4,4,5,5,6,6],"right_children":[2,4,6,8,10,12,14,-1,-1,-1,-1,-1,-1,-1,-1],"split_conditions":[4E0,2.03E0,5E0,3.03E0,1E0,-2.4E-1,1E0,1.7873852E-2,1.1411343E-1,-1.2289967E-2,7.582792E-3,2.711538E-3,6.1439555E-2,-2.0949868E-2,8.610303E-2],"split_indices":[2,0,2,5,11,10,4,0,0,0,0,0,0,0,0],"split_type":[0,0,0,0,0,0,0,0,0,0,0,0,0,0,0],"sum_hessian":[3.8017876E3,3.1633032E3,6.3848444E2,1.3055325E2,3.03275E3,3.2815967E2,3.1032477E2,9.9014305E1,3.1538952E1,1.9245807E3,1.1081693E3,9.260712E1,2.3555255E2,2.8661166E2,2.3713116E1],"tree_param":{"num_deleted":"0","num_feature":"16","num_nodes":"15","size_leaf_vector":"1"}},{"base_weights":[1.0494744E-2,-8.2161715E-3,3.965433E-1,-1.4409238E-2,8.547454E-1,3.0425182E-1,7.467823E-1,6.252844E-3,-6.271649E-3,-3.16534E-2,1.7958309E-1,8.91866E-2,2.4211219E-2,8.614504E-2,-7.070616E-3],"categories":[],"categories_nodes":[],"categories_segments":[],"categories_sizes":[],"default_left":[0,0,0,0,0,0,0,0,0,0,0,0,0,0,0],"id":43,"left_children":[1,3,5,7,9,11,13,-1,-1,-1,-1,-1,-1,-1,-1],"loss_changes":[2.7388878E1,1.9342916E1,5.438574E0,1.3354892E1,2.8995094E1,4.9111185E0,3.4231663E0,0E0,0E0,0E0,0E0,0E0,0E0,0E0,0E0],"parents":[2147483647,0,0,1,1,2,2,3,3,4,4,5,5,6,6],"right_children":[2,4,6,8,10,12,14,-1,-1,-1,-1,-1,-1,-1,-1],"split_conditions":[6E0,1.51E0,1.2E1,2E0,1E0,1E0,5.2E-1,6.252844E-3,-6.271649E-3,-3.16534E-2,1.7958309E-1,8.91866E-2,2.4211219E-2,8.614504E-2,-7.070616E-3],"split_indices":[3,10,3,2,1,2,10,0,0,0,0,0,0,0,0],"split_type":[0,0,0,0,0,0,0,0,0,0,0,0,0,0,0],"sum_hessian":[3.7902778E3,3.615997E3,1.7428062E2,3.591208E3,2.4789097E1,1.3941269E2,3.4867943E1,1.3850236E3,2.2061846E3,1.1339522E1,1.34495735E1,1.2055842E1,1.2735684E2,3.0531542E1,4.3364E0],"tree_param":{"num_deleted":"0","num_feature":"16","num_nodes":"15","size_leaf_vector":"1"}},{"base_weights":[-2.5733043E-3,-1.8910505E-2,3.4289905E-1,-3.3644423E-2,3.0033806E-1,1.8927987E-1,5.964521E-1,-7.1815384E-4,-3.8613938E-2,8.4618395E-3,9.168202E-2,2.2740936E-2,-1.8687372E-1,4.805343E-2,9.7568534E-2],"categories":[],"categories_nodes":[],"categories_segments":[],"categories_sizes":[],"default_left":[0,0,0,0,0,0,0,0,0,0,0,0,0,0,0],"id":44,"left_children":[1,3,5,7,9,11,13,-1,-1,-1,-1,-1,-1,-1,-1],"loss_changes":[2.1365229E1,1.7011288E1,6.544882E0,3.2233166E1,2.1140738E1,8.892403E0,2.345623E0,0E0,0E0,0E0,0E0,0E0,0E0,0E0,0E0],"parents":[2147483647,0,0,1,1,2,2,3,3,4,4,5,5,6,6],"right_children":[2,4,6,8,10,12,14,-1,-1,-1,-1,-1,-1,-1,-1],"split_conditions":[6E0,2E0,2.83E0,1E0,3E0,3.43E0,3.32E0,-7.1815384E-4,-3.8613938E-2,8.4618395E-3,9.168202E-2,2.2740936E-2,-1.8687372E-1,4.805343E-2,9.7568534E-2],"split_indices":[3,4,0,4,2,5,7,0,0,0,0,0,0,0,0],"split_type":[0,0,0,0,0,0,0,0,0,0,0,0,0,0,0],"sum_hessian":[3.783293E3,3.6133643E3,1.6992876E2,3.4548127E3,1.5855145E2,1.069051E2,6.3023663E1,3.21451E3,2.4030281E2,1.18294914E2,4.0256542E1,1.05833786E2,1.0713125E0,5.0005817E1,1.3017846E1],"tree_param":{"num_deleted":"0","num_feature":"16","num_nodes":"15","size_leaf_vector":"1"}},{"base_weights":[5.5067483E-3,-1.5735762E-2,2.2967772E-1,-3.3768803E-2,3.9008602E-1,1.8635496E-2,3.9890718E-1,-9.723208E-4,-3.7045814E-2,8.499058E-2,9.110161E-3,4.430611E-2,-2.0503137E-2,4.8220076E-2,-5.670002E-2],"categories":[],"categories_nodes":[],"categories_segments":[],"categories_sizes":[],"default_left":[0,0,0,0,0,0,0,0,0,0,0,0,0,0,0],"id":45,"left_children":[1,3,5,7,9,11,13,-1,-1,-1,-1,-1,-1,-1,-1],"loss_changes":[1.8031775E1,2.5327644E1,1.1698439E1,2.6816994E1,2.0166172E1,1.4037043E1,1.490407E1,0E0,0E0,0E0,0E0,0E0,0E0,0E0,0E0],"parents":[2147483647,0,0,1,1,2,2,3,3,4,4,5,5,6,6],"right_children":[2,4,6,8,10,12,14,-1,-1,-1,-1,-1,-1,-1,-1],"split_conditions":[4E0,2E0,2.6E0,1E0,1E0,-2.3E-1,2E0,-9.723208E-4,-3.7045814E-2,8.499058E-2,9.110161E-3,4.430611E-2,-2.0503137E-2,4.8220076E-2,-5.670002E-2],"split_indices":[3,4,0,4,1,10,4,0,0,0,0,0,0,0,0],"split_type":[0,0,0,0,0,0,0,0,0,0,0,0,0,0,0],"sum_hessian":[3.7848738E3,3.4581118E3,3.2676193E2,3.311863E3,1.4624869E2,1.4591045E2,1.808515E2,3.0920637E3,2.1979935E2,5.6898937E1,8.9349754E1,5.0017456E1,9.589299E1,1.6695515E2,1.3896346E1],"tree_param":{"num_deleted":"0","num_feature":"16","num_nodes":"15","size_leaf_vector":"1"}},{"base_weights":[3.194286E-3,3.9367497E-1,-1.6583702E-2,-1.6007334E-1,5.198891E-1,-6.9247015E-2,7.6589026E-2,-3.8274545E-3,-1.3599382E-1,4.2228382E-2,1.4379226E-1,-8.873978E-3,5.0980557E-2,1.2016647E-2,-1.2138596E-2],"categories":[],"categories_nodes":[],"categories_segments":[],"categories_sizes":[],"default_left":[0,0,0,0,0,0,0,0,0,0,0,0,0,0,0],"id":46,"left_children":[1,3,5,7,9,11,13,-1,-1,-1,-1,-1,-1,-1,-1],"loss_changes":[2.911368E1,1.2784847E1,1.7611801E1,4.9895787E0,1.2675552E1,2.5926815E1,1.1197382E1,0E0,0E0,0E0,0E0,0E0,0E0,0E0,0E0],"parents":[2147483647,0,0,1,1,2,2,3,3,4,4,5,5,6,6],"right_children":[2,4,6,8,10,12,14,-1,-1,-1,-1,-1,-1,-1,-1],"split_conditions":[2.03E0,1.77E0,1E0,3.34E0,3.43E0,2E0,1E0,-3.8274545E-3,-1.3599382E-1,4.2228382E-2,1.4379226E-1,-8.873978E-3,5.0980557E-2,1.2016647E-2,-1.2138596E-2],"split_indices":[0,0,3,5,5,4,4,0,0,0,0,0,0,0,0],"split_type":[0,0,0,0,0,0,0,0,0,0,0,0,0,0,0],"sum_hessian":[3.7679297E3,1.8073517E2,3.5871946E3,3.3498135E1,1.4723703E2,2.2919756E3,1.2952191E3,3.1347895E1,2.150239E0,1.3440689E2,1.2830148E1,2.218152E3,7.382334E1,1.0618763E3,2.3334282E2],"tree_param":{"num_deleted":"0","num_feature":"16","num_nodes":"15","size_leaf_vector":"1"}},{"base_weights":[8.727416E-3,4.4659313E-2,-1.2115151E-1,1.1598807E-2,1.9228093E-1,-1.4683364E-1,8.692404E-1,1.139348E-2,-6.3516474E-3,4.419111E-2,-1.0474505E-2,1.6138054E-2,-2.1530075E-2,1.4220989E-1,-1.8988837E-2],"categories":[],"categories_nodes":[],"categories_segments":[],"categories_sizes":[],"default_left":[0,0,0,0,0,0,0,0,0,0,0,0,0,0,0],"id":47,"left_children":[1,3,5,7,9,11,13,-1,-1,-1,-1,-1,-1,-1,-1],"loss_changes":[1.7543129E1,1.436746E1,2.0848286E1,1.8507225E1,3.9987564E1,1.6809229E1,1.2411502E1,0E0,0E0,0E0,0E0,0E0,0E0,0E0,0E0],"parents":[2147483647,0,0,1,1,2,2,3,3,4,4,5,5,6,6],"right_children":[2,4,6,8,10,12,14,-1,-1,-1,-1,-1,-1,-1,-1],"split_conditions":[3.42E0,4E0,2E0,2E0,5E0,2.78E0,2E0,1.139348E-2,-6.3516474E-3,4.419111E-2,-1.0474505E-2,1.6138054E-2,-2.1530075E-2,1.4220989E-1,-1.8988837E-2],"split_indices":[5,2,4,2,2,0,2,0,0,0,0,0,0,0,0],"split_type":[0,0,0,0,0,0,0,0,0,0,0,0,0,0,0],"sum_hessian":[3.7569785E3,2.9433396E3,8.13639E2,2.4056602E3,5.376795E2,7.9390375E2,1.9735203E1,1.01809924E3,1.3875608E3,2.9188348E2,2.4579602E2,1.4405649E2,6.498473E2,1.274151E1,6.9936934E0],"tree_param":{"num_deleted":"0","num_feature":"16","num_nodes":"15","size_leaf_vector":"1"}},{"base_weights":[-4.1547236E-3,1.6171932E-1,-3.6883693E-2,2.4722515E-1,6.700644E-2,1.0176956E-1,-8.875718E-2,3.5788737E-2,4.992399E-3,-3.0006245E-3,3.88909E-2,-7.706343E-2,1.2741131E-2,-1.3045941E-1,-7.4328757E-3],"categories":[],"categories_nodes":[],"categories_segments":[],"categories_sizes":[],"default_left":[0,0,0,0,0,0,0,0,0,0,0,0,0,0,0],"id":48,"left_children":[1,3,5,7,9,11,13,-1,-1,-1,-1,-1,-1,-1,-1],"loss_changes":[2.0304743E1,4.975054E0,2.2475794E1,7.046543E0,9.186916E0,1.9133389E1,3.979039E1,0E0,0E0,0E0,0E0,0E0,0E0,0E0,0E0],"parents":[2147483647,0,0,1,1,2,2,3,3,4,4,5,5,6,6],"right_children":[2,4,6,8,10,12,14,-1,-1,-1,-1,-1,-1,-1,-1],"split_conditions":[-5.4E-1,3.24E0,2.55E0,3E0,2.91E0,1E0,2.57E0,3.5788737E-2,4.992399E-3,-3.0006245E-3,3.88909E-2,-7.706343E-2,1.2741131E-2,-1.3045941E-1,-7.4328757E-3],"split_indices":[10,0,0,2,7,2,0,0,0,0,0,0,0,0,0],"split_type":[0,0,0,0,0,0,0,0,0,0,0,0,0,0,0],"sum_hessian":[3.7380315E3,6.153629E2,3.1226687E3,3.225541E2,2.928088E2,8.4992694E2,2.2727417E3,2.0612749E2,1.1642663E2,2.2569675E2,6.711208E1,2.3438257E1,8.264887E2,2.5605783E1,2.247136E3],"tree_param":{"num_deleted":"0","num_feature":"16","num_nodes":"15","size_leaf_vector":"1"}},{"base_weights":[5.7649226E-3,-4.5336526E-2,1.2022164E-1,4.4768203E-2,-1.5954216E-1,2.0514874E-1,-1.1820714E-1,-1.1760406E-2,1.1214045E-2,-8.318117E-3,-4.8977226E-2,3.1234638E-3,4.3252002E-2,5.51349E-2,-2.034042E-2],"categories":[],"categories_nodes":[],"categories_segments":[],"categories_sizes":[],"default_left":[0,0,0,0,0,0,0,0,0,0,0,0,0,0,0],"id":49,"left_children":[1,3,5,7,9,11,13,-1,-1,-1,-1,-1,-1,-1,-1],"loss_changes":[2.1824337E1,2.6553576E1,2.334535E1,1.5796428E1,2.8653849E1,3.3581837E1,1.740358E1,0E0,0E0,0E0,0E0,0E0,0E0,0E0,0E0],"parents":[2147483647,0,0,1,1,2,2,3,3,4,4,5,5,6,6],"right_children":[2,4,6,8,10,12,14,-1,-1,-1,-1,-1,-1,-1,-1],"split_conditions":[3E0,2E0,5E0,1E0,1E0,2.95E0,-5.1E-1,-1.1760406E-2,1.1214045E-2,-8.318117E-3,-4.8977226E-2,3.1234638E-3,4.3252002E-2,5.51349E-2,-2.034042E-2],"split_indices":[2,2,2,2,4,5,10,0,0,0,0,0,0,0,0],"split_type":[0,0,0,0,0,0,0,0,0,0,0,0,0,0,0],"sum_hessian":[3.729423E3,2.578711E3,1.1507123E3,1.4417905E3,1.1369204E3,8.4858887E2,3.0212338E2,4.2258432E2,1.01920624E3,9.244146E2,2.1250577E2,4.814612E2,3.6712766E2,3.3486275E1,2.6863712E2],"tree_param":{"num_deleted":"0","num_feature":"16","num_nodes":"15","size_leaf_vector":"1"}},{"base_weights":[1.1556174E-2,-2.8875373E-2,1.0070734E-1,-4.5020796E-2,4.118992E-1,1.8322377E-1,-1.3157934E-1,-5.416921E-4,-3.0796114E-2,9.016244E-2,9.478136E-3,-3.1565947E-3,3.2761868E-2,-1.9371843E-2,6.4620174E-2],"categories":[],"categories_nodes":[],"categories_segments":[],"categories_sizes":[],"default_left":[0,0,0,0,0,0,0,0,0,0,0,0,0,0,0],"id":50,"left_children":[1,3,5,7,9,11,13,-1,-1,-1,-1,-1,-1,-1,-1],"loss_changes":[1.348533E1,1.8337364E1,2.2397995E1,2.5866194E1,1.4055671E1,2.6736586E1,1.4941004E1,0E0,0E0,0E0,0E0,0E0,0E0,0E0,0E0],"parents":[2147483647,0,0,1,1,2,2,3,3,4,4,5,5,6,6],"right_children":[2,4,6,8,10,12,14,-1,-1,-1,-1,-1,-1,-1,-1],"split_conditions":[3E0,3.86E0,5E0,3.56E0,3.92E0,-2.4E-1,1E0,-5.416921E-4,-3.0796114E-2,9.016244E-2,9.478136E-3,-3.1565947E-3,3.2761868E-2,-1.9371843E-2,6.4620174E-2],"split_indices":[2,5,2,5,5,10,4,0,0,0,0,0,0,0,0],"split_type":[0,0,0,0,0,0,0,0,0,0,0,0,0,0,0],"sum_hessian":[3.7394211E3,2.5731367E3,1.1662844E3,2.48308E3,9.005651E1,8.607329E2,3.055515E2,2.158925E3,3.2415503E2,3.467096E1,5.5385555E1,3.4633514E2,5.1439777E2,2.8364154E2,2.190998E1],"tree_param":{"num_deleted":"0","num_feature":"16","num_nodes":"15","size_leaf_vector":"1"}},{"base_weights":[2.4208816E-2,1.3013345E-2,3.5639918E-1,-6.20048E-1,1.743288E-2,2.5113586E-1,7.8507483E-1,-2.6652342E-2,-1.1562281E-1,3.8042832E-2,3.9939754E-4,7.7357575E-2,1.1704537E-2,3.0862754E-2,9.777828E-2],"categories":[],"categories_nodes":[],"categories_segments":[],"categories_sizes":[],"default_left":[0,0,0,0,0,0,0,0,0,0,0,0,0,0,0],"id":51,"left_children":[1,3,5,7,9,11,13,-1,-1,-1,-1,-1,-1,-1,-1],"loss_changes":[1.3856043E1,1.0101182E1,5.2841663E0,4.4364347E0,1.7474659E1,6.8445106E0,1.8538132E0,0E0,0E0,0E0,0E0,0E0,0E0,0E0,0E0],"parents":[2147483647,0,0,1,1,2,2,3,3,4,4,5,5,6,6],"right_children":[2,4,6,8,10,12,14,-1,-1,-1,-1,-1,-1,-1,-1],"split_conditions":[7E0,1.77E0,3.09E0,1.64E0,2.03E0,1.64E0,1E0,-2.6652342E-2,-1.1562281E-1,3.8042832E-2,3.9939754E-4,7.7357575E-2,1.1704537E-2,3.0862754E-2,9.777828E-2],"split_indices":[3,0,0,0,0,8,1,0,0,0,0,0,0,0,0],"split_type":[0,0,0,0,0,0,0,0,0,0,0,0,0,0,0],"sum_hessian":[3.725964E3,3.605491E3,1.20472984E2,2.4030468E1,3.5814607E3,9.799556E1,2.247743E1,1.5384163E1,8.646305E0,1.2688512E2,3.4545754E3,1.9040682E1,7.895487E1,7.222412E0,1.5255018E1],"tree_param":{"num_deleted":"0","num_feature":"16","num_nodes":"15","size_leaf_vector":"1"}},{"base_weights":[8.108686E-4,2.3266456E-1,-1.3831281E-2,2.5167966E-1,-1.5050326E-1,-2.500544E-2,3.240231E-1,4.556791E-3,4.254038E-2,8.7993295E-4,-1.8956434E-2,4.0048506E-2,-1.0148666E-1],"categories":[],"categories_nodes":[],"categories_segments":[],"categories_sizes":[],"default_left":[0,0,0,0,0,0,0,0,0,0,0,0,0],"id":52,"left_children":[1,3,5,7,-1,9,11,-1,-1,-1,-1,-1,-1],"loss_changes":[1.2728276E1,7.7377834E0,1.3322022E1,7.899564E0,0E0,1.899703E1,1.1972386E1,0E0,0E0,0E0,0E0,0E0,0E0],"parents":[2147483647,0,0,1,1,2,2,3,3,5,5,6,6],"right_children":[2,4,6,8,-1,10,12,-1,-1,-1,-1,-1,-1],"split_conditions":[1.94E0,9E0,3.86E0,1E0,-1.5050326E-1,3.44E0,5E0,4.556791E-3,4.254038E-2,8.7993295E-4,-1.8956434E-2,4.0048506E-2,-1.0148666E-1],"split_indices":[5,4,5,1,0,5,2,0,0,0,0,0,0],"split_type":[0,0,0,0,0,0,0,0,0,0,0,0,0],"sum_hessian":[3.7473567E3,2.2171301E2,3.5256438E3,2.2015904E2,1.5539719E0,3.4136665E3,1.1197724E2,1.0127065E2,1.1888839E2,2.832701E3,5.809655E2,1.0659088E2,5.3863616E0],"tree_param":{"num_deleted":"0","num_feature":"16","num_nodes":"13","size_leaf_vector":"1"}},{"base_weights":[-1.164976E-2,-5.0767116E-2,7.620343E-2,3.712139E-2,-1.6066614E-1,4.9984068E-2,7.179557E-1,1.61263E-2,-3.735246E-3,-8.761852E-3,-4.7220573E-2,1.2394976E-2,-1.5814332E-2,8.232778E-2,-1.10434905E-1],"categories":[],"categories_nodes":[],"categories_segments":[],"categories_sizes":[],"default_left":[0,0,0,0,0,0,0,0,0,0,0,0,0,0,0],"id":53,"left_children":[1,3,5,7,9,11,13,-1,-1,-1,-1,-1,-1,-1,-1],"loss_changes":[1.2782244E1,2.4861914E1,1.9246296E1,1.3233199E1,2.598587E1,1.6984816E1,9.528019E0,0E0,0E0,0E0,0E0,0E0,0E0,0E0,0E0],"parents":[2147483647,0,0,1,1,2,2,3,3,4,4,5,5,6,6],"right_children":[2,4,6,8,10,12,14,-1,-1,-1,-1,-1,-1,-1,-1],"split_conditions":[3E0,2E0,2E0,2.94E0,1E0,5E0,6.6E-1,1.61263E-2,-3.735246E-3,-8.761852E-3,-4.7220573E-2,1.2394976E-2,-1.5814332E-2,8.232778E-2,-1.10434905E-1],"split_indices":[2,2,4,7,4,2,10,0,0,0,0,0,0,0,0],"split_type":[0,0,0,0,0,0,0,0,0,0,0,0,0,0,0],"sum_hessian":[3.7173357E3,2.572383E3,1.1449526E3,1.4296917E3,1.1426915E3,1.1010463E3,4.3906338E1,5.356474E2,8.940442E2,9.2668915E2,2.1600237E2,8.1264685E2,2.8839938E2,4.2025642E1,1.8806975E0],"tree_param":{"num_deleted":"0","num_feature":"16","num_nodes":"15","size_leaf_vector":"1"}},{"base_weights":[1.0940504E-3,2.0620702E-1,-1.5863348E-2,5.533968E-2,3.3083117E-1,-4.3565657E-2,1.19760044E-1,-1.6735343E-2,2.4559464E-2,7.4198164E-2,1.8011509E-2,-1.685583E-1,-3.9056109E-3,3.414712E-2,-1.2931988E-2],"categories":[],"categories_nodes":[],"categories_segments":[],"categories_sizes":[],"default_left":[0,0,0,0,0,0,0,0,0,0,0,0,0,0,0],"id":54,"left_children":[1,3,5,7,9,11,13,-1,-1,-1,-1,-1,-1,-1,-1],"loss_changes":[1.298328E1,5.340864E0,1.2958887E1,5.5550523E0,9.526606E0,2.1139465E1,3.2353485E1,0E0,0E0,0E0,0E0,0E0,0E0,0E0,0E0],"parents":[2147483647,0,0,1,1,2,2,3,3,4,4,5,5,6,6],"right_children":[2,4,6,8,10,12,14,-1,-1,-1,-1,-1,-1,-1,-1],"split_conditions":[2.03E0,1E0,4E0,-6.5E-1,1E0,2.07E0,5E0,-1.6735343E-2,2.4559464E-2,7.4198164E-2,1.8011509E-2,-1.685583E-1,-3.9056109E-3,3.414712E-2,-1.2931988E-2],"split_indices":[5,1,2,10,3,5,2,0,0,0,0,0,0,0,0],"split_type":[0,0,0,0,0,0,0,0,0,0,0,0,0,0,0],"sum_hessian":[3.7308376E3,2.8403632E2,3.4468013E3,1.291428E2,1.548935E2,2.8627395E3,5.8406177E2,5.955461E1,6.95882E1,4.0496582E1,1.1439691E2,6.819561E0,2.85592E3,3.0881146E2,2.752503E2],"tree_param":{"num_deleted":"0","num_feature":"16","num_nodes":"15","size_leaf_vector":"1"}},{"base_weights":[-2.0117536E-2,4.375172E-2,-9.8546825E-2,1.6163826E-1,-9.30522E-3,-1.4410795E-1,2.152143E-1,1.8208433E-2,-1.4180551E-1,6.412891E-4,-7.7683754E-2,-1.8298477E-2,2.4003753E-2,3.0606562E-2,-3.258724E-2],"categories":[],"categories_nodes":[],"categories_segments":[],"categories_sizes":[],"default_left":[0,0,0,0,0,0,0,0,0,0,0,0,0,0,0],"id":55,"left_children":[1,3,5,7,9,11,13,-1,-1,-1,-1,-1,-1,-1,-1],"loss_changes":[1.8519495E1,1.274797E1,2.3751495E1,2.0689356E1,1.6971163E1,2.1691565E1,1.0462258E1,0E0,0E0,0E0,0E0,0E0,0E0,0E0,0E0],"parents":[2147483647,0,0,1,1,2,2,3,3,4,4,5,5,6,6],"right_children":[2,4,6,8,10,12,14,-1,-1,-1,-1,-1,-1,-1,-1],"split_conditions":[3.05E0,2E0,8.8E-1,8E0,7.9E-1,2E0,2.67E0,1.8208433E-2,-1.4180551E-1,6.412891E-4,-7.7683754E-2,-1.8298477E-2,2.4003753E-2,3.0606562E-2,-3.258724E-2],"split_indices":[5,2,10,4,10,3,0,0,0,0,0,0,0,0,0],"split_type":[0,0,0,0,0,0,0,0,0,0,0,0,0,0,0],"sum_hessian":[3.695221E3,2.0369022E3,1.6583187E3,6.315726E2,1.4053296E3,1.4485203E3,2.0979836E2,6.24376E2,7.1966E0,1.3780995E3,2.7230125E1,1.3158732E3,1.3264713E2,1.8000835E2,2.979001E1],"tree_param":{"num_deleted":"0","num_feature":"16","num_nodes":"15","size_leaf_vector":"1"}},{"base_weights":[-1.8820979E-3,1.1477803E-1,-3.3316076E-2,2.6797462E-1,4.5599863E-2,2.2638598E-1,-4.9190544E-2,1.5070508E-2,8.1744395E-2,3.7981685E-2,-3.1125983E-3,2.6337817E-2,-1.6775797E-1,-6.223619E-3,2.6991239E-2],"categories":[],"categories_nodes":[],"categories_segments":[],"categories_sizes":[],"default_left":[0,0,0,0,0,0,0,0,0,0,0,0,0,0,0],"id":56,"left_children":[1,3,5,7,9,11,13,-1,-1,-1,-1,-1,-1,-1,-1],"loss_changes":[1.3533654E1,8.289631E0,1.1996345E1,1.5566107E1,1.3881277E1,1.2249393E1,1.1425358E1,0E0,0E0,0E0,0E0,0E0,0E0,0E0,0E0],"parents":[2147483647,0,0,1,1,2,2,3,3,4,4,5,5,6,6],"right_children":[2,4,6,8,10,12,14,-1,-1,-1,-1,-1,-1,-1,-1],"split_conditions":[-4.4E-1,1E0,2.03E0,3.53E0,1.94E0,3.68E0,3.86E0,1.5070508E-2,8.1744395E-2,3.7981685E-2,-3.1125983E-3,2.6337817E-2,-1.6775797E-1,-6.223619E-3,2.6991239E-2],"split_indices":[10,1,0,0,5,5,7,0,0,0,0,0,0,0,0],"split_type":[0,0,0,0,0,0,0,0,0,0,0,0,0,0,0],"sum_hessian":[3.688526E3,7.8235187E2,2.906174E3,2.4248648E2,5.398654E2,1.6664503E2,2.739529E3,2.0088683E2,4.1599644E1,1.0005903E2,4.3980637E2,1.6431424E2,2.3307974E0,2.6327031E3,1.0682585E2],"tree_param":{"num_deleted":"0","num_feature":"16","num_nodes":"15","size_leaf_vector":"1"}},{"base_weights":[-4.4483426E-3,2.5741791E-2,-1.3894962E-1,1.9966044E-2,6.296481E-1,-2.1756603E-1,1.3140862E-1,2.7731885E-3,-3.6951475E-2,9.8280184E-2,9.580889E-3,6.545478E-2,-2.5659144E-2,-1.366208E-1,2.7694253E-2],"categories":[],"categories_nodes":[],"categories_segments":[],"categories_sizes":[],"default_left":[0,0,0,0,0,0,0,0,0,0,0,0,0,0,0],"id":57,"left_children":[1,3,5,7,9,11,13,-1,-1,-1,-1,-1,-1,-1,-1],"loss_changes":[1.4982767E1,1.0498613E1,1.4404788E1,9.041849E0,5.2817802E0,1.8015127E1,3.3724747E1,0E0,0E0,0E0,0E0,0E0,0E0,0E0,0E0],"parents":[2147483647,0,0,1,1,2,2,3,3,4,4,5,5,6,6],"right_children":[2,4,6,8,10,12,14,-1,-1,-1,-1,-1,-1,-1,-1],"split_conditions":[3.44E0,1.2E1,3E0,3.76E0,2.5E0,2.27E0,2.61E0,2.7731885E-3,-3.6951475E-2,9.8280184E-2,9.580889E-3,6.545478E-2,-2.5659144E-2,-1.366208E-1,2.7694253E-2],"split_indices":[5,3,2,0,5,0,0,0,0,0,0,0,0,0,0],"split_type":[0,0,0,0,0,0,0,0,0,0,0,0,0,0,0],"sum_hessian":[3.6878997E3,3.0125188E3,6.7538086E2,2.9850034E3,2.751545E1,5.233835E2,1.5199734E2,2.9275598E3,5.7443695E1,1.6054089E1,1.1461361E1,2.1741714E1,5.0164178E2,1.2719525E1,1.3927782E2],"tree_param":{"num_deleted":"0","num_feature":"16","num_nodes":"15","size_leaf_vector":"1"}},{"base_weights":[-1.3463907E-2,-2.9516589E-2,2.5398943E-1,8.229083E-2,-5.7347547E-2,1.18997775E-1,4.7355545E-1,2.6330275E-2,7.2065013E-4,-1.8286368E-2,-2.816559E-3,3.8023762E-2,-1.0488596E-2,3.6153212E-2,9.7975455E-2],"categories":[],"categories_nodes":[],"categories_segments":[],"categories_sizes":[],"default_left":[0,0,0,0,0,0,0,0,0,0,0,0,0,0,0],"id":58,"left_children":[1,3,5,7,9,11,13,-1,-1,-1,-1,-1,-1,-1,-1],"loss_changes":[1.5705059E1,1.0740508E1,6.082856E0,9.349451E0,1.0115481E1,7.6200595E0,4.0986347E0,0E0,0E0,0E0,0E0,0E0,0E0,0E0,0E0],"parents":[2147483647,0,0,1,1,2,2,3,3,4,4,5,5,6,6],"right_children":[2,4,6,8,10,12,14,-1,-1,-1,-1,-1,-1,-1,-1],"split_conditions":[5E0,-4.5E-1,2.83E0,1E0,-1.8E-1,2.21E0,3.42E0,2.6330275E-2,7.2065013E-4,-1.8286368E-2,-2.816559E-3,3.8023762E-2,-1.0488596E-2,3.6153212E-2,9.7975455E-2],"split_indices":[3,10,0,1,10,5,7,0,0,0,0,0,0,0,0],"split_type":[0,0,0,0,0,0,0,0,0,0,0,0,0,0,0],"sum_hessian":[3.655256E3,3.4491274E3,2.0612872E2,6.870465E2,2.7620808E3,1.286037E2,7.752502E1,2.0069879E2,4.8634772E2,5.2004034E2,2.2420405E3,5.90281E1,6.95756E1,6.48809E1,1.2644123E1],"tree_param":{"num_deleted":"0","num_feature":"16","num_nodes":"15","size_leaf_vector":"1"}},{"base_weights":[1.5083217E-2,6.387817E-3,4.341593E-1,2.5294138E-2,-1.6940027E-1,6.258052E-1,-5.9291613E-1,7.597433E-3,-3.93215E-3,-1.9417835E-2,1.287799E-1,8.742247E-2,1.3203988E-2,-1.6595043E-1,5.439161E-2],"categories":[],"categories_nodes":[],"categories_segments":[],"categories_sizes":[],"default_left":[0,0,0,0,0,0,0,0,0,0,0,0,0,0,0],"id":59,"left_children":[1,3,5,7,9,11,13,-1,-1,-1,-1,-1,-1,-1,-1],"loss_changes":[1.3468468E1,1.2044226E1,1.5159352E1,1.0717077E1,1.2956627E1,7.710661E0,1.5850592E1,0E0,0E0,0E0,0E0,0E0,0E0,0E0,0E0],"parents":[2147483647,0,0,1,1,2,2,3,3,4,4,5,5,6,6],"right_children":[2,4,6,8,10,12,14,-1,-1,-1,-1,-1,-1,-1,-1],"split_conditions":[5E0,1E0,1E1,3.04E0,3.78E0,2E0,2.88E0,7.597433E-3,-3.93215E-3,-1.9417835E-2,1.287799E-1,8.742247E-2,1.3203988E-2,-1.6595043E-1,5.439161E-2],"split_indices":[4,4,4,0,5,3,0,0,0,0,0,0,0,0,0],"split_type":[0,0,0,0,0,0,0,0,0,0,0,0,0,0,0],"sum_hessian":[3.6957932E3,3.6216626E3,7.413055E1,3.2707444E3,3.5091824E2,6.2802658E1,1.1327892E1,1.8329359E3,1.4378083E3,3.459033E2,5.014958E0,4.1269123E1,2.1533535E1,5.6073008E0,5.7205915E0],"tree_param":{"num_deleted":"0","num_feature":"16","num_nodes":"15","size_leaf_vector":"1"}},{"base_weights":[1.156242E-2,8.470998E-2,-3.3736236E-2,6.1689958E-2,3.3920977E-1,-7.9261506E-1,-1.8257344E-2,8.451605E-3,-2.4856983E-2,7.541489E-2,2.4633627E-2,-1.0845015E-1,1.0175373E-2,-7.4429356E-4,-6.3448E-2],"categories":[],"categories_nodes":[],"categories_segments":[],"categories_sizes":[],"default_left":[0,0,0,0,0,0,0,0,0,0,0,0,0,0,0],"id":60,"left_children":[1,3,5,7,9,11,13,-1,-1,-1,-1,-1,-1,-1,-1],"loss_changes":[1.2257426E1,8.267221E0,2.6822887E1,9.217535E0,4.3278866E0,1.2026396E1,1.4923125E1,0E0,0E0,0E0,0E0,0E0,0E0,0E0,0E0],"parents":[2147483647,0,0,1,1,2,2,3,3,4,4,5,5,6,6],"right_children":[2,4,6,8,10,12,14,-1,-1,-1,-1,-1,-1,-1,-1],"split_conditions":[2.77E0,2.73E0,2.79E0,2.69E0,-4.4E-1,3.39E0,7.5E-1,8.451605E-3,-2.4856983E-2,7.541489E-2,2.4633627E-2,-1.0845015E-1,1.0175373E-2,-7.4429356E-4,-6.3448E-2],"split_indices":[0,0,0,0,10,5,10,0,0,0,0,0,0,0,0],"split_type":[0,0,0,0,0,0,0,0,0,0,0,0,0,0,0],"sum_hessian":[3.6973914E3,1.4137003E3,2.2836912E3,1.2975745E3,1.1612583E2,4.4645866E1,2.2390452E3,1.2093306E3,8.8243935E1,1.993597E1,9.618986E1,3.3500156E1,1.1145709E1,2.2014233E3,3.762184E1],"tree_param":{"num_deleted":"0","num_feature":"16","num_nodes":"15","size_leaf_vector":"1"}},{"base_weights":[-2.0024479E-4,2.9421386E-3,-9.658388E-1,-6.2696026E-3,5.4795665E-1,-1.4908323E0,3.5476002E-1,-1.754961E-3,2.7427275E-2,2.5114093E-2,8.04244E-2,-1.7787865E-1,-4.222846E-2,1.1134036E-1,-6.727602E-2],"categories":[],"categories_nodes":[],"categories_segments":[],"categories_sizes":[],"default_left":[0,0,0,0,0,0,0,0,0,0,0,0,0,0,0],"id":61,"left_children":[1,3,5,7,9,11,13,-1,-1,-1,-1,-1,-1,-1,-1],"loss_changes":[1.1112573E1,1.833026E1,8.7645645E0,1.1367625E1,4.4142475E0,1.9233189E0,4.012766E0,0E0,0E0,0E0,0E0,0E0,0E0,0E0,0E0],"parents":[2147483647,0,0,1,1,2,2,3,3,4,4,5,5,6,6],"right_children":[2,4,6,8,10,12,14,-1,-1,-1,-1,-1,-1,-1,-1],"split_conditions":[1E1,5E0,3.29E0,6E0,2.72E0,4E0,3.39E0,-1.754961E-3,2.7427275E-2,2.5114093E-2,8.04244E-2,-1.7787865E-1,-4.222846E-2,1.1134036E-1,-6.727602E-2],"split_indices":[4,4,0,3,7,2,0,0,0,0,0,0,0,0,0],"split_type":[0,0,0,0,0,0,0,0,0,0,0,0,0,0,0],"sum_hessian":[3.6602532E3,3.6493743E3,1.087885E1,3.5896904E3,5.9683834E1,7.692036E0,3.1868143E0,3.451837E3,1.3785353E2,2.8572683E1,3.1111149E1,5.5356135E0,2.1564226E0,1.7851849E0,1.4016294E0],"tree_param":{"num_deleted":"0","num_feature":"16","num_nodes":"15","size_leaf_vector":"1"}},{"base_weights":[7.924134E-3,1.08353505E-2,-9.7774106E-1,3.3928836E-3,4.6261126E-1,-1.3298603E0,4.733673E-2,1.9336392E-3,-1.47601245E-2,1.639517E-2,8.5872896E-2,-1.9902876E-2,-1.5098874E-1],"categories":[],"categories_nodes":[],"categories_segments":[],"categories_sizes":[],"default_left":[0,0,0,0,0,0,0,0,0,0,0,0,0],"id":62,"left_children":[1,3,5,7,9,11,-1,-1,-1,-1,-1,-1,-1],"loss_changes":[1.0498753E1,1.22550955E1,6.134942E0,8.638643E0,6.8475857E0,1.5181017E0,0E0,0E0,0E0,0E0,0E0,0E0,0E0],"parents":[2147483647,0,0,1,1,2,2,3,3,4,4,5,5],"right_children":[2,4,6,8,10,12,-1,-1,-1,-1,-1,-1,-1],"split_conditions":[1E1,5E0,3.35E0,1E0,1.7E-1,2.8E1,4.733673E-2,1.9336392E-3,-1.47601245E-2,1.639517E-2,8.5872896E-2,-1.9902876E-2,-1.5098874E-1],"split_indices":[4,4,0,4,10,4,0,0,0,0,0,0,0],"split_type":[0,0,0,0,0,0,0,0,0,0,0,0,0],"sum_hessian":[3.6540667E3,3.644292E3,9.77461E0,3.5862207E3,5.8071182E1,7.933145E0,1.841465E0,3.2445046E3,3.4171613E2,3.39146E1,2.4156584E1,1.3786656E0,6.554479E0],"tree_param":{"num_deleted":"0","num_feature":"16","num_nodes":"13","size_leaf_vector":"1"}},{"base_weights":[-6.4356267E-3,3.00223E-1,-1.4890327E-2,7.579766E-1,9.0347074E-2,-5.926475E-1,-8.046534E-3,9.29405E-2,-2.6714152E-2,-2.239362E-2,5.936755E-2,-1.0479001E-1,-3.3333504E-3,-1.1858532E-3,5.1415708E-2],"categories":[],"categories_nodes":[],"categories_segments":[],"categories_sizes":[],"default_left":[0,0,0,0,0,0,0,0,0,0,0,0,0,0,0],"id":63,"left_children":[1,3,5,7,9,11,13,-1,-1,-1,-1,-1,-1,-1,-1],"loss_changes":[9.475875E0,9.352497E0,1.40559635E1,5.64184E0,1.0948351E1,1.0561695E1,7.0040216E0,0E0,0E0,0E0,0E0,0E0,0E0,0E0,0E0],"parents":[2147483647,0,0,1,1,2,2,3,3,4,4,5,5,6,6],"right_children":[2,4,6,8,10,12,14,-1,-1,-1,-1,-1,-1,-1,-1],"split_conditions":[-1.2E0,1E0,-1.05E0,2.35E0,4E0,2E0,1.51E0,9.29405E-2,-2.6714152E-2,-2.239362E-2,5.936755E-2,-1.0479001E-1,-3.3333504E-3,-1.1858532E-3,5.1415708E-2],"split_indices":[10,3,10,5,3,3,10,0,0,0,0,0,0,0,0],"split_type":[0,0,0,0,0,0,0,0,0,0,0,0,0,0,0],"sum_hessian":[3.6520947E3,9.706222E1,3.5550327E3,2.9691504E1,6.737072E1,4.0615917E1,3.5144167E3,2.551761E1,4.173892E0,4.1815678E1,2.5555038E1,2.1909323E1,1.8706594E1,3.4899182E3,2.4498518E1],"tree_param":{"num_deleted":"0","num_feature":"16","num_nodes":"15","size_leaf_vector":"1"}},{"base_weights":[-2.2733582E-3,-3.9075885E-2,7.87534E-2,2.5143469E-2,-1.18577674E-1,1.5543342E-1,-1.4015934E-1,4.2597316E-2,6.9980574E-4,-5.9506795E-3,-3.640444E-2,7.1973685E-4,3.53312E-2,2.6312738E-3,-6.5589376E-2],"categories":[],"categories_nodes":[],"categories_segments":[],"categories_sizes":[],"default_left":[0,0,0,0,0,0,0,0,0,0,0,0,0,0,0],"id":64,"left_children":[1,3,5,7,9,11,13,-1,-1,-1,-1,-1,-1,-1,-1],"loss_changes":[1.090876E1,1.2846388E1,1.920187E1,1.0123949E1,1.6279411E1,2.483281E1,2.5510378E1,0E0,0E0,0E0,0E0,0E0,0E0,0E0,0E0],"parents":[2147483647,0,0,1,1,2,2,3,3,4,4,5,5,6,6],"right_children":[2,4,6,8,10,12,14,-1,-1,-1,-1,-1,-1,-1,-1],"split_conditions":[3E0,2E0,5E0,2.03E0,1E0,2.95E0,2.99E0,4.2597316E-2,6.9980574E-4,-5.9506795E-3,-3.640444E-2,7.1973685E-4,3.53312E-2,2.6312738E-3,-6.5589376E-2],"split_indices":[2,2,2,0,4,7,0,0,0,0,0,0,0,0,0],"split_type":[0,0,0,0,0,0,0,0,0,0,0,0,0,0,0],"sum_hessian":[3.6561838E3,2.5145757E3,1.1416079E3,1.3913585E3,1.1232173E3,8.45677E2,2.9593094E2,5.9285015E1,1.3320735E3,9.063493E2,2.16868E2,4.8407788E2,3.6159912E2,2.2443527E2,7.1495674E1],"tree_param":{"num_deleted":"0","num_feature":"16","num_nodes":"15","size_leaf_vector":"1"}},{"base_weights":[2.7446882E-3,-5.7785576E-3,2.7363342E-1,2.2979893E-2,-1.22557804E-1,7.131613E-1,5.387818E-3,-3.0456567E-3,9.4657075E-3,-2.0375503E-2,2.0325728E-2,1.2727524E-1,-4.2738397E-2,-1.6875789E-2,1.8508595E-1],"categories":[],"categories_nodes":[],"categories_segments":[],"categories_sizes":[],"default_left":[0,0,0,0,0,0,0,0,0,0,0,0,0,0,0],"id":65,"left_children":[1,3,5,7,9,11,13,-1,-1,-1,-1,-1,-1,-1,-1],"loss_changes":[8.494535E0,1.1982881E1,1.3228048E1,1.0969294E1,1.8693508E1,2.768626E1,2.303448E1,0E0,0E0,0E0,0E0,0E0,0E0,0E0,0E0],"parents":[2147483647,0,0,1,1,2,2,3,3,4,4,5,5,6,6],"right_children":[2,4,6,8,10,12,14,-1,-1,-1,-1,-1,-1,-1,-1],"split_conditions":[3.86E0,3.39E0,3.92E0,2.97E0,1E0,3.54E0,3.96E0,-3.0456567E-3,9.4657075E-3,-2.0375503E-2,2.0325728E-2,1.2727524E-1,-4.2738397E-2,-1.6875789E-2,1.8508595E-1],"split_indices":[7,5,5,0,3,0,0,0,0,0,0,0,0,0,0],"split_type":[0,0,0,0,0,0,0,0,0,0,0,0,0,0,0],"sum_hessian":[3.6774329E3,3.5662043E3,1.1122842E2,2.8621619E3,7.040424E2,4.1526875E1,6.9701546E1,1.6400522E3,1.2221096E3,5.6388885E2,1.4015358E2,2.7780754E1,1.3746119E1,6.45216E1,5.179947E0],"tree_param":{"num_deleted":"0","num_feature":"16","num_nodes":"15","size_leaf_vector":"1"}},{"base_weights":[1.1680059E-3,6.7047335E-2,-4.6847492E-2,7.260756E-2,-1.342488E0,1.3063833E-2,-1.8821019E-1,5.1551247E-3,3.646778E-2,-1.6692631E-1,1.0878233E-2,5.557719E-4,8.040967E-2,-2.062103E-2,8.255618E-2],"categories":[],"categories_nodes":[],"categories_segments":[],"categories_sizes":[],"default_left":[0,0,0,0,0,0,0,0,0,0,0,0,0,0,0],"id":66,"left_children":[1,3,5,7,9,11,13,-1,-1,-1,-1,-1,-1,-1,-1],"loss_changes":[1.1599991E1,1.22137985E1,1.7967113E1,9.457306E0,3.0866747E0,8.846778E0,1.1692986E1,0E0,0E0,0E0,0E0,0E0,0E0,0E0,0E0],"parents":[2147483647,0,0,1,1,2,2,3,3,4,4,5,5,6,6],"right_children":[2,4,6,8,10,12,14,-1,-1,-1,-1,-1,-1,-1,-1],"split_conditions":[2.83E0,2.8E1,9E-2,2.79E0,1E1,3.92E0,5E0,5.1551247E-3,3.646778E-2,-1.6692631E-1,1.0878233E-2,5.557719E-4,8.040967E-2,-2.062103E-2,8.255618E-2],"split_indices":[0,4,10,0,3,7,4,0,0,0,0,0,0,0,0],"split_type":[0,0,0,0,0,0,0,0,0,0,0,0,0,0,0],"sum_hessian":[3.665143E3,1.5449747E3,2.1201682E3,1.539849E3,5.125789E0,1.4897155E3,6.304529E2,1.4373986E3,1.0245037E2,4.061152E0,1.0646368E0,1.47671E3,1.3005482E1,6.202368E2,1.0216061E1],"tree_param":{"num_deleted":"0","num_feature":"16","num_nodes":"15","size_leaf_vector":"1"}},{"base_weights":[1.6346519E-3,-8.147014E-3,2.3827033E-1,-5.4021375E-3,-1.4187132E-1,1.4980341E-1,5.7288826E-1,-1.8429809E-3,3.0769978E-2,5.9315633E-2,5.1751863E-3,1.8246349E-2,8.19681E-2],"categories":[],"categories_nodes":[],"categories_segments":[],"categories_sizes":[],"default_left":[0,0,0,0,0,0,0,0,0,0,0,0,0],"id":67,"left_children":[1,3,5,7,-1,9,11,-1,-1,-1,-1,-1,-1],"loss_changes":[8.426192E0,1.3528128E1,4.191869E0,1.4242083E1,0E0,4.996434E0,2.727725E0,0E0,0E0,0E0,0E0,0E0,0E0],"parents":[2147483647,0,0,1,1,2,2,3,3,5,5,6,6],"right_children":[2,4,6,8,-1,10,12,-1,-1,-1,-1,-1,-1],"split_conditions":[6E0,1E1,3.09E0,2E0,-1.4187132E-1,1.64E0,-6.8E-1,-1.8429809E-3,3.0769978E-2,5.9315633E-2,5.1751863E-3,1.8246349E-2,8.19681E-2],"split_indices":[3,4,0,4,0,5,10,0,0,0,0,0,0],"split_type":[0,0,0,0,0,0,0,0,0,0,0,0,0],"sum_hessian":[3.6384712E3,3.4949673E3,1.4350378E2,3.4891814E3,5.785907E0,1.1464216E2,2.8861624E1,3.350705E3,1.3847636E2,1.9847893E1,9.4794266E1,1.1851677E1,1.7009947E1],"tree_param":{"num_deleted":"0","num_feature":"16","num_nodes":"13","size_leaf_vector":"1"}},{"base_weights":[-4.08765E-3,1.0252727E-1,-3.193974E-2,1.1893971E-1,-3.20098E-1,3.486625E-2,-7.704259E-2,8.451404E-3,5.1209148E-2,1.0286658E-1,-7.062601E-2,7.95437E-4,4.8077296E-2,-1.8154485E-2,2.9177724E-3],"categories":[],"categories_nodes":[],"categories_segments":[],"categories_sizes":[],"default_left":[0,0,0,0,0,0,0,0,0,0,0,0,0,0,0],"id":68,"left_children":[1,3,5,7,9,11,13,-1,-1,-1,-1,-1,-1,-1,-1],"loss_changes":[1.0836568E1,5.2812195E0,8.720764E0,9.814851E0,1.5585321E1,1.3998024E1,1.918156E1,0E0,0E0,0E0,0E0,0E0,0E0,0E0,0E0],"parents":[2147483647,0,0,1,1,2,2,3,3,4,4,5,5,6,6],"right_children":[2,4,6,8,10,12,14,-1,-1,-1,-1,-1,-1,-1,-1],"split_conditions":[-4.5E-1,3.15E0,2E0,-4.8E-1,-6.2E-1,1E0,3E0,8.451404E-3,5.1209148E-2,1.0286658E-1,-7.062601E-2,7.95437E-4,4.8077296E-2,-1.8154485E-2,2.9177724E-3],"split_indices":[10,5,2,10,10,4,2,0,0,0,0,0,0,0,0],"split_type":[0,0,0,0,0,0,0,0,0,0,0,0,0,0,0],"sum_hessian":[3.6472512E3,7.5489813E2,2.892353E3,7.273697E2,2.7528477E1,1.1658024E3,1.7265507E3,6.699239E2,5.7445797E1,5.7569904E0,2.1771486E1,1.1004071E3,6.539522E1,8.699563E2,8.5659436E2],"tree_param":{"num_deleted":"0","num_feature":"16","num_nodes":"15","size_leaf_vector":"1"}},{"base_weights":[2.5811251E-3,-9.530292E-4,4.8146743E-1,-7.583661E-3,2.0545366E-1,6.125866E-1,-1.317456E-1,-3.691788E-3,5.665157E-3,4.3633625E-2,5.4168985E-3,9.021429E-2,1.8618044E-2],"categories":[],"categories_nodes":[],"categories_segments":[],"categories_sizes":[],"default_left":[0,0,0,0,0,0,0,0,0,0,0,0,0],"id":69,"left_children":[1,3,5,7,9,11,-1,-1,-1,-1,-1,-1,-1],"loss_changes":[6.142059E0,4.932947E0,7.078026E0,6.5820994E0,3.8948097E0,2.975871E0,0E0,0E0,0E0,0E0,0E0,0E0,0E0],"parents":[2147483647,0,0,1,1,2,2,3,3,4,4,5,5],"right_children":[2,4,6,8,10,12,-1,-1,-1,-1,-1,-1,-1],"split_conditions":[1.2E1,1.1E0,9.7E-1,3E0,2.05E0,2.5E0,-1.317456E-1,-3.691788E-3,5.665157E-3,4.3633625E-2,5.4168985E-3,9.021429E-2,1.8618044E-2],"split_indices":[3,10,10,2,0,5,0,0,0,0,0,0,0],"split_type":[0,0,0,0,0,0,0,0,0,0,0,0,0],"sum_hessian":[3.6278044E3,3.6022185E3,2.5586163E1,3.4910352E3,1.1118315E2,2.4462612E1,1.1235508E0,2.3968804E3,1.0941549E3,4.3267063E1,6.791609E1,1.3904742E1,1.055787E1],"tree_param":{"num_deleted":"0","num_feature":"16","num_nodes":"13","size_leaf_vector":"1"}},{"base_weights":[5.108267E-4,-1.69863E-1,2.116289E-2,-3.3505982E-1,4.7805095E-1,4.280808E-2,-1.3747047E-1,1.4308764E-1,-3.7664574E-2,2.8381025E-2,1.0802287E-1,6.2390044E-3,-1.4314107E-2,-4.3413336E-3,-5.284539E-2],"categories":[],"categories_nodes":[],"categories_segments":[],"categories_sizes":[],"default_left":[0,0,0,0,0,0,0,0,0,0,0,0,0,0,0],"id":70,"left_children":[1,3,5,7,9,11,13,-1,-1,-1,-1,-1,-1,-1,-1],"loss_changes":[1.2814623E1,4.230361E1,1.1159176E1,2.3623016E1,9.098431E0,1.0419248E1,1.4327948E1,0E0,0E0,0E0,0E0,0E0,0E0,0E0,0E0],"parents":[2147483647,0,0,1,1,2,2,3,3,4,4,5,5,6,6],"right_children":[2,4,6,8,10,12,14,-1,-1,-1,-1,-1,-1,-1,-1],"split_conditions":[1E0,1E0,1E0,-9.3E-1,3.47E0,5E0,3.23E0,1.4308764E-1,-3.7664574E-2,2.8381025E-2,1.0802287E-1,6.2390044E-3,-1.4314107E-2,-4.3413336E-3,-5.284539E-2],"split_indices":[2,3,4,10,0,2,0,0,0,0,0,0,0,0,0],"split_type":[0,0,0,0,0,0,0,0,0,0,0,0,0,0,0],"sum_hessian":[3.639974E3,3.9274133E2,3.247233E3,3.1333426E2,7.94071E1,2.8579954E3,3.892373E2,6.440303E0,3.0689395E2,6.115275E1,1.8254349E1,2.5863013E3,2.716942E2,3.1465356E2,7.458376E1],"tree_param":{"num_deleted":"0","num_feature":"16","num_nodes":"15","size_leaf_vector":"1"}},{"base_weights":[7.970089E-3,7.301643E-1,5.0682593E-3,3.6774817E-1,9.0419866E-2,-1.5839877E-2,1.0782257E-1,-5.6044864E-3,6.535389E-2,-2.1294923E-3,6.512971E-2,-2.3218216E-3,3.200506E-2],"categories":[],"categories_nodes":[],"categories_segments":[],"categories_sizes":[],"default_left":[0,0,0,0,0,0,0,0,0,0,0,0,0],"id":71,"left_children":[1,3,5,7,-1,9,11,-1,-1,-1,-1,-1,-1],"loss_changes":[7.629916E0,5.864816E-1,7.7981896E0,8.1327695E-1,0E0,1.0990893E1,1.707457E1,0E0,0E0,0E0,0E0,0E0,0E0],"parents":[2147483647,0,0,1,1,2,2,3,3,5,5,6,6],"right_children":[2,4,6,8,-1,10,12,-1,-1,-1,-1,-1,-1],"split_conditions":[9.2E-1,6E0,4E0,3.01E0,9.0419866E-2,1.51E0,1E0,-5.6044864E-3,6.535389E-2,-2.1294923E-3,6.512971E-2,-2.3218216E-3,3.200506E-2],"split_indices":[5,3,2,0,0,10,1,0,0,0,0,0,0],"split_type":[0,0,0,0,0,0,0,0,0,0,0,0,0],"sum_hessian":[3.64154E3,1.3570436E1,3.6279695E3,5.4124374E0,8.157998E0,3.0152761E3,6.126934E2,2.5036793E0,2.9087584E0,2.991781E3,2.3495123E1,3.7935205E2,2.3334137E2],"tree_param":{"num_deleted":"0","num_feature":"16","num_nodes":"13","size_leaf_vector":"1"}},{"base_weights":[-1.1529718E-2,1.5255593E-2,-1.07344404E-1,1.0948527E-2,7.8650993E-1,-1.3218048E-1,6.0678405E-1,1.5465321E-3,-7.991468E-2,2.860029E-4,1.5549718E-1,2.0049253E-2,-1.8854214E-2,8.587445E-2,-5.3243064E-3],"categories":[],"categories_nodes":[],"categories_segments":[],"categories_sizes":[],"default_left":[0,0,0,0,0,0,0,0,0,0,0,0,0,0,0],"id":72,"left_children":[1,3,5,7,9,11,13,-1,-1,-1,-1,-1,-1,-1,-1],"loss_changes":[9.27001E0,9.369822E0,1.4076358E1,1.0289108E1,9.428983E0,1.4352121E1,4.486123E0,0E0,0E0,0E0,0E0,0E0,0E0,0E0,0E0],"parents":[2147483647,0,0,1,1,2,2,3,3,4,4,5,5,6,6],"right_children":[2,4,6,8,10,12,14,-1,-1,-1,-1,-1,-1,-1,-1],"split_conditions":[3.39E0,3.89E0,4E0,3.82E0,3.14E0,2.68E0,6.5E-1,1.5465321E-3,-7.991468E-2,2.860029E-4,1.5549718E-1,2.0049253E-2,-1.8854214E-2,8.587445E-2,-5.3243064E-3],"split_indices":[5,0,3,0,7,0,10,0,0,0,0,0,0,0,0],"split_type":[0,0,0,0,0,0,0,0,0,0,0,0,0,0,0],"sum_hessian":[3.6103926E3,2.822261E3,7.8813153E2,2.8075962E3,1.4664812E1,7.6243054E2,2.5701027E1,2.7930044E3,1.4591859E1,7.757605E0,6.907207E0,1.1008711E2,6.523434E2,1.838255E1,7.3184776E0],"tree_param":{"num_deleted":"0","num_feature":"16","num_nodes":"15","size_leaf_vector":"1"}},{"base_weights":[-1.9912547E-3,-5.033503E-3,7.206058E-1,5.0792098E-2,-3.9806526E-2,9.644294E-2,-2.077206E-1,2.8772957E-3,3.9862882E-2,-7.7179433E-3,6.1642276E-3,-8.412707E-2,5.987223E-2],"categories":[],"categories_nodes":[],"categories_segments":[],"categories_sizes":[],"default_left":[0,0,0,0,0,0,0,0,0,0,0,0,0],"id":73,"left_children":[1,3,5,7,9,-1,11,-1,-1,-1,-1,-1,-1],"loss_changes":[7.9520063E0,6.9933357E0,3.633039E0,1.0579058E1,8.420806E0,0E0,2.5358531E0,0E0,0E0,0E0,0E0,0E0,0E0],"parents":[2147483647,0,0,1,1,2,2,3,3,4,4,6,6],"right_children":[2,4,6,8,10,-1,12,-1,-1,-1,-1,-1,-1],"split_conditions":[1.4E1,2E0,2.92E0,1E0,4E0,9.644294E-2,2.6E0,2.8772957E-3,3.9862882E-2,-7.7179433E-3,6.1642276E-3,-8.412707E-2,5.987223E-2],"split_indices":[3,2,5,4,2,0,0,0,0,0,0,0,0],"split_type":[0,0,0,0,0,0,0,0,0,0,0,0,0],"sum_hessian":[3.6146616E3,3.6004958E3,1.4165625E1,1.381744E3,2.218752E3,1.1188176E1,2.9774485E0,1.300501E3,8.1243034E1,1.6216051E3,5.9714685E2,1.6432818E0,1.3341665E0],"tree_param":{"num_deleted":"0","num_feature":"16","num_nodes":"13","size_leaf_vector":"1"}},{"base_weights":[2.174435E-3,6.3018076E-2,-3.551182E-2,4.12429E-1,4.6305824E-2,-6.7839734E-2,8.048386E-2,7.6303825E-2,-5.920419E-2,2.5333967E-3,4.034963E-2,-8.448493E-3,5.9339534E-2,1.1530869E-2,-4.3930028E-2],"categories":[],"categories_nodes":[],"categories_segments":[],"categories_sizes":[],"default_left":[0,0,0,0,0,0,0,0,0,0,0,0,0,0,0],"id":74,"left_children":[1,3,5,7,9,11,13,-1,-1,-1,-1,-1,-1,-1,-1],"loss_changes":[8.312815E0,8.078054E0,8.400519E0,2.2698196E1,9.911257E0,1.9326052E1,8.891433E0,0E0,0E0,0E0,0E0,0E0,0E0,0E0,0E0],"parents":[2147483647,0,0,1,1,2,2,3,3,4,4,5,5,6,6],"right_children":[2,4,6,8,10,12,14,-1,-1,-1,-1,-1,-1,-1,-1],"split_conditions":[2E0,2.03E0,2E0,2E0,1E0,3E0,3E0,7.6303825E-2,-5.920419E-2,2.5333967E-3,4.034963E-2,-8.448493E-3,5.9339534E-2,1.1530869E-2,-4.3930028E-2],"split_indices":[2,0,3,3,4,4,4,0,0,0,0,0,0,0,0],"split_type":[0,0,0,0,0,0,0,0,0,0,0,0,0,0,0],"sum_hessian":[3.6233738E3,1.3856309E3,2.237743E3,6.216841E1,1.3234624E3,1.7503397E3,4.8740326E2,4.626132E1,1.5907094E1,1.2510782E3,7.23841E1,1.7082113E3,4.2128372E1,4.5752768E2,2.9875565E1],"tree_param":{"num_deleted":"0","num_feature":"16","num_nodes":"15","size_leaf_vector":"1"}},{"base_weights":[9.320895E-3,2.3213236E-2,-1.5089488E-1,2.8196909E-3,2.1316914E-1,7.3159444E-3,-5.14835E-1,2.2891596E-2,-1.1428635E-3,-1.8643424E-2,3.6992833E-2,6.278758E-3,-6.673685E-2,-1.1362797E-1,-1.9858085E-2],"categories":[],"categories_nodes":[],"categories_segments":[],"categories_sizes":[],"default_left":[0,0,0,0,0,0,0,0,0,0,0,0,0,0,0],"id":75,"left_children":[1,3,5,7,9,11,13,-1,-1,-1,-1,-1,-1,-1,-1],"loss_changes":[8.0747595E0,1.2929591E1,1.667175E1,9.71608E0,2.0339024E1,7.630116E0,1.7015463E1,0E0,0E0,0E0,0E0,0E0,0E0,0E0,0E0],"parents":[2147483647,0,0,1,1,2,2,3,3,4,4,5,5,6,6],"right_children":[2,4,6,8,10,12,14,-1,-1,-1,-1,-1,-1,-1,-1],"split_conditions":[5E0,4E0,3.18E0,1.94E0,2.62E0,7.8E-1,4.4E-1,2.2891596E-2,-1.1428635E-3,-1.8643424E-2,3.6992833E-2,6.278758E-3,-6.673685E-2,-1.1362797E-1,-1.9858085E-2],"split_indices":[2,2,5,5,5,10,10,0,0,0,0,0,0,0,0],"split_type":[0,0,0,0,0,0,0,0,0,0,0,0,0,0,0],"sum_hessian":[3.6252725E3,3.3367935E3,2.8847888E2,3.014205E3,3.2258832E2,2.0175328E2,8.672562E1,1.7779768E2,2.8364075E3,9.083826E1,2.3175005E2,1.8726366E2,1.4489625E1,2.8375113E1,5.8350502E1],"tree_param":{"num_deleted":"0","num_feature":"16","num_nodes":"15","size_leaf_vector":"1"}},{"base_weights":[6.6472213E-3,3.8234885E-3,7.0271516E-1,1.9332943E-2,-1.1838833E-1,9.3574435E-2,1.539454E-1,3.7004154E-3,-1.7558452E-2,-1.3375276E-1,-8.928931E-3,6.0561717E-2,-9.1424696E-2],"categories":[],"categories_nodes":[],"categories_segments":[],"categories_sizes":[],"default_left":[0,0,0,0,0,0,0,0,0,0,0,0,0],"id":76,"left_children":[1,3,5,7,9,-1,11,-1,-1,-1,-1,-1,-1],"loss_changes":[7.105511E0,6.8312874E0,1.7237701E0,1.1021718E1,1.4279324E1,0E0,3.2316618E0,0E0,0E0,0E0,0E0,0E0,0E0],"parents":[2147483647,0,0,1,1,2,2,3,3,4,4,6,6],"right_children":[2,4,6,8,10,-1,12,-1,-1,-1,-1,-1,-1],"split_conditions":[1.4E1,1E0,2.8E-1,5E0,1.9E0,9.3574435E-2,2.35E0,3.7004154E-3,-1.7558452E-2,-1.3375276E-1,-8.928931E-3,6.0561717E-2,-9.1424696E-2],"split_indices":[3,4,10,2,0,0,0,0,0,0,0,0,0],"split_type":[0,0,0,0,0,0,0,0,0,0,0,0,0],"sum_hessian":[3.615465E3,3.601859E3,1.3606137E1,3.1969832E3,4.0487564E2,9.055605E0,4.5505323E0,2.9319802E3,2.6500308E2,8.390271E0,3.9648538E2,3.5025625E0,1.0479698E0],"tree_param":{"num_deleted":"0","num_feature":"16","num_nodes":"13","size_leaf_vector":"1"}},{"base_weights":[-1.1792927E-2,6.1220247E-3,-1.551113E-1,-6.0154963E-3,1.7151973E-1,-2.3852295E-1,2.575891E-1,1.0304653E-2,-3.4190293E-3,-1.2662577E-2,4.2801008E-2,1.8914252E-3,-3.7093565E-2,-7.818365E-3,6.1803814E-2],"categories":[],"categories_nodes":[],"categories_segments":[],"categories_sizes":[],"default_left":[0,0,0,0,0,0,0,0,0,0,0,0,0,0,0],"id":77,"left_children":[1,3,5,7,9,11,13,-1,-1,-1,-1,-1,-1,-1,-1],"loss_changes":[9.270634E0,6.4454556E0,1.387199E1,9.196246E0,1.6839779E1,1.1401131E1,8.270181E0,0E0,0E0,0E0,0E0,0E0,0E0,0E0,0E0],"parents":[2147483647,0,0,1,1,2,2,3,3,4,4,5,5,6,6],"right_children":[2,4,6,8,10,12,14,-1,-1,-1,-1,-1,-1,-1,-1],"split_conditions":[1E0,4E0,5E0,2.51E0,2.64E0,2.43E0,2.98E0,1.0304653E-2,-3.4190293E-3,-1.2662577E-2,4.2801008E-2,1.8914252E-3,-3.7093565E-2,-7.818365E-3,6.1803814E-2],"split_indices":[4,3,4,0,0,5,0,0,0,0,0,0,0,0,0],"split_type":[0,0,0,0,0,0,0,0,0,0,0,0,0,0,0],"sum_hessian":[3.609334E3,3.2091448E3,4.001893E2,2.9906433E3,2.1850131E2,3.332563E2,6.6933014E1,6.134352E2,2.3772083E3,1.0127968E2,1.17221634E2,1.1348179E2,2.197745E2,3.5058086E1,3.1874924E1],"tree_param":{"num_deleted":"0","num_feature":"16","num_nodes":"15","size_leaf_vector":"1"}},{"base_weights":[1.3223707E-2,3.5465807E-1,4.291139E-3,1.6046996E-1,8.267189E-1,-4.1859213E-1,9.483346E-3,3.6074445E-2,-1.2156842E-1,1.2597284E-1,3.553582E-2,-1.7173631E-2,-1.08634606E-1,-1.614618E-3,6.646182E-3],"categories":[],"categories_nodes":[],"categories_segments":[],"categories_sizes":[],"default_left":[0,0,0,0,0,0,0,0,0,0,0,0,0,0,0],"id":78,"left_children":[1,3,5,7,9,11,13,-1,-1,-1,-1,-1,-1,-1,-1],"loss_changes":[1.1069472E1,8.3497505E0,7.773306E0,1.8850328E1,5.00791E0,6.8917046E0,5.1071157E0,0E0,0E0,0E0,0E0,0E0,0E0,0E0,0E0],"parents":[2147483647,0,0,1,1,2,2,3,3,4,4,5,5,6,6],"right_children":[2,4,6,8,10,12,14,-1,-1,-1,-1,-1,-1,-1,-1],"split_conditions":[-1.2E0,2.12E0,-1.05E0,2E0,1E0,3.51E0,3E0,3.6074445E-2,-1.2156842E-1,1.2597284E-1,3.553582E-2,-1.7173631E-2,-1.08634606E-1,-1.614618E-3,6.646182E-3],"split_indices":[10,5,10,5,3,0,2,0,0,0,0,0,0,0,0],"split_type":[0,0,0,0,0,0,0,0,0,0,0,0,0,0,0],"sum_hessian":[3.6289707E3,9.153347E1,3.5374373E3,6.580408E1,2.5729391E1,4.1940514E1,3.4954966E3,5.808824E1,7.715839E0,1.2538514E1,1.3190878E1,3.1538515E1,1.04019985E1,2.4114963E3,1.0840002E3],"tree_param":{"num_deleted":"0","num_feature":"16","num_nodes":"15","size_leaf_vector":"1"}},{"base_weights":[1.2038846E-2,2.4013229E-2,-1.2874992E-1,7.8390224E-4,2.3736043E-1,-9.627986E-2,-1.1369693E-1,-3.8145165E-4,5.6978263E-2,-1.2636299E-2,3.860589E-2,-1.3520007E-2,2.713226E-1],"categories":[],"categories_nodes":[],"categories_segments":[],"categories_sizes":[],"default_left":[0,0,0,0,0,0,0,0,0,0,0,0,0],"id":79,"left_children":[1,3,5,7,9,11,-1,-1,-1,-1,-1,-1,-1],"loss_changes":[6.1096706E0,1.6548342E1,9.190681E0,7.8837957E0,1.7781456E1,3.0581036E1,0E0,0E0,0E0,0E0,0E0,0E0,0E0],"parents":[2147483647,0,0,1,1,2,2,3,3,4,4,5,5],"right_children":[2,4,6,8,10,12,-1,-1,-1,-1,-1,-1,-1],"split_conditions":[5E0,4E0,3.79E0,1.51E0,2.62E0,3.75E0,-1.1369693E-1,-3.8145165E-4,5.6978263E-2,-1.2636299E-2,3.860589E-2,-1.3520007E-2,2.713226E-1],"split_indices":[2,2,5,10,5,5,0,0,0,0,0,0,0],"split_type":[0,0,0,0,0,0,0,0,0,0,0,0,0],"sum_hessian":[3.6212366E3,3.3381494E3,2.8308722E2,3.0112834E3,3.2686603E2,2.7531607E2,7.771157E0,2.9881277E3,2.315555E1,9.489605E1,2.3196997E2,2.7249307E2,2.8229806E0],"tree_param":{"num_deleted":"0","num_feature":"16","num_nodes":"13","size_leaf_vector":"1"}},{"base_weights":[-5.110395E-3,-1.2520805E-2,2.3750077E-1,-6.322626E-3,-6.644322E-1,5.4737914E-1,-2.2185957E-1,-3.8153096E-4,-7.29268E-2,-8.224993E-2,1.3952695E-2,-2.9638255E-2,8.730059E-2,-4.4075113E-2,1.5213118E-1],"categories":[],"categories_nodes":[],"categories_segments":[],"categories_sizes":[],"default_left":[0,0,0,0,0,0,0,0,0,0,0,0,0,0,0],"id":80,"left_children":[1,3,5,7,9,11,13,-1,-1,-1,-1,-1,-1,-1,-1],"loss_changes":[6.4716053E0,1.4106987E1,1.5308468E1,6.269745E0,4.2933083E0,1.7842915E1,1.7341412E1,0E0,0E0,0E0,0E0,0E0,0E0,0E0,0E0],"parents":[2147483647,0,0,1,1,2,2,3,3,4,4,5,5,6,6],"right_children":[2,4,6,8,10,12,14,-1,-1,-1,-1,-1,-1,-1,-1],"split_conditions":[3.86E0,3.83E0,3.93E0,3.94E0,1E0,2.6E-1,3.96E0,-3.8153096E-4,-7.29268E-2,-8.224993E-2,1.3952695E-2,-2.9638255E-2,8.730059E-2,-4.4075113E-2,1.5213118E-1],"split_indices":[5,5,5,0,3,10,0,0,0,0,0,0,0,0,0],"split_type":[0,0,0,0,0,0,0,0,0,0,0,0,0,0,0],"sum_hessian":[3.5969854E3,3.4912944E3,1.0569106E2,3.459413E3,3.1881369E1,6.3000294E1,4.269077E1,3.4484585E3,1.0954654E1,2.6623781E1,5.2575865E0,1.756801E1,4.543228E1,3.8591904E1,4.098864E0],"tree_param":{"num_deleted":"0","num_feature":"16","num_nodes":"15","size_leaf_vector":"1"}},{"base_weights":[1.7436637E-2,2.4377544E-1,1.12410905E-2,5.7134825E-1,6.849159E-2,-3.1595135E-1,1.5260379E-2,6.708695E-2,-9.6253894E-2,-1.9564608E-2,5.5797048E-2,-1.3326085E-2,-1.3766515E-1,8.8584155E-4,2.1378985E-2],"categories":[],"categories_nodes":[],"categories_segments":[],"categories_sizes":[],"default_left":[0,0,0,0,0,0,0,0,0,0,0,0,0,0,0],"id":81,"left_children":[1,3,5,7,9,11,13,-1,-1,-1,-1,-1,-1,-1,-1],"loss_changes":[5.0766993E0,5.4994917E0,4.6428204E0,5.7578E0,8.380255E0,8.11883E0,4.427384E0,0E0,0E0,0E0,0E0,0E0,0E0,0E0,0E0],"parents":[2147483647,0,0,1,1,2,2,3,3,4,4,5,5,6,6],"right_children":[2,4,6,8,10,12,14,-1,-1,-1,-1,-1,-1,-1,-1],"split_conditions":[-1.2E0,1E0,-1.05E0,3.82E0,4E0,3.65E0,3.86E0,6.708695E-2,-9.6253894E-2,-1.9564608E-2,5.5797048E-2,-1.3326085E-2,-1.3766515E-1,8.8584155E-4,2.1378985E-2],"split_indices":[10,3,10,0,3,0,7,0,0,0,0,0,0,0,0],"split_type":[0,0,0,0,0,0,0,0,0,0,0,0,0,0,0],"sum_hessian":[3.62124E3,9.546108E1,3.5257788E3,3.2487827E1,6.297325E1,4.1843895E1,3.483935E3,3.1036745E1,1.4510827E0,4.1291435E1,2.1681814E1,3.6656048E1,5.187848E0,3.3761106E3,1.0782454E2],"tree_param":{"num_deleted":"0","num_feature":"16","num_nodes":"15","size_leaf_vector":"1"}},{"base_weights":[-7.431009E-4,1.7323267E-1,-9.297134E-3,-3.0179165E-2,4.885523E-1,-1.859882E-2,1.829989E-1,4.41022E-3,-1.3209425E-1,2.9102573E-2,1.3768952E-1,-2.6104283E-3,3.0387377E-2,6.1181266E-2,-6.906943E-3],"categories":[],"categories_nodes":[],"categories_segments":[],"categories_sizes":[],"default_left":[0,0,0,0,0,0,0,0,0,0,0,0,0,0,0],"id":82,"left_children":[1,3,5,7,9,11,13,-1,-1,-1,-1,-1,-1,-1,-1],"loss_changes":[5.370969E0,1.0862947E1,6.156155E0,1.0006027E1,1.1247281E1,7.9514446E0,1.7207613E1,0E0,0E0,0E0,0E0,0E0,0E0,0E0,0E0],"parents":[2147483647,0,0,1,1,2,2,3,3,4,4,5,5,6,6],"right_children":[2,4,6,8,10,12,14,-1,-1,-1,-1,-1,-1,-1,-1],"split_conditions":[2.03E0,1.98E0,2E0,3.34E0,3.43E0,7E0,1E0,4.41022E-3,-1.3209425E-1,2.9102573E-2,1.3768952E-1,-2.6104283E-3,3.0387377E-2,6.1181266E-2,-6.906943E-3],"split_indices":[0,0,4,5,5,3,1,0,0,0,0,0,0,0,0],"split_type":[0,0,0,0,0,0,0,0,0,0,0,0,0,0,0],"sum_hessian":[3.6069673E3,1.6813385E2,3.4388335E3,1.0275267E2,6.538118E1,3.2810278E3,1.578056E2,9.807448E1,4.6781964E0,5.457403E1,1.080715E1,3.2072979E3,7.372995E1,5.7892624E1,9.991297E1],"tree_param":{"num_deleted":"0","num_feature":"16","num_nodes":"15","size_leaf_vector":"1"}},{"base_weights":[-7.648951E-3,-1.0994253E-2,5.186297E-1,1.5825003E-3,-1.1242747E-1,6.6914254E-1,-1.0568918E-1,-1.3322474E-2,1.9363282E-3,-1.719658E-2,8.4122054E-2,7.628069E-2,7.3677422E-3],"categories":[],"categories_nodes":[],"categories_segments":[],"categories_sizes":[],"default_left":[0,0,0,0,0,0,0,0,0,0,0,0,0],"id":83,"left_children":[1,3,5,7,9,11,-1,-1,-1,-1,-1,-1,-1],"loss_changes":[6.358787E0,4.5757885E0,6.1171756E0,7.6538935E0,2.2610678E1,1.1394043E0,0E0,0E0,0E0,0E0,0E0,0E0,0E0],"parents":[2147483647,0,0,1,1,2,2,3,3,4,4,5,5],"right_children":[2,4,6,8,10,12,-1,-1,-1,-1,-1,-1,-1],"split_conditions":[1.2E1,1E0,9.5E-1,1E0,3.55E0,3E0,-1.0568918E-1,-1.3322474E-2,1.9363282E-3,-1.719658E-2,8.4122054E-2,7.628069E-2,7.3677422E-3],"split_indices":[3,4,10,2,5,4,0,0,0,0,0,0,0],"split_type":[0,0,0,0,0,0,0,0,0,0,0,0,0],"sum_hessian":[3.6075574E3,3.5857437E3,2.1813745E1,3.1910662E3,